tree
version=v4
num_class=1
num_tree_per_iteration=1
label_index=0
max_feature_idx=21
objective=binary sigmoid:1
feature_names=toss_winner toss_decision lighting series_name season ground_id team_count_50runs_last15 team_winp_last5 team1only_avg_runs_last15 team1_winp_team2_last15 ground_avg_runs_last15 ratio_batting_average ratio_average_strike_rate ratio_average_fours_per_ball ratio_average_sixes_per_ball ratio_average_economy ratio_bowling_average ratio_bowling_strike_rate ratio_average_wides_per_ball ratio_average_noballs_per_ball ratio_team_strike_rate ratio_team_wicket_rate
feature_infos=-1:60:81:30:46:0:47:58:101:118:138:40:114:119:25:109:113:129:139:2:4:16:45:54:55:127:140:7:9:18:31:42:61:120:6:15:20:34:110:115:133:10:35:64:70:72:88:94:99:103:121:124:13:19:23:27:32:38:43:48:69:78:87:96:97:111:11:29:49:53:56:74:104:106:136:1:17:21:24:51:62:77:82:83:84:89:90:91:92:93:112:116:126:8:22:36:39:57:59:79:80:85:108:117:125:134:135:137:3:5:12:28:37:50:63:65:73:75:76:132 -1:1:0 -1:2:0:1 -1:79:35:11:58:12:52:69:18:17:36:67:57:76:70:75:21:22:62:1:29:53:71:61:66:72:83:7:8:34:39:60:64:10:14:23:25:32:33:38:43:45:54:55:59:68:78:81 -1:1:2:3:0:4 -1:91:13:14:45:66:53:75:42:74:4:1:2:50:86:5:17:18:95:116:118:8:10:11:12:24:36:49:67:77:90:97:0:16:19:31:34:52:73:102:3:6:21:33:106:107:47:61:69:93:99:23:27:58:70:83:35:44:46:60:65:76:119:30:32:81:7:9:28:114:115:15:20:26:41:51:54:55:59:89:120:122:29:39:57:64:68:78:80:85:87:101:104:109:110:111:113 [0.083333332999999996:11] [0.0099009900000000001:101] [103:218.5] [0:100] [81.5:209.5] [0:7.4396135269999997] [0:5.0001142669999998] [0:6.9593578620000001] [0:20.825786229999999] [0:5.2336206900000004] [0:16.710000000000001] [0:8.1818181820000007] [0:22.507219710000001] [0:41.376979040000002] [0:1.56216584] [0:2.0300970870000001]
tree_sizes=1599 1804 1593 1607 1610 1710 1613

Tree=0
num_leaves=14
num_cat=0
split_feature=11 11 11 15 15 7 15 15 7 8 8 11 15
split_gain=158.78 21.5094 17.118 11.6593 8.8026 6.95691 5.37727 4.84709 4.2027 3.53328 2.24501 2.21211 0.825478
threshold=1.0141495575000004 1.1985251970000002 0.81670692000000011 1.0450597020000003 0.94711167200000013 1.6531127550000002 1.0094771715000002 0.98583969650000014 1.0328947370000001 164.85000000000002 159.83333335000003 0.69738776950000003 0.91471244850000011
decision_type=10 10 10 8 8 2 10 10 2 8 8 10 10
left_child=2 3 4 9 10 6 -4 12 -9 -2 -1 -6 -3
right_child=1 7 5 -5 11 -7 -8 8 -10 -11 -12 -13 -14
leaf_value=0.023122155850272063 -0.012928882762581197 -0.022957855595977968 0.0080467466928891857 0.022729687311718455 0.055287512162165965 0.037491568471509168 0.027288773896560418 -0.0045545216087684044 -0.022094641971820192 0.0033155769379330877 0.038330311719224554 0.042918730662608699 -0.031968798265216508
leaf_weight=13.249469280242922 17.499299049377441 13.999439239501955 21.249148845672607 14.999399185180662 22.999078750610352 15.499379158020018 18.249269008636475 19.249228954315186 17.749289035797119 18.74924898147583 12.99947929382324 16.999319076538086 13.499459266662596
leaf_count=53 70 56 85 60 92 62 73 77 71 75 52 68 54
internal_value=0.0126584 -0.00912299 0.0334518 0.00345087 0.0423531 0.0227297 0.0169371 -0.0191138 -0.012969 -0.00452658 0.0306538 0.0500308 -0.0273814
internal_weight=0 115.745 121.245 51.2479 66.2473 54.9978 39.4984 64.4974 36.9985 36.2485 26.2489 39.9984 27.4989
internal_count=948 463 485 205 265 220 158 258 148 145 105 160 110
is_linear=0
shrinkage=1


Tree=1
num_leaves=16
num_cat=0
split_feature=11 12 11 11 20 6 10 20 20 11 16 13 16 20 19
split_gain=150.657 25.1353 16.2549 14.5165 7.67463 6.50269 6.46357 5.34486 10.242 3.67439 3.35237 3.06623 1.91884 1.9091 0.954547
threshold=1.0141495575000004 0.96988463750000009 0.81670692000000011 1.1985251970000002 0.8695508970000001 0.6899038460000001 145.47916665000002 0.96726878850000009 1.0448197605000002 0.68788713950000013 0.97670562300000008 0.85698786550000017 0.98370829100000012 0.9962651655000001 1.016754946
decision_type=10 10 10 10 10 2 10 10 10 10 10 10 10 8 10
left_child=2 -2 4 10 -1 -4 -5 -7 -9 12 -3 -11 -6 -8 -15
right_child=1 3 5 6 9 7 13 8 -10 11 -12 -13 -14 14 -16
leaf_value=0.01102212482777478 0.010800925997224676 -0.021037793282548994 -0.0049584204933935125 -0.020003277195657952 0.032946547919813857 0.0015051465889786247 -0.031157911316395986 0.03785647292988175 0.0059723330428709904 0.035292133532420791 -0.0061156285375741446 0.017600344245976403 0.046883203238028172 -0.037482309861159184 -0.046842072214882527
leaf_weight=12.994784548878668 14.499105021357535 20.999148577451706 14.74786104261875 16.4981699436903 12.993921026587488 12.99839563667774 13.998632118105887 13.497218266129495 13.747338086366652 13.244640439748766 19.748666301369667 13.244488671422003 13.740227386355398 12.998415485024454 16.997584030032158
leaf_count=52 58 84 59 66 52 52 56 54 55 53 79 53 55 52 68
internal_value=0 -0.0212161 0.0202589 -0.0258014 0.0289356 0.00981071 -0.0338817 0.0152232 0.021768 0.0333093 -0.0138057 0.0264463 0.0401094 -0.0390862 -0.0427861
internal_weight=0 115.74 121.209 101.241 66.2181 54.9908 60.4928 40.243 27.2446 53.2233 40.7478 26.4891 26.7341 43.9946 29.996
internal_count=948 463 485 405 265 220 242 161 109 213 163 106 107 176 120
is_linear=0
shrinkage=0.026


Tree=2
num_leaves=14
num_cat=0
split_feature=11 11 11 15 20 8 15 15 16 8 8 8 15
split_gain=142.995 19.371 15.5061 10.9837 8.09778 5.63852 6.70667 4.57297 6.3969 3.70606 3.34216 3.19912 2.23333
threshold=1.0141495575000004 1.1985251970000002 0.80345414650000013 1.0450597020000003 0.8695508970000001 162.06666665000003 0.97391534450000006 0.97292798100000011 1.0137566445000001 170.82857145000006 164.36666665000004 169.86428570000004 0.96009549400000005
decision_type=10 10 10 8 10 10 10 10 10 10 8 10 8
left_child=2 3 4 10 -1 6 -4 -3 -9 12 -2 -7 -6
right_child=1 7 5 -5 9 11 -8 8 -10 -11 -12 -13 -14
leaf_value=0.010738143448971419 -0.025003096888347488 -0.038936406542644665 -0.011005839978608352 0.0099715696764760241 0.030299904460077718 0.02767878079075221 0.013758389721587029 -0.010737839250974037 -0.032493690506300611 0.021992695326581449 -0.0091672139676143172 0.010664671367487336 0.043644909914239173
leaf_weight=12.991684824228285 16.747069522738457 24.726715043187141 13.746578231453897 14.998567700386046 14.234940826892851 13.490648314356806 15.99412865936756 14.241704389452932 25.485050782561302 12.97897148132324 19.498964712023735 16.74156442284584 20.959366083145142
leaf_count=52 67 99 55 60 57 54 64 57 102 52 78 67 84
internal_value=0 -0.0206721 0.019744 -0.00874083 0.0289551 0.0103498 0.00231201 -0.0301582 -0.0246944 0.0338679 -0.016484 0.0182569 0.0382473
internal_weight=0 115.698 121.138 51.2446 61.165 59.9729 29.7407 64.4535 39.7268 48.1733 36.246 30.2322 35.1943
internal_count=948 463 485 205 245 240 119 258 159 193 145 121 141
is_linear=0
shrinkage=0.026


Tree=3
num_leaves=14
num_cat=0
split_feature=11 13 11 11 20 10 18 14 15 20 15 11 14
split_gain=135.762 24.1266 14.7562 10.5268 7.71323 6.98654 5.28704 5.11829 4.50073 3.11557 3.09442 2.09382 0.590933
threshold=1.0141495575000004 0.96976004950000017 0.80345414650000013 1.1985251970000002 0.8695508970000001 145.47916665000002 1.0669553945000003 1.2979835110000002 0.9929583420000001 0.9962651655000001 0.94711167200000013 0.69738776950000003 1.3236385165000002
decision_type=10 10 10 10 10 10 10 10 10 8 8 10 10
left_child=2 -2 4 6 -1 -5 -3 8 -4 -7 -6 -12 -11
right_child=1 3 7 5 10 9 -8 -9 -10 12 11 -13 -14
leaf_value=0.010462032714007792 0.0035341163982350325 -0.022619993826258945 0.0061873264832410669 -0.018768329952633403 0.023687376275175847 -0.028506155130153654 -0.0017895759851231793 -0.0041860553527357522 0.022329872481368272 -0.040091284586330364 0.043239559417018479 0.029750485508725531 -0.04775820755749019
leaf_weight=12.987908035516737 23.235755503177643 22.493732154369354 23.735482543706894 16.480107814073563 15.966621428728102 13.230004906654356 12.995748147368429 13.239252686500548 22.979830652475357 13.715721994638445 18.914037868380547 13.213355705142019 13.469832777976988
leaf_count=52 93 90 95 66 64 53 52 53 92 55 76 53 54
internal_value=0 -0.0201483 0.0192471 -0.0261046 0.0282412 -0.0330362 -0.0149922 0.0100839 0.014128 -0.0388542 0.0330425 0.0376918 -0.0438901
internal_weight=0 115.621 121.036 92.3851 61.0819 56.8957 35.4895 59.9546 46.7153 40.4156 48.094 32.1274 27.1856
internal_count=948 463 485 370 245 228 142 240 187 162 193 129 109
is_linear=0
shrinkage=0.026


Tree=4
num_leaves=14
num_cat=0
split_feature=12 13 15 18 12 15 13 20 15 15 13 15 12
split_gain=103.656 25.4144 13.1776 8.24641 9.45312 7.11736 7.08717 8.28218 4.25459 3.92856 3.48728 2.95166 2.91517
threshold=0.97614784350000006 0.96427673400000014 1.0417955050000003 1.0372938610000002 1.1464653075000002 0.86524207400000008 0.9324392465000001 1.0154433940000003 1.1090875885000002 1.0417955050000003 0.72560034300000009 1.0170291155000002 1.1076087375000003
decision_type=10 10 8 10 10 10 10 8 10 10 10 10 10
left_child=2 11 6 5 9 -3 7 10 -4 -5 -1 -2 -7
right_child=1 3 8 4 -6 12 -8 -9 -10 -11 -12 -13 -14
leaf_value=0.034717491845070884 -0.00026186719822888799 -0.010021577317132654 0.044335008446238749 -0.011324715441863897 -0.02525413353094047 -0.025580884955014184 0.00034616265884533729 0.0020488950713945806 0.024426013365813272 0.0080046694936031521 0.018663802623604932 0.016957116997865576 -0.038677197601810001
leaf_weight=15.945765212178229 13.979815036058428 13.467099592089651 15.440728589892389 15.716808944940569 21.939307302236557 25.457948550581932 18.464031651616096 13.974131003022192 13.689187675714491 12.976674616336821 21.453880935907364 12.976481840014456 20.94096714258194
leaf_count=64 56 54 62 63 88 102 74 56 55 52 86 52 84
internal_value=0 -0.0146079 0.0202891 -0.0201297 -0.0124064 -0.0266618 0.0141618 0.0191273 0.0349791 -0.00258297 0.0255085 0.00802717 -0.0314916
internal_weight=0 137.455 98.9677 110.499 50.6328 59.866 69.8378 51.3738 29.1299 28.6935 37.3996 26.9563 46.3989
internal_count=948 551 397 443 203 240 280 206 117 115 150 108 186
is_linear=0
shrinkage=0.026


Tree=5
num_leaves=15
num_cat=0
split_feature=12 13 13 18 12 19 13 19 16 6 7 19 18 19
split_gain=98.4382 24.1346 7.91002 7.84069 8.98411 6.18112 5.96672 4.96684 3.13547 2.09245 2.07444 1.80504 1.5343 1.25877
threshold=0.97614784350000006 0.96427673400000014 0.84485842800000011 1.0372938610000002 1.1464653075000002 0.44132779050000009 1.2170651150000003 0.37077657750000004 0.89705072400000008 0.9354166665000001 0.83669132350000008 1.0392231340000002 0.8392082540000001 1.0011709440000003
decision_type=10 10 10 10 10 10 10 8 10 2 2 10 10 10
left_child=2 9 7 5 11 -3 12 -1 -4 -2 -9 -5 -7 -10
right_child=1 3 8 4 -6 6 -8 10 13 -11 -12 -13 -14 -15
leaf_value=0.016143534561789182 0.014932266961817557 -0.010109646632381097 0.0027712764796427427 0.0044125562759380092 -0.02462561906923624 -0.018266967237243383 -0.042735712636583156 0.039736662024703058 0.022769196812966908 0.00044058569986241299 0.026880404926524656 -0.0086547087901079622 -0.030148569986571946 0.011471958492563737
leaf_weight=20.418432265520096 13.724004402756693 12.965482845902441 16.960038468241692 13.476998537778856 21.914593160152435 16.951837539672855 16.917856261134148 14.660756021738051 13.21551798284054 13.226852834224699 20.13898566365242 15.212067708373068 12.96681973338127 13.455731704831122
leaf_count=82 55 52 68 54 88 68 68 59 53 53 81 61 52 54
internal_value=0 -0.0142385 0.0197857 -0.0196232 -0.012091 -0.0259968 -0.0303948 0.0263236 0.0115117 0.00782009 0.0322966 -0.00251622 -0.0234165 0.0170697
internal_weight=0 137.357 98.8495 110.406 50.6037 59.802 46.8365 55.2182 43.6313 26.9509 34.7997 28.6891 29.9187 26.6712
internal_count=948 551 397 443 203 240 188 222 175 108 140 115 120 107
is_linear=0
shrinkage=0.026


Tree=6
num_leaves=14
num_cat=0
split_feature=12 12 19 15 14 20 20 12 20 20 15 15 10
split_gain=93.4959 15.2661 13.4515 12.4277 10.4266 6.69349 5.73525 4.51957 6.82395 5.93554 4.07136 3.10954 3.05191
threshold=0.97614784350000006 1.1076087375000003 0.44132779050000009 1.0417955050000003 1.0904113360000001 1.0258786435000002 0.95809416550000004 0.88155112800000002 0.97285703200000018 0.97035984250000007 1.1090875885000002 0.97292798100000011 152.46666665000001
decision_type=10 10 10 8 8 10 8 10 8 10 10 10 8
left_child=3 4 -3 7 6 -6 -2 8 -1 -9 -5 -8 -4
right_child=1 2 12 10 5 -7 11 9 -10 -11 -12 -13 -14
leaf_value=0.03009415849255842 -0.028678098377309835 -0.0021431653058797545 -0.02319406131443881 0.042776065858592151 0.014254788095490778 -0.0085579605023632134 -0.017788371289612196 -0.0066086501046993783 0.0069874707442755812 0.015395839866906885 0.023259550864992106 -0.0011328268555422345 -0.037190012225521624
leaf_weight=19.636110946536064 13.967106416821478 14.195553049445151 18.156074404716492 15.365464657545091 19.457304239273071 15.718126893043516 13.701200231909754 13.714465513825415 15.428291976451872 20.938497692346573 13.640066891908644 16.953898921608925 25.081490695476532
leaf_count=79 56 57 73 62 78 63 55 55 62 84 55 68 101
internal_value=0 -0.0138814 -0.0241031 0.0192965 -0.00652442 0.00406092 -0.0148688 0.0133463 0.0199272 0.00668721 0.0335983 -0.00857697 -0.0313129
internal_weight=0 137.231 57.4331 98.7229 79.7976 35.1754 44.6222 69.7174 35.0644 34.653 29.0055 30.6551 43.2376
internal_count=948 551 231 397 320 141 179 280 141 139 117 123 174
is_linear=0
shrinkage=0.026


end of trees

feature_importances:
ratio_average_economy=19
ratio_batting_average=15
ratio_team_strike_rate=12
ratio_average_strike_rate=9
ratio_average_fours_per_ball=8
team1only_avg_runs_last15=6
ratio_average_noballs_per_ball=6
ratio_bowling_average=4
ratio_average_wides_per_ball=4
team_winp_last5=3
ground_avg_runs_last15=3
ratio_average_sixes_per_ball=3
team_count_50runs_last15=2

parameters:
[boosting: gbdt]
[objective: binary]
[metric: binary_logloss]
[tree_learner: serial]
[device_type: cpu]
[data_sample_strategy: bagging]
[data: ]
[valid: ]
[num_iterations: 500]
[learning_rate: 0.026]
[num_leaves: 110]
[num_threads: 0]
[seed: 0]
[deterministic: 0]
[force_col_wise: 0]
[force_row_wise: 0]
[histogram_pool_size: -1]
[max_depth: -1]
[min_data_in_leaf: 52]
[min_sum_hessian_in_leaf: 0.001]
[bagging_fraction: 0.8959]
[pos_bagging_fraction: 1]
[neg_bagging_fraction: 1]
[bagging_freq: 0]
[bagging_seed: 3]
[feature_fraction: 0.6114]
[feature_fraction_bynode: 1]
[feature_fraction_seed: 2]
[extra_trees: 0]
[extra_seed: 6]
[early_stopping_round: 0]
[early_stopping_min_delta: 0]
[first_metric_only: 0]
[max_delta_step: 0]
[lambda_l1: 0]
[lambda_l2: 0]
[linear_lambda: 0]
[min_gain_to_split: 0]
[drop_rate: 0.1]
[max_drop: 50]
[skip_drop: 0.5]
[xgboost_dart_mode: 0]
[uniform_drop: 0]
[drop_seed: 4]
[top_rate: 0.2]
[other_rate: 0.1]
[min_data_per_group: 100]
[max_cat_threshold: 32]
[cat_l2: 10]
[cat_smooth: 10]
[max_cat_to_onehot: 4]
[top_k: 20]
[monotone_constraints: ]
[monotone_constraints_method: basic]
[monotone_penalty: 0]
[feature_contri: ]
[forcedsplits_filename: ]
[refit_decay_rate: 0.9]
[cegb_tradeoff: 1]
[cegb_penalty_split: 0]
[cegb_penalty_feature_lazy: ]
[cegb_penalty_feature_coupled: ]
[path_smooth: 0]
[interaction_constraints: ]
[verbosity: 1]
[saved_feature_importance_type: 0]
[use_quantized_grad: 0]
[num_grad_quant_bins: 4]
[quant_train_renew_leaf: 0]
[stochastic_rounding: 1]
[linear_tree: 0]
[max_bin: 255]
[max_bin_by_feature: ]
[min_data_in_bin: 3]
[bin_construct_sample_cnt: 200000]
[data_random_seed: 1]
[is_enable_sparse: 1]
[enable_bundle: 1]
[use_missing: 1]
[zero_as_missing: 0]
[feature_pre_filter: 1]
[pre_partition: 0]
[two_round: 0]
[header: 0]
[label_column: ]
[weight_column: ]
[group_column: ]
[ignore_column: ]
[categorical_feature: 0,1,2,3,4,5]
[forcedbins_filename: ]
[precise_float_parser: 0]
[parser_config_file: ]
[objective_seed: 5]
[num_class: 1]
[is_unbalance: 0]
[scale_pos_weight: 1]
[sigmoid: 1]
[boost_from_average: 1]
[reg_sqrt: 0]
[alpha: 0.9]
[fair_c: 1]
[poisson_max_delta_step: 0.7]
[tweedie_variance_power: 1.5]
[lambdarank_truncation_level: 30]
[lambdarank_norm: 1]
[label_gain: ]
[lambdarank_position_bias_regularization: 0]
[eval_at: ]
[multi_error_top_k: 1]
[auc_mu_weights: ]
[num_machines: 1]
[local_listen_port: 12400]
[time_out: 120]
[machine_list_filename: ]
[machines: ]
[gpu_platform_id: -1]
[gpu_device_id: -1]
[gpu_use_dp: 0]
[num_gpu: 1]

end of parameters

pandas_categorical:[["Aa", "Ad", "Ae Ss", "Am", "An", "Ba", "Bd", "Be Ht", "Be Ky", "Bh", "Bm Bs", "Bm Px", "Bn", "Bs Rs", "Ca", "Ca Vs", "Ci Sr Ks", "Cl Ds", "Cm Cs", "Co Ss", "Cy", "Da Aa", "Da Ds", "De", "Di", "Di Cs", "Dk", "Dm", "Ds", "Ds Sr Gs", "Ed", "Ex", "Fe Bl", "Ga", "Ga An Ws", "Ge", "Ge Gs", "Ge Ts", "Gn", "Gt", "Gt Ts", "Hd Ia", "He", "Hg Kg", "Hl Ph", "Ht Hs", "Ia", "Id", "Id Ud", "Ja Ks", "Ja Ts", "Jg Sr Ks", "Ju  Kr", "Ka", "Ka Kt Rs", "Ka Ts", "Ki Ks", "Ks", "Kt", "Ky Fs", "Le", "Le Qs", "Ln St", "Ls", "Lw Sr Gs", "MI Ce Tn", "Ma", "Ma Ph", "Me", "Me Rs", "Me Ss", "Mi", "Mi Is", "Mm", "Mn Ss", "Mr", "Mr Gp Da", "Mr Os", "Mx", "Na", "Nd", "Ne", "Nh Wt", "Nl", "Nn Ds", "Nn Ss", "Ns", "Nw Zd", "Ol Is", "On", "Oo", "Pa Cs", "Pb", "Pb Ks", "Ph Ss", "Pl Rs", "Pn", "Pr Zi", "Py", "Qa Gs", "Ra", "Rl Cs Be", "Rn", "Rn Rs", "Rr Rs", "Rs", "Sa", "Sd", "Se", "Sh Aa", "Si La", "Sn Be", "Ss En Ce", "Ss Hd", "St", "St Ks ad Ns Ps", "St La Ks", "St Ss", "Sx", "Sy", "Sy Ss", "Sy Tr", "Ta", "Tl Nu", "To Kt Rs", "Ts", "Tt Rs", "Ua", "Ud", "Ud Ab Es", "Ud Ss of Aa", "Ur Ph", "Va", "We", "Wh Fe", "Wn", "Wn Pe", "Ws", "Wt Is", "Ye", "Ze"], ["bat", "field"], ["day match", "day/night match", "night match"], ["Aa tr of Ch Rc", "Aa tr of Ia", "Aa tr of Pn", "Aa tr of Sh Aa", "Aa tr of Si La", "An tr of Aa", "An tr of Bh", "An tr of Id", "An tr of Ud Ab Es", "An tr of Ud Ab Es Mr 23", "An tr of Ze", "Bg Bh Le", "Bh Pr Le", "Bh tr of Aa", "Bh tr of Nw Zd", "Bh tr of Wt Is", "Bh tr of Ze", "CA T0 Ce", "Cn Pr Le", "Ed tr of Aa", "Ed tr of Bh", "Ed tr of Pn", "Ed tr of Wt Is", "Ia tr of Aa", "Ia tr of Ed", "Ia tr of Id", "Ia tr of Nw Zd", "Ia tr of Sh Aa", "Ia tr of Ud Ab Es", "Ia tr of Wt Is ad Ud Ss of Aa", "Id tr of Aa", "Id tr of Bh", "Id tr of On", "Id tr of Sd", "Id tr of Ze", "In Pr Le", "La Pr Le", "Me tr of Sh Aa", "Nl tr of Ka", "Nl tr of On", "Ns tr of Aa", "Ns tr of Ze", "Nw Zd tr of Aa", "Nw Zd tr of Ed", "Nw Zd tr of Ia", "Nw Zd tr of Id", "Nw Zd tr of Ns", "Nw Zd tr of Pn", "Nw Zd tr of Sd", "Nw Zd tr of Ud Ab Es", "On tr of Nl", "On tr of Qr", "Pn Sr Le", "Pn tr of Aa", "Pn tr of Ca", "Pn tr of Nw Zd", "Pn tr of Ud Ab Es", "S0", "Sd Mq Ai Ty", "Se tr of Ze", "Sh Aa tr of Ed", "Sh Aa tr of Ia", "Si La tr of Aa", "Si La tr of Ca", "Si La tr of Ia", "Si La tr of Nw Zd", "Si La tr of Ud Ab Es", "Sr Sh", "Ta tr of Sh Aa", "Te Hd Ms Cn", "Ua tr of Ka", "Ua tr of Na", "Ua tr of Sh Aa", "Ua tr of Ze", "Ud Ab Es tr of Aa", "Ud Ab Es tr of Nl", "Ud Ab Es tr of On", "Ud Ab Es tr of Qr", "Ud Ss of Aa tr of Ze", "Vy Bt", "Wt Is tr of Aa", "Wt Is tr of Sh Aa", "Wt Is tr of Ud Ss of Aa", "Ze tr of Aa", "Ze tr of Na"], ["2021/22", "2022", "2022/23", "2023", "2023/24"], [83, 251, 328, 342, 440, 538, 664, 769, 797, 825, 930, 937, 1042, 1161, 1224, 1231, 1245, 1266, 1378, 1406, 1469, 1476, 1511, 1525, 1637, 1658, 1672, 1833, 1840, 1994, 2050, 2057, 2127, 2190, 2239, 2344, 2764, 2932, 3128, 3135, 3184, 3226, 3422, 3541, 3569, 3828, 3961, 4045, 4416, 4521, 4661, 4794, 4913, 5004, 5081, 5312, 5382, 5396, 5893, 5949, 6327, 6348, 6579, 6663, 6831, 7020, 7041, 7118, 7230, 7286, 7398, 7475, 7930, 8252, 8301, 9582, 9876, 10961, 11192, 11206, 11584, 11878, 11885, 11892, 13285, 13453, 13530, 13586, 13768, 13880, 13915, 14188, 14265, 14300, 14825, 16540, 16806, 16820, 16848, 17086, 17373, 17527, 17534, 17632, 17681, 17765, 18038, 18752, 19718, 20068, 20502, 20782, 20978, 21076, 22350, 23498, 23736, 23813, 23841, 24044, 24254, 24828, 25479]]
