{"learner":{"attributes":{},"feature_names":["lighting","series_name","season","ground_id","team_count_50runs_last15","team_winp_last5","team1only_avg_runs_last15","team1_winp_team2_last15","ground_avg_runs_last15","ratio_batting_average","ratio_average_strike_rate","ratio_average_fours_per_ball","ratio_average_sixes_per_ball","ratio_average_economy","ratio_bowling_average","ratio_bowling_strike_rate","ratio_average_wides_per_ball","ratio_average_noballs_per_ball","ratio_team_strike_rate","ratio_team_wicket_rate","toss"],"feature_types":["c","c","c","c","float","float","float","float","float","float","float","float","float","float","float","float","float","float","float","float","c"],"gradient_booster":{"gbtree":{"model":{"gbtree_model_param":{"num_parallel_tree":"1","num_trees":"700"},"iteration_indptr":[0,1,2,3,4,5,6,7,8,9,10,11,12,13,14,15,16,17,18,19,20,21,22,23,24,25,26,27,28,29,30,31,32,33,34,35,36,37,38,39,40,41,42,43,44,45,46,47,48,49,50,51,52,53,54,55,56,57,58,59,60,61,62,63,64,65,66,67,68,69,70,71,72,73,74,75,76,77,78,79,80,81,82,83,84,85,86,87,88,89,90,91,92,93,94,95,96,97,98,99,100,101,102,103,104,105,106,107,108,109,110,111,112,113,114,115,116,117,118,119,120,121,122,123,124,125,126,127,128,129,130,131,132,133,134,135,136,137,138,139,140,141,142,143,144,145,146,147,148,149,150,151,152,153,154,155,156,157,158,159,160,161,162,163,164,165,166,167,168,169,170,171,172,173,174,175,176,177,178,179,180,181,182,183,184,185,186,187,188,189,190,191,192,193,194,195,196,197,198,199,200,201,202,203,204,205,206,207,208,209,210,211,212,213,214,215,216,217,218,219,220,221,222,223,224,225,226,227,228,229,230,231,232,233,234,235,236,237,238,239,240,241,242,243,244,245,246,247,248,249,250,251,252,253,254,255,256,257,258,259,260,261,262,263,264,265,266,267,268,269,270,271,272,273,274,275,276,277,278,279,280,281,282,283,284,285,286,287,288,289,290,291,292,293,294,295,296,297,298,299,300,301,302,303,304,305,306,307,308,309,310,311,312,313,314,315,316,317,318,319,320,321,322,323,324,325,326,327,328,329,330,331,332,333,334,335,336,337,338,339,340,341,342,343,344,345,346,347,348,349,350,351,352,353,354,355,356,357,358,359,360,361,362,363,364,365,366,367,368,369,370,371,372,373,374,375,376,377,378,379,380,381,382,383,384,385,386,387,388,389,390,391,392,393,394,395,396,397,398,399,400,401,402,403,404,405,406,407,408,409,410,411,412,413,414,415,416,417,418,419,420,421,422,423,424,425,426,427,428,429,430,431,432,433,434,435,436,437,438,439,440,441,442,443,444,445,446,447,448,449,450,451,452,453,454,455,456,457,458,459,460,461,462,463,464,465,466,467,468,469,470,471,472,473,474,475,476,477,478,479,480,481,482,483,484,485,486,487,488,489,490,491,492,493,494,495,496,497,498,499,500,501,502,503,504,505,506,507,508,509,510,511,512,513,514,515,516,517,518,519,520,521,522,523,524,525,526,527,528,529,530,531,532,533,534,535,536,537,538,539,540,541,542,543,544,545,546,547,548,549,550,551,552,553,554,555,556,557,558,559,560,561,562,563,564,565,566,567,568,569,570,571,572,573,574,575,576,577,578,579,580,581,582,583,584,585,586,587,588,589,590,591,592,593,594,595,596,597,598,599,600,601,602,603,604,605,606,607,608,609,610,611,612,613,614,615,616,617,618,619,620,621,622,623,624,625,626,627,628,629,630,631,632,633,634,635,636,637,638,639,640,641,642,643,644,645,646,647,648,649,650,651,652,653,654,655,656,657,658,659,660,661,662,663,664,665,666,667,668,669,670,671,672,673,674,675,676,677,678,679,680,681,682,683,684,685,686,687,688,689,690,691,692,693,694,695,696,697,698,699,700],"tree_info":[0,0,0,0,0,0,0,0,0,0,0,0,0,0,0,0,0,0,0,0,0,0,0,0,0,0,0,0,0,0,0,0,0,0,0,0,0,0,0,0,0,0,0,0,0,0,0,0,0,0,0,0,0,0,0,0,0,0,0,0,0,0,0,0,0,0,0,0,0,0,0,0,0,0,0,0,0,0,0,0,0,0,0,0,0,0,0,0,0,0,0,0,0,0,0,0,0,0,0,0,0,0,0,0,0,0,0,0,0,0,0,0,0,0,0,0,0,0,0,0,0,0,0,0,0,0,0,0,0,0,0,0,0,0,0,0,0,0,0,0,0,0,0,0,0,0,0,0,0,0,0,0,0,0,0,0,0,0,0,0,0,0,0,0,0,0,0,0,0,0,0,0,0,0,0,0,0,0,0,0,0,0,0,0,0,0,0,0,0,0,0,0,0,0,0,0,0,0,0,0,0,0,0,0,0,0,0,0,0,0,0,0,0,0,0,0,0,0,0,0,0,0,0,0,0,0,0,0,0,0,0,0,0,0,0,0,0,0,0,0,0,0,0,0,0,0,0,0,0,0,0,0,0,0,0,0,0,0,0,0,0,0,0,0,0,0,0,0,0,0,0,0,0,0,0,0,0,0,0,0,0,0,0,0,0,0,0,0,0,0,0,0,0,0,0,0,0,0,0,0,0,0,0,0,0,0,0,0,0,0,0,0,0,0,0,0,0,0,0,0,0,0,0,0,0,0,0,0,0,0,0,0,0,0,0,0,0,0,0,0,0,0,0,0,0,0,0,0,0,0,0,0,0,0,0,0,0,0,0,0,0,0,0,0,0,0,0,0,0,0,0,0,0,0,0,0,0,0,0,0,0,0,0,0,0,0,0,0,0,0,0,0,0,0,0,0,0,0,0,0,0,0,0,0,0,0,0,0,0,0,0,0,0,0,0,0,0,0,0,0,0,0,0,0,0,0,0,0,0,0,0,0,0,0,0,0,0,0,0,0,0,0,0,0,0,0,0,0,0,0,0,0,0,0,0,0,0,0,0,0,0,0,0,0,0,0,0,0,0,0,0,0,0,0,0,0,0,0,0,0,0,0,0,0,0,0,0,0,0,0,0,0,0,0,0,0,0,0,0,0,0,0,0,0,0,0,0,0,0,0,0,0,0,0,0,0,0,0,0,0,0,0,0,0,0,0,0,0,0,0,0,0,0,0,0,0,0,0,0,0,0,0,0,0,0,0,0,0,0,0,0,0,0,0,0,0,0,0,0,0,0,0,0,0,0,0,0,0,0,0,0,0,0,0,0,0,0,0,0,0,0,0,0,0,0,0,0,0,0,0,0,0,0,0,0,0,0,0,0,0,0,0,0,0,0,0,0,0,0,0,0,0,0,0,0,0,0,0,0,0,0,0,0,0,0,0,0,0,0,0,0,0,0,0,0,0,0,0,0,0,0,0,0,0,0,0,0,0,0,0,0,0,0,0,0,0,0,0,0,0,0,0,0,0,0,0,0,0,0,0,0,0,0,0,0,0,0,0,0,0,0,0,0,0,0,0,0,0,0,0,0,0,0,0,0,0,0,0,0,0],"trees":[{"base_weights":[-4.8677072E-2,4.261333E-1,-7.9852796E-1,1.019413E0,1.5544298E-1,-3.9575773E-1,-1.0000288E0,3.7220106E-2,1.1894803E-1,-1.8036358E-2,4.2353038E-2,4.5126047E-2,-5.9168875E-2,-1.0772738E-1,-3.5595194E-2],"categories":[],"categories_nodes":[],"categories_segments":[],"categories_sizes":[],"default_left":[1,0,0,1,1,0,0,0,0,0,0,0,0,0,0],"id":0,"left_children":[1,3,5,7,9,11,13,-1,-1,-1,-1,-1,-1,-1,-1],"loss_changes":[8.427453E1,2.3127409E1,7.050396E0,6.14925E0,1.02088E1,6.6951885E0,4.683628E0,0E0,0E0,0E0,0E0,0E0,0E0,0E0,0E0],"parents":[2147483647,0,0,1,1,2,2,3,3,4,4,5,5,6,6],"right_children":[2,4,6,8,10,12,14,-1,-1,-1,-1,-1,-1,-1,-1],"split_conditions":[1.0598543E0,7.7692807E-1,9.6257436E-1,9.328386E-1,9.755897E-1,7.058824E-1,1.8643006E0,3.7220106E-2,1.1894803E-1,-1.8036358E-2,4.2353038E-2,4.5126047E-2,-5.9168875E-2,-1.0772738E-1,-3.5595194E-2],"split_indices":[9,9,12,19,13,4,12,0,0,0,0,0,0,0,0],"split_type":[0,0,0,0,0,0,0,0,0,0,0,0,0,0,0],"sum_hessian":[2.3474585E2,1.4399745E2,9.074839E1,4.4249218E1,9.974824E1,3.1249447E1,5.9498947E1,1.2749774E1,3.1499443E1,4.574919E1,5.3999043E1,6.2498894E0,2.4999557E1,4.8249146E1,1.1249801E1],"tree_param":{"num_deleted":"0","num_feature":"21","num_nodes":"15","size_leaf_vector":"1"}},{"base_weights":[-3.1483807E-2,4.900571E-1,-5.8671343E-1,1.2546954E0,2.8201535E-1,2.4549413E-1,-7.748859E-1,7.855823E-2,1.5811372E-1,-2.6081674E-2,5.053753E-2,-6.770118E-3,1.0014318E-1,-4.1510295E-2,-9.689733E-2],"categories":[],"categories_nodes":[],"categories_segments":[],"categories_sizes":[],"default_left":[1,0,0,0,0,0,0,0,0,0,0,0,0,0,0],"id":1,"left_children":[1,3,5,7,9,11,13,-1,-1,-1,-1,-1,-1,-1,-1],"loss_changes":[6.882426E1,1.914699E1,1.8213608E1,3.174839E0,1.3769757E1,5.7154865E0,7.3712845E0,0E0,0E0,0E0,0E0,0E0,0E0,0E0,0E0],"parents":[2147483647,0,0,1,1,2,2,3,3,4,4,5,5,6,6],"right_children":[2,4,6,8,10,12,14,-1,-1,-1,-1,-1,-1,-1,-1],"split_conditions":[1.0143495E0,6.715635E-1,9.7236156E-1,9.152707E-1,6.4705884E-1,9.4948053E-1,1.2044973E0,7.855823E-2,1.5811372E-1,-2.6081674E-2,5.053753E-2,-6.770118E-3,1.0014318E-1,-4.1510295E-2,-9.689733E-2],"split_indices":[9,9,10,15,4,10,9,0,0,0,0,0,0,0,0],"split_type":[0,0,0,0,0,0,0,0,0,0,0,0,0,0,0],"sum_hessian":[2.3568045E2,1.2158759E2,1.1409286E2,2.4929724E1,9.6657875E1,2.0984154E1,9.31087E1,1.371289E1,1.1216834E1,2.9961985E1,6.6695885E1,1.5738169E1,5.245985E0,4.0441803E1,5.26669E1],"tree_param":{"num_deleted":"0","num_feature":"21","num_nodes":"15","size_leaf_vector":"1"}},{"base_weights":[-6.257093E-2,4.5018443E-1,-4.88534E-1,8.306544E-1,1.4155434E-1,2.6171476E-1,-6.449788E-1,8.8017166E-2,8.097611E-3,-4.567631E-3,3.6246978E-2,5.6983996E-2,-3.471404E-2,-6.89584E-2,-2.3952662E-3],"categories":[],"categories_nodes":[],"categories_segments":[],"categories_sizes":[],"default_left":[1,1,0,0,0,0,1,0,0,0,0,0,0,0,0],"id":2,"left_children":[1,3,5,7,9,11,13,-1,-1,-1,-1,-1,-1,-1,-1],"loss_changes":[5.0399776E1,1.21852455E1,1.4954605E1,3.2921982E0,2.7111592E0,4.991244E0,5.2717476E0,0E0,0E0,0E0,0E0,0E0,0E0,0E0,0E0],"parents":[2147483647,0,0,1,1,2,2,3,3,4,4,5,5,6,6],"right_children":[2,4,6,8,10,12,14,-1,-1,-1,-1,-1,-1,-1,-1],"split_conditions":[9.586339E-1,7.9458743E-1,9.7063935E-1,1.7E0,1.002763E0,1.1818181E0,1.1816356E0,8.8017166E-2,8.097611E-3,-4.567631E-3,3.6246978E-2,5.6983996E-2,-3.471404E-2,-6.89584E-2,-2.3952662E-3],"split_indices":[11,11,10,4,12,4,19,0,0,0,0,0,0,0,0],"split_type":[0,0,0,0,0,0,0,0,0,0,0,0,0,0,0],"sum_hessian":[2.2874557E2,1.0377228E2,1.249733E2,4.571937E1,5.8052902E1,2.1447327E1,1.0352597E2,4.0246887E1,5.4724827E0,3.289592E1,2.5156982E1,1.3956368E1,7.4909577E0,9.132008E1,1.2205885E1],"tree_param":{"num_deleted":"0","num_feature":"21","num_nodes":"15","size_leaf_vector":"1"}},{"base_weights":[6.21601E-2,5.401009E-1,-4.7318318E-1,1.0682577E0,2.6735035E-1,1.1279739E-1,-6.3870305E-1,6.1143648E-2,1.2446275E-1,-5.2249726E-2,4.2774156E-2,-3.845392E-2,4.4673443E-2,5.3406816E-2,-7.5869985E-2],"categories":[],"categories_nodes":[],"categories_segments":[],"categories_sizes":[],"default_left":[0,0,0,0,0,0,0,0,0,0,0,0,0,0,0],"id":3,"left_children":[1,3,5,7,9,11,13,-1,-1,-1,-1,-1,-1,-1,-1],"loss_changes":[5.929036E1,1.7341942E1,1.06792145E1,3.4183006E0,1.2551599E1,4.8145E0,1.6950638E1,0E0,0E0,0E0,0E0,0E0,0E0,0E0,0E0],"parents":[2147483647,0,0,1,1,2,2,3,3,4,4,5,5,6,6],"right_children":[2,4,6,8,10,12,14,-1,-1,-1,-1,-1,-1,-1,-1],"split_conditions":[1.0143495E0,7.389405E-1,9.5320743E-1,8.974929E-1,8.75475E-1,9.5454544E-1,8.4454304E-1,6.1143648E-2,1.2446275E-1,-5.2249726E-2,4.2774156E-2,-3.845392E-2,4.4673443E-2,5.3406816E-2,-7.5869985E-2],"split_indices":[9,9,11,13,13,4,13,0,0,0,0,0,0,0,0],"split_type":[0,0,0,0,0,0,0,0,0,0,0,0,0,0,0],"sum_hessian":[2.2972868E2,1.2136671E2,1.0836198E2,4.0338406E1,8.10283E1,2.3937157E1,8.442482E1,1.6036942E1,2.4301462E1,1.4472749E1,6.655555E1,9.727672E0,1.4209486E1,9.668597E0,7.475622E1],"tree_param":{"num_deleted":"0","num_feature":"21","num_nodes":"15","size_leaf_vector":"1"}},{"base_weights":[1.7355876E-2,5.9796894E-1,-6.213828E-1,2.0887327E-1,9.529647E-1,-2.4821822E-2,-8.1373626E-1,5.6947794E-2,-4.474221E-2,1.02257214E-1,-3.2937754E-2,-6.922069E-2,3.247107E-2,3.120309E-4,-8.704387E-2],"categories":[],"categories_nodes":[],"categories_segments":[],"categories_sizes":[],"default_left":[1,0,0,0,1,0,0,0,0,0,0,0,0,0,0],"id":4,"left_children":[1,3,5,7,9,11,13,-1,-1,-1,-1,-1,-1,-1,-1],"loss_changes":[8.926241E1,1.7214203E1,1.3132706E1,1.6631601E1,1.10036125E1,7.74258E0,7.3283615E0,0E0,0E0,0E0,0E0,0E0,0E0,0E0,0E0],"parents":[2147483647,0,0,1,1,2,2,3,3,4,4,5,5,6,6],"right_children":[2,4,6,8,10,12,14,-1,-1,-1,-1,-1,-1,-1,-1],"split_conditions":[1.0143495E0,9.7621316E-1,9.6723706E-1,8.858428E-1,1.085529E0,9.523732E-1,8.480244E-1,5.6947794E-2,-4.474221E-2,1.02257214E-1,-3.2937754E-2,-6.922069E-2,3.247107E-2,3.120309E-4,-8.704387E-2],"split_indices":[9,13,11,9,10,13,13,0,0,0,0,0,0,0,0],"split_type":[0,0,0,0,0,0,0,0,0,0,0,0,0,0,0],"sum_hessian":[2.3868839E2,1.2506668E2,1.1362171E2,6.0425392E1,6.464129E1,2.7978579E1,8.564313E1,3.8439754E1,2.198564E1,5.914553E1,5.4957595E0,9.243683E0,1.8734896E1,9.736605E0,7.5906525E1],"tree_param":{"num_deleted":"0","num_feature":"21","num_nodes":"15","size_leaf_vector":"1"}},{"base_weights":[2.5827351E-3,3.1233138E-1,-2.322574E-1,5.775012E-1,-2.3018943E-2,6.7692764E-2,-4.3272555E-1,9.501503E-2,1.200069E-2,4.26476E-2,-3.9076637E-2,3.5511278E-2,-2.3156045E-2,-2.9248688E-2,-1.0323739E-1],"categories":[0,1,2,3,4,5,6,7,8,9,10,11,12,13,14,15,16,17,18,19,20,21,22,23,24,25,26,27,28,29,30,31,32,33,34,35,36,37,38,39,40,41,42,43,44,45,46,47],"categories_nodes":[1],"categories_segments":[0],"categories_sizes":[48],"default_left":[0,1,1,1,1,0,0,0,0,0,0,0,0,0,0],"id":5,"left_children":[1,3,5,7,9,11,13,-1,-1,-1,-1,-1,-1,-1,-1],"loss_changes":[1.7183071E1,9.07125E0,8.10861E0,1.0751686E1,8.62193E0,5.3162713E0,6.2457104E0,0E0,0E0,0E0,0E0,0E0,0E0,0E0,0E0],"parents":[2147483647,0,0,1,1,2,2,3,3,4,4,5,5,6,6],"right_children":[2,4,6,8,10,12,14,-1,-1,-1,-1,-1,-1,-1,-1],"split_conditions":[8.8235295E-1,NaN,9.787268E-1,9.7695535E-1,8.898148E-1,1.0657895E0,2.2222223E0,9.501503E-2,1.200069E-2,4.26476E-2,-3.9076637E-2,3.5511278E-2,-2.3156045E-2,-2.9248688E-2,-1.0323739E-1],"split_indices":[4,3,12,18,12,5,4,0,0,0,0,0,0,0,0],"split_type":[0,1,0,0,0,0,0,0,0,0,0,0,0,0,0],"sum_hessian":[2.3422406E2,1.0086091E2,1.3336314E2,5.5920837E1,4.494007E1,5.3690758E1,7.9672386E1,2.8205175E1,2.771566E1,2.0216524E1,2.4723549E1,2.6969803E1,2.6720955E1,6.8183266E1,1.1489124E1],"tree_param":{"num_deleted":"0","num_feature":"21","num_nodes":"15","size_leaf_vector":"1"}},{"base_weights":[-2.1156752E-2,7.024956E-1,-4.1886458E-1,9.5876634E-1,2.6125777E-1,7.865174E-1,-5.39913E-1,1.1327376E-1,3.587246E-2,7.271605E-2,-3.4547737E-3,1.4290641E-2,1.1493579E-1,-2.7114986E-2,-9.067122E-2],"categories":[0,3,5],"categories_nodes":[1],"categories_segments":[0],"categories_sizes":[3],"default_left":[1,1,0,0,0,0,0,0,0,0,0,0,0,0,0],"id":6,"left_children":[1,3,5,7,9,11,13,-1,-1,-1,-1,-1,-1,-1,-1],"loss_changes":[6.629068E1,8.988136E0,2.2108166E1,6.5469284E0,4.74666E0,3.5895338E0,1.405378E1,0E0,0E0,0E0,0E0,0E0,0E0,0E0,0E0],"parents":[2147483647,0,0,1,1,2,2,3,3,4,4,5,5,6,6],"right_children":[2,4,6,8,10,12,14,-1,-1,-1,-1,-1,-1,-1,-1],"split_conditions":[9.032118E-1,NaN,8.095969E-1,8.167729E-1,6.9662875E-1,8.9221317E-1,1.2418921E0,1.1327376E-1,3.587246E-2,7.271605E-2,-3.4547737E-3,1.4290641E-2,1.1493579E-1,-2.7114986E-2,-9.067122E-2],"split_indices":[9,2,11,9,9,10,9,0,0,0,0,0,0,0,0],"split_type":[0,1,0,0,0,0,0,0,0,0,0,0,0,0,0],"sum_hessian":[2.2831177E2,8.0702515E1,1.4760925E2,5.0309734E1,3.0392784E1,1.296894E1,1.346403E2,3.5072212E1,1.5237524E1,1.0687446E1,1.9705338E1,5.7347345E0,7.2342057E0,8.4584694E1,5.005562E1],"tree_param":{"num_deleted":"0","num_feature":"21","num_nodes":"15","size_leaf_vector":"1"}},{"base_weights":[-5.2637555E-2,5.6480867E-1,-7.3082066E-1,1.0654649E0,2.5367782E-1,1.3933163E-2,-9.075217E-1,4.9695853E-2,1.3291669E-1,-3.3738382E-2,3.353187E-2,8.692557E-2,-3.1010775E-2,-9.598955E-2,-2.1828674E-2],"categories":[],"categories_nodes":[],"categories_segments":[],"categories_sizes":[],"default_left":[1,0,0,0,1,1,0,0,0,0,0,0,0,0,0],"id":7,"left_children":[1,3,5,7,9,11,13,-1,-1,-1,-1,-1,-1,-1,-1],"loss_changes":[9.975746E1,1.9161636E1,1.4948853E1,7.891197E0,4.876318E0,7.2909484E0,6.2294464E0,0E0,0E0,0E0,0E0,0E0,0E0,0E0,0E0],"parents":[2147483647,0,0,1,1,2,2,3,3,4,4,5,5,6,6],"right_children":[2,4,6,8,10,12,14,-1,-1,-1,-1,-1,-1,-1,-1],"split_conditions":[1.0210652E0,7.7692807E-1,9.8256767E-1,9.286564E-1,2.1861073E-1,1.468E2,1.1547443E0,4.9695853E-2,1.3291669E-1,-3.3738382E-2,3.353187E-2,8.692557E-2,-3.1010775E-2,-9.598955E-2,-2.1828674E-2],"split_indices":[9,9,10,13,17,8,13,0,0,0,0,0,0,0,0],"split_type":[0,0,0,0,0,0,0,0,0,0,0,0,0,0,0],"sum_hessian":[2.3624582E2,1.2374781E2,1.1249801E2,4.6499176E1,7.7248634E1,2.1749615E1,9.074839E1,1.8749668E1,2.7749508E1,1.0499814E1,6.674882E1,5.4999027E0,1.6249712E1,7.824861E1,1.2499779E1],"tree_param":{"num_deleted":"0","num_feature":"21","num_nodes":"15","size_leaf_vector":"1"}},{"base_weights":[8.27225E-3,5.665507E-1,-3.0814427E-1,-2.51402E-2,6.696027E-1,2.4863347E-1,-5.5822927E-1,5.4152675E-2,-6.0871962E-2,7.669861E-2,-1.2774536E-3,-7.6154685E-3,6.958978E-2,-3.0083833E-2,-8.3251886E-2],"categories":[],"categories_nodes":[],"categories_segments":[],"categories_sizes":[],"default_left":[1,1,0,1,1,0,0,0,0,0,0,0,0,0,0],"id":8,"left_children":[1,3,5,7,9,11,13,-1,-1,-1,-1,-1,-1,-1,-1],"loss_changes":[4.0944473E1,5.1290817E0,2.0740286E1,5.286134E0,6.774544E0,7.478747E0,7.602722E0,0E0,0E0,0E0,0E0,0E0,0E0,0E0,0E0],"parents":[2147483647,0,0,1,1,2,2,3,3,4,4,5,5,6,6],"right_children":[2,4,6,8,10,12,14,-1,-1,-1,-1,-1,-1,-1,-1],"split_conditions":[8.9353615E-1,8.617101E-1,9.6723706E-1,1.3666667E2,1.6566667E2,1.0391175E0,1.232688E0,5.4152675E-2,-6.0871962E-2,7.669861E-2,-1.2774536E-3,-7.6154685E-3,6.958978E-2,-3.0083833E-2,-8.3251886E-2],"split_indices":[9,18,11,6,8,14,9,0,0,0,0,0,0,0,0],"split_type":[0,0,0,0,0,0,0,0,0,0,0,0,0,0,0],"sum_hessian":[2.2979669E2,8.2841835E1,1.4695485E2,1.240017E1,7.0441666E1,4.555007E1,1.01404785E2,6.342744E0,6.0574265E0,5.8406982E1,1.2034682E1,2.7633226E1,1.7916845E1,5.8879044E1,4.2525745E1],"tree_param":{"num_deleted":"0","num_feature":"21","num_nodes":"15","size_leaf_vector":"1"}},{"base_weights":[-7.585445E-2,6.813772E-1,-2.2376588E-1,-1.3926755E-2,8.410612E-2,-9.3452714E-2,-6.406747E-1,4.2690575E-2,-1.8653786E-2,-1.08407345E-2,-1.1270964E-1],"categories":[],"categories_nodes":[],"categories_segments":[],"categories_sizes":[],"default_left":[1,1,0,0,0,1,0,0,0,0,0],"id":9,"left_children":[1,3,5,-1,-1,7,9,-1,-1,-1,-1],"loss_changes":[2.5720682E1,6.501354E0,1.03565645E1,0E0,0E0,8.336924E0,1.2962748E1,0E0,0E0,0E0,0E0],"parents":[2147483647,0,0,1,1,2,2,5,5,6,6],"right_children":[2,4,6,-1,-1,8,10,-1,-1,-1,-1],"split_conditions":[8.3528507E-1,7.8197503E-1,1.1279138E0,-1.3926755E-2,8.410612E-2,1.4E2,9.3099236E-1,4.2690575E-2,-1.8653786E-2,-1.08407345E-2,-1.1270964E-1],"split_indices":[10,19,10,0,0,8,17,0,0,0,0],"split_type":[0,0,0,0,0,0,0,0,0,0,0],"sum_hessian":[2.2728107E2,3.6551132E1,1.9072993E2,7.3056707E0,2.924546E1,1.4624295E2,4.448699E1,2.279101E1,1.23451935E2,2.3285349E1,2.1201645E1],"tree_param":{"num_deleted":"0","num_feature":"21","num_nodes":"11","size_leaf_vector":"1"}},{"base_weights":[3.2981124E-2,3.8326535E-1,-3.370068E-1,5.808075E-1,-2.6514638E-2,4.016905E-1,-4.1581836E-1,1.1486277E-1,4.178159E-2,-4.0919475E-2,3.530015E-2,8.690783E-2,-1.7497001E-2,-8.037332E-3,-5.593268E-2],"categories":[0,3],"categories_nodes":[1],"categories_segments":[0],"categories_sizes":[2],"default_left":[1,1,1,0,0,0,0,0,0,0,0,0,0,0,0],"id":10,"left_children":[1,3,5,7,9,11,13,-1,-1,-1,-1,-1,-1,-1,-1],"loss_changes":[3.0024822E1,9.645105E0,6.7290173E0,6.5725803E0,6.55423E0,3.5959733E0,5.831793E0,0E0,0E0,0E0,0E0,0E0,0E0,0E0,0E0],"parents":[2147483647,0,0,1,1,2,2,3,3,4,4,5,5,6,6],"right_children":[2,4,6,8,10,12,14,-1,-1,-1,-1,-1,-1,-1,-1],"split_conditions":[1.0043477E0,NaN,8.23398E-1,6.497015E-1,9.460543E-1,1.0375048E0,1.0193619E0,1.1486277E-1,4.178159E-2,-4.0919475E-2,3.530015E-2,8.690783E-2,-1.7497001E-2,-8.037332E-3,-5.593268E-2],"split_indices":[9,2,13,9,14,10,11,0,0,0,0,0,0,0,0],"split_type":[0,1,0,0,0,0,0,0,0,0,0,0,0,0,0],"sum_hessian":[2.2967471E2,1.179604E2,1.1171431E2,7.931011E1,3.8650295E1,1.0374808E1,1.013395E2,1.3084576E1,6.622554E1,1.9135641E1,1.9514652E1,5.2270546E0,5.1477532E0,3.536302E1,6.597648E1],"tree_param":{"num_deleted":"0","num_feature":"21","num_nodes":"15","size_leaf_vector":"1"}},{"base_weights":[1.1662491E-2,3.148381E-1,-4.0873146E-1,8.1263936E-1,1.7622812E-1,-6.2010366E-1,3.375904E-2,2.7168872E-2,1.0602044E-1,6.7403563E-3,5.5487134E-2,-4.0857244E-2,-1.2252907E-1,-6.202959E-2,4.19584E-2],"categories":[],"categories_nodes":[],"categories_segments":[],"categories_sizes":[],"default_left":[1,0,0,0,1,0,0,0,0,0,0,0,0,0,0],"id":11,"left_children":[1,3,5,7,9,11,13,-1,-1,-1,-1,-1,-1,-1,-1],"loss_changes":[2.8460905E1,8.8073845E0,8.773186E0,4.1645336E0,4.3734436E0,7.5065193E0,9.046828E0,0E0,0E0,0E0,0E0,0E0,0E0,0E0,0E0],"parents":[2147483647,0,0,1,1,2,2,3,3,4,4,5,5,6,6],"right_children":[2,4,6,8,10,12,14,-1,-1,-1,-1,-1,-1,-1,-1],"split_conditions":[1.0573043E0,6.992674E-1,1.0513679E0,8.3809245E-1,1.3917619E0,1.1599514E0,1.0319483E0,2.7168872E-2,1.0602044E-1,6.7403563E-3,5.5487134E-2,-4.0857244E-2,-1.2252907E-1,-6.202959E-2,4.19584E-2],"split_indices":[9,9,13,15,16,15,16,0,0,0,0,0,0,0,0],"split_type":[0,0,0,0,0,0,0,0,0,0,0,0,0,0,0],"sum_hessian":[2.2129509E2,1.2871834E2,9.257675E1,2.697567E1,1.0174267E2,6.237811E1,3.0198643E1,1.0598305E1,1.6377363E1,8.183849E1,1.990417E1,4.9917496E1,1.2460611E1,1.1030729E1,1.9167913E1],"tree_param":{"num_deleted":"0","num_feature":"21","num_nodes":"15","size_leaf_vector":"1"}},{"base_weights":[-1.158704E-2,6.5566105E-1,-1.745727E-1,8.9230046E-2,3.6027694E-1,-2.0789992E-2,-4.788741E-1,8.93262E-2,4.921862E-3,6.1705116E-2,-9.270924E-3,-1.0392377E-1,-3.7391216E-2],"categories":[0,3,4,5],"categories_nodes":[1],"categories_segments":[0],"categories_sizes":[4],"default_left":[0,1,1,0,0,0,1,0,0,0,0,0,0],"id":12,"left_children":[1,3,5,-1,7,9,11,-1,-1,-1,-1,-1,-1],"loss_changes":[2.4575665E1,3.3908596E0,8.486399E0,0E0,4.142602E0,6.34102E0,2.7537003E0,0E0,0E0,0E0,0E0,0E0,0E0],"parents":[2147483647,0,0,1,1,2,2,4,4,5,5,6,6],"right_children":[2,4,6,-1,8,10,12,-1,-1,-1,-1,-1,-1],"split_conditions":[7.8947556E-1,NaN,1.0428532E0,8.9230046E-2,5.073149E-1,3.2098764E-1,6.4127696E-1,8.93262E-2,4.921862E-3,6.1705116E-2,-9.270924E-3,-1.0392377E-1,-3.7391216E-2],"split_indices":[11,2,18,0,5,5,12,0,0,0,0,0,0],"split_type":[0,1,0,0,0,0,0,0,0,0,0,0,0],"sum_hessian":[2.2392674E2,4.336631E1,1.8056042E2,2.097473E1,2.2391582E1,1.2065444E2,5.9905994E1,7.0530543E0,1.5338528E1,1.1639469E1,1.0901497E2,5.810827E0,5.4095165E1],"tree_param":{"num_deleted":"0","num_feature":"21","num_nodes":"13","size_leaf_vector":"1"}},{"base_weights":[3.3599112E-2,6.4840555E-1,-4.8255718E-1,1.1494863E0,3.3031902E-1,-5.6472695E-1,5.5193692E-2,5.4670554E-2,1.2984909E-1,-1.7563777E-2,5.8165256E-2,-2.1734789E-2,-8.618096E-2],"categories":[],"categories_nodes":[],"categories_segments":[],"categories_sizes":[],"default_left":[0,0,0,0,0,0,0,0,0,0,0,0,0],"id":13,"left_children":[1,3,5,7,9,11,-1,-1,-1,-1,-1,-1,-1],"loss_changes":[7.526981E1,1.6870483E1,1.1606499E1,4.4333725E0,9.960018E0,1.3653084E1,0E0,0E0,0E0,0E0,0E0,0E0,0E0],"parents":[2147483647,0,0,1,1,2,2,3,3,4,4,5,5],"right_children":[2,4,6,8,10,12,-1,-1,-1,-1,-1,-1,-1],"split_conditions":[9.6723706E-1,7.733998E-1,1.848E2,8.844337E-1,9.529892E-1,1.0769231E0,5.5193692E-2,5.4670554E-2,1.2984909E-1,-1.7563777E-2,5.8165256E-2,-2.1734789E-2,-8.618096E-2],"split_indices":[11,11,6,13,13,4,0,0,0,0,0,0,0],"split_type":[0,0,0,0,0,0,0,0,0,0,0,0,0],"sum_hessian":[2.3520667E2,1.0722825E2,1.2797841E2,4.06223E1,6.660595E1,1.1924047E2,8.737944E0,1.2222475E1,2.8399824E1,2.3709417E1,4.289653E1,6.113903E1,5.8101437E1],"tree_param":{"num_deleted":"0","num_feature":"21","num_nodes":"13","size_leaf_vector":"1"}},{"base_weights":[-3.125154E-2,2.4302626E-1,-3.371235E-1,-4.6948727E-2,4.3815652E-1,-2.7397996E-2,-6.1111534E-1,1.9961564E-2,-6.0134627E-2,9.3756616E-2,2.2290822E-2,1.4277936E-2,-6.500733E-2,-3.690491E-2,-9.2798896E-2],"categories":[],"categories_nodes":[],"categories_segments":[],"categories_sizes":[],"default_left":[0,0,0,0,1,1,0,0,0,0,0,0,0,0,0],"id":14,"left_children":[1,3,5,7,9,11,13,-1,-1,-1,-1,-1,-1,-1,-1],"loss_changes":[1.899836E1,6.780019E0,9.065168E0,7.523467E0,7.7591248E0,6.100692E0,4.244074E0,0E0,0E0,0E0,0E0,0E0,0E0,0E0,0E0],"parents":[2147483647,0,0,1,1,2,2,3,3,4,4,5,5,6,6],"right_children":[2,4,6,8,10,12,14,-1,-1,-1,-1,-1,-1,-1,-1],"split_conditions":[1.0210652E0,8.8098377E-1,1.1942908E0,7.945118E-1,9.7346187E-1,1.2386411E0,1.4145874E0,1.9961564E-2,-6.0134627E-2,9.3756616E-2,2.2290822E-2,1.4277936E-2,-6.500733E-2,-3.690491E-2,-9.2798896E-2],"split_indices":[9,14,5,14,15,15,17,0,0,0,0,0,0,0,0],"split_type":[0,0,0,0,0,0,0,0,0,0,0,0,0,0,0],"sum_hessian":[2.2448042E2,1.1846099E2,1.0601944E2,4.795558E1,7.050541E1,5.028093E1,5.573851E1,3.378245E1,1.417313E1,1.7989016E1,5.251639E1,4.018432E1,1.009661E1,3.5990192E1,1.974832E1],"tree_param":{"num_deleted":"0","num_feature":"21","num_nodes":"15","size_leaf_vector":"1"}},{"base_weights":[-4.9242266E-2,3.2117012E-1,-3.3633247E-1,8.9101434E-1,1.692718E-1,-1.448449E-1,-6.247403E-1,-1.4280115E-3,1.16406254E-1,-2.3282161E-2,3.918484E-2,2.4530921E-2,-4.510348E-2,-4.1988492E-2,-8.840093E-2],"categories":[0,1,2,3,4,5,6,7,8,9,10,11,12,13,14,15,16,17,18,19,20,21,22,23,24,25,26,27,28,29,30,31,32,33,34,35,36,37,38,39,40,41,42,43,44,45,46,47,48,49,50,51,52,53],"categories_nodes":[5],"categories_segments":[0],"categories_sizes":[54],"default_left":[1,1,0,1,0,1,0,0,0,0,0,0,0,0,0],"id":15,"left_children":[1,3,5,7,9,11,13,-1,-1,-1,-1,-1,-1,-1,-1],"loss_changes":[2.344088E1,8.186119E0,6.76301E0,6.111041E0,7.9074993E0,1.0236017E1,2.3401108E0,0E0,0E0,0E0,0E0,0E0,0E0,0E0,0E0],"parents":[2147483647,0,0,1,1,2,2,3,3,4,4,5,5,6,6],"right_children":[2,4,6,8,10,12,14,-1,-1,-1,-1,-1,-1,-1,-1],"split_conditions":[9.586339E-1,6.5655E-1,1.1994745E0,7.4995047E-1,7.826087E-1,NaN,1.2962656E0,-1.4280115E-3,1.16406254E-1,-2.3282161E-2,3.918484E-2,2.4530921E-2,-4.510348E-2,-4.1988492E-2,-8.840093E-2],"split_indices":[11,9,9,19,4,3,17,0,0,0,0,0,0,0,0],"split_type":[0,0,0,0,0,1,0,0,0,0,0,0,0,0,0],"sum_hessian":[2.1841388E2,9.531583E1,1.23098045E2,1.9036148E1,7.627968E1,7.488235E1,4.8215702E1,5.403378E0,1.3632771E1,2.8230858E1,4.804882E1,3.3818985E1,4.106336E1,3.1776163E1,1.6439539E1],"tree_param":{"num_deleted":"0","num_feature":"21","num_nodes":"15","size_leaf_vector":"1"}},{"base_weights":[-6.1861847E-2,2.0697424E-1,-3.782488E-1,3.9489257E-1,-8.4499605E-2,-1.0832478E-2,-5.55142E-1,3.6745782E-3,6.100035E-2,-8.928263E-2,7.340055E-3,8.556957E-2,-2.4119841E-2,-3.5983533E-2,-9.85211E-2],"categories":[0,1,2,3,4,5,6,7,8,9,10,12,13,14,15,16,17,18,19,20,21,22,23,24,25,26,27,28,29,30,31,32,33,34,35,36,38,39,40,41,42,43,44,45,46,47,48,49,50,51,52,53,54,55,56,73,0,1,2,3,4,5,6,7,8,9,10,11,13,14,15,16,17,18,20,21,22,23,24,25,26,27,28,29,30,31,32,33,34,35,36,37,38,39,40,41,42,43,44,45,46,47,48,49,50,51,52,53,54,55,56,57,58,59,60,61,83],"categories_nodes":[1,2],"categories_segments":[0,56],"categories_sizes":[56,61],"default_left":[1,1,1,1,0,0,0,0,0,0,0,0,0,0,0],"id":16,"left_children":[1,3,5,7,9,11,13,-1,-1,-1,-1,-1,-1,-1,-1],"loss_changes":[1.8954008E1,6.640252E0,6.6426935E0,6.4659853E0,6.7398453E0,7.837471E0,5.473835E0,0E0,0E0,0E0,0E0,0E0,0E0,0E0,0E0],"parents":[2147483647,0,0,1,1,2,2,3,3,4,4,5,5,6,6],"right_children":[2,4,6,8,10,12,14,-1,-1,-1,-1,-1,-1,-1,-1],"split_conditions":[1.0143495E0,NaN,NaN,8.364607E-1,1.9556046E-1,9.812004E-1,1.1597334E0,3.6745782E-3,6.100035E-2,-8.928263E-2,7.340055E-3,8.556957E-2,-2.4119841E-2,-3.5983533E-2,-9.85211E-2],"split_indices":[9,1,1,12,17,10,10,0,0,0,0,0,0,0,0],"split_type":[0,1,1,0,0,0,0,0,0,0,0,0,0,0,0],"sum_hessian":[2.2092049E2,1.1962238E2,1.0129811E2,7.2515526E1,4.7106853E1,3.3265396E1,6.8032715E1,3.0233015E1,4.2282513E1,6.7229943E0,4.0383858E1,6.4334517E0,2.6831944E1,5.117426E1,1.6858456E1],"tree_param":{"num_deleted":"0","num_feature":"21","num_nodes":"15","size_leaf_vector":"1"}},{"base_weights":[2.6031563E-2,5.3479725E-1,-8.258271E-2,5.2487448E-2,9.457916E-1,-3.0274144E-1,8.607959E-2,-5.7176284E-2,3.712424E-2,1.335465E-1,2.4457378E-2,5.189624E-2,-4.4879247E-2,-1.6346412E-2,2.9281106E-2],"categories":[],"categories_nodes":[],"categories_segments":[],"categories_sizes":[],"default_left":[1,0,0,1,0,1,0,0,0,0,0,0,0,0,0],"id":17,"left_children":[1,3,5,7,9,11,13,-1,-1,-1,-1,-1,-1,-1,-1],"loss_changes":[1.1822223E1,7.409893E0,6.5803366E0,4.3114896E0,6.0697136E0,1.1360218E1,5.8416424E0,0E0,0E0,0E0,0E0,0E0,0E0,0E0,0E0],"parents":[2147483647,0,0,1,1,2,2,3,3,4,4,5,5,6,6],"right_children":[2,4,6,8,10,12,14,-1,-1,-1,-1,-1,-1,-1,-1],"split_conditions":[7.733998E-1,1.542E2,9.732329E-1,1.4116667E2,1.0598707E0,1.4043333E2,1.0466741E0,-5.7176284E-2,3.712424E-2,1.335465E-1,2.4457378E-2,5.189624E-2,-4.4879247E-2,-1.6346412E-2,2.9281106E-2],"split_indices":[11,8,13,6,19,8,16,0,0,0,0,0,0,0,0],"split_type":[0,0,0,0,0,0,0,0,0,0,0,0,0,0,0],"sum_hessian":[2.1214197E2,3.6631355E1,1.7551062E2,1.7372316E1,1.9259039E1,7.578794E1,9.972267E1,5.6560493E0,1.1716267E1,1.0902398E1,8.35664E0,1.2277475E1,6.3510468E1,4.6246788E1,5.3475887E1],"tree_param":{"num_deleted":"0","num_feature":"21","num_nodes":"15","size_leaf_vector":"1"}},{"base_weights":[-1.1909429E-2,1.2850212E-1,-4.835515E-1,6.4111614E-1,3.1040011E-2,3.4520235E-2,-6.291399E-1,-1.4663162E-2,8.047949E-2,4.0363956E-2,-1.1749237E-2,-7.701946E-3,-7.9171E-2],"categories":[],"categories_nodes":[],"categories_segments":[],"categories_sizes":[],"default_left":[1,1,0,1,0,0,0,0,0,0,0,0,0],"id":18,"left_children":[1,3,5,7,9,-1,11,-1,-1,-1,-1,-1,-1],"loss_changes":[1.4539781E1,8.436078E0,6.4415007E0,4.5743036E0,8.79968E0,0E0,4.8042316E0,0E0,0E0,0E0,0E0,0E0,0E0],"parents":[2147483647,0,0,1,1,2,2,3,3,4,4,6,6],"right_children":[2,4,6,8,10,-1,12,-1,-1,-1,-1,-1,-1],"split_conditions":[1.1994745E0,6.9662875E-1,1.4086667E2,6.9260204E-1,9.212887E-1,3.4520235E-2,9.9606717E-1,-1.4663162E-2,8.047949E-2,4.0363956E-2,-1.1749237E-2,-7.701946E-3,-7.9171E-2],"split_indices":[9,9,8,19,19,0,18,0,0,0,0,0,0],"split_type":[0,0,0,0,0,0,0,0,0,0,0,0,0],"sum_hessian":[2.176163E2,1.6825346E2,4.9362835E1,2.598804E1,1.4226543E2,7.0183635E0,4.234447E1,5.416249E0,2.0571793E1,3.9623592E1,1.0264183E2,1.1913258E1,3.0431211E1],"tree_param":{"num_deleted":"0","num_feature":"21","num_nodes":"13","size_leaf_vector":"1"}},{"base_weights":[2.7995428E-2,3.199193E-1,-2.1172042E-1,4.762242E-1,-3.5090905E-1,2.2264117E-1,-4.3684918E-1,5.4489765E-2,-2.3512492E-2,-8.287166E-2,1.0580462E-3,4.5457702E-2,-2.063661E-2,-5.366452E-2,5.4633864E-3],"categories":[0,5,0,1,2,3,4,5,6,7,8,9,10,11,12,13,14,15,16,17,18,19,20,21,22,23,24,25,26,27,28,29,30,31,32,33,34,35,36,38,39,40,41,42,43,44,45,46,47,48,49,50,51,52,53,56,73,83],"categories_nodes":[1,2],"categories_segments":[0,2],"categories_sizes":[2,56],"default_left":[1,1,1,0,0,0,0,0,0,0,0,0,0,0,0],"id":19,"left_children":[1,3,5,7,9,11,13,-1,-1,-1,-1,-1,-1,-1,-1],"loss_changes":[1.5451183E1,1.0602107E1,1.1959909E1,5.896452E0,3.675261E0,4.851189E0,5.1356106E0,0E0,0E0,0E0,0E0,0E0,0E0,0E0,0E0],"parents":[2147483647,0,0,1,1,2,2,3,3,4,4,5,5,6,6],"right_children":[2,4,6,8,10,12,14,-1,-1,-1,-1,-1,-1,-1,-1],"split_conditions":[9.77009E-1,NaN,NaN,1.079654E0,9.59026E-1,1.1935045E0,1.1218919E0,5.4489765E-2,-2.3512492E-2,-8.287166E-2,1.0580462E-3,4.5457702E-2,-2.063661E-2,-5.366452E-2,5.4633864E-3],"split_indices":[10,2,1,18,18,9,13,0,0,0,0,0,0,0,0],"split_type":[0,1,1,0,0,0,0,0,0,0,0,0,0,0,0],"sum_hessian":[2.1883023E2,9.851949E1,1.20310745E2,8.013735E1,1.838214E1,4.1073982E1,7.923676E1,7.0769066E1,9.368287E0,6.947306E0,1.1434834E1,2.5898945E1,1.5175036E1,6.2763496E1,1.6473265E1],"tree_param":{"num_deleted":"0","num_feature":"21","num_nodes":"15","size_leaf_vector":"1"}},{"base_weights":[6.0980483E-3,3.376697E-1,-9.930508E-2,-6.79539E-2,5.004448E-1,1.8340854E-1,-2.5002724E-1,6.736398E-2,-1.9658661E-4,5.082859E-2,-6.6765454E-3,-9.253283E-2,-1.7210064E-2],"categories":[],"categories_nodes":[],"categories_segments":[],"categories_sizes":[],"default_left":[0,0,1,0,0,0,1,0,0,0,0,0,0],"id":20,"left_children":[1,3,5,-1,7,9,11,-1,-1,-1,-1,-1,-1],"loss_changes":[7.476677E0,9.208609E0,6.9648395E0,0E0,4.7664127E0,5.1355953E0,5.117901E0,0E0,0E0,0E0,0E0,0E0,0E0],"parents":[2147483647,0,0,1,1,2,2,4,4,5,5,6,6],"right_children":[2,4,6,-1,8,10,12,-1,-1,-1,-1,-1,-1],"split_conditions":[6.058815E-1,3.75E-1,1.485E2,-6.79539E-2,1.704E2,1.1960784E0,7.8197503E-1,6.736398E-2,-1.9658661E-4,5.082859E-2,-6.6765454E-3,-9.253283E-2,-1.7210064E-2],"split_indices":[5,4,8,0,6,5,19,0,0,0,0,0,0],"split_type":[0,0,0,0,0,0,0,0,0,0,0,0,0],"sum_hessian":[2.119735E2,5.059881E1,1.613747E2,6.3156E0,4.428321E1,5.6040726E1,1.0533396E2,3.096685E1,1.33163595E1,2.3003633E1,3.3037094E1,7.97237E0,9.7361595E1],"tree_param":{"num_deleted":"0","num_feature":"21","num_nodes":"13","size_leaf_vector":"1"}},{"base_weights":[-7.6818224E-3,2.1010892E-1,-2.2838126E-1,1.2398229E-1,1.0289617E-1,-8.913658E-2,-7.142031E-1,5.1535897E-2,1.9256258E-3,1.0702884E-2,-4.8859775E-2,-9.3616806E-2,2.105884E-2],"categories":[],"categories_nodes":[],"categories_segments":[],"categories_sizes":[],"default_left":[1,0,0,0,0,1,0,0,0,0,0,0,0],"id":21,"left_children":[1,3,5,7,-1,9,11,-1,-1,-1,-1,-1,-1],"loss_changes":[1.0524947E1,8.164392E0,7.2924414E0,4.3983173E0,0E0,7.4213433E0,6.356737E0,0E0,0E0,0E0,0E0,0E0,0E0],"parents":[2147483647,0,0,1,1,2,2,3,3,5,5,6,6],"right_children":[2,4,6,8,-1,10,12,-1,-1,-1,-1,-1,-1],"split_conditions":[9.7484666E-1,9.5145243E-1,1.1279138E0,8.3360845E-1,1.0289617E-1,1.057547E0,1.2276123E0,5.1535897E-2,1.9256258E-3,1.0702884E-2,-4.8859775E-2,-9.3616806E-2,2.105884E-2],"split_indices":[15,15,10,13,0,19,13,0,0,0,0,0,0],"split_type":[0,0,0,0,0,0,0,0,0,0,0,0,0],"sum_hessian":[2.1696898E2,1.09228264E2,1.0774071E2,1.0047107E2,8.757195E0,8.4659386E1,2.3081324E1,1.9088167E1,8.1382904E1,5.7922153E1,2.6737232E1,1.7838913E1,5.242411E0],"tree_param":{"num_deleted":"0","num_feature":"21","num_nodes":"13","size_leaf_vector":"1"}},{"base_weights":[-2.3829414E-2,8.60013E-1,-3.6384335E-1,1.4140038E-1,6.3600415E-1,1.7220253E-1,-5.925452E-1,4.3836776E-2,1.23263076E-1,-7.1624555E-2,2.9664423E-2,-1.0299052E-2,-6.6658765E-2],"categories":[0,1,2,3,4,5,6,7,8,9,10,11,12,13,14,15,16,17,18,19,20,21,22,23,24,25,26,27,28,29,30,31,32,33,34,35,36,37,38,39,40,41,42,43,44,45,46,47,48,49,50,51,52,53,54,55,56,57,58,59,60,61,63,64,65,66,67,68,69,70,71,72,73,74,75,76,77,78,79,80,81,82,84,85,86,87,88,89],"categories_nodes":[1],"categories_segments":[0],"categories_sizes":[88],"default_left":[1,0,0,0,1,0,1,0,0,0,0,0,0],"id":22,"left_children":[1,3,5,-1,7,9,11,-1,-1,-1,-1,-1,-1],"loss_changes":[6.978511E1,8.157852E0,2.065525E1,0E0,5.093693E0,6.8609476E0,6.1848183E0,0E0,0E0,0E0,0E0,0E0,0E0],"parents":[2147483647,0,0,1,1,2,2,4,4,5,5,6,6],"right_children":[2,4,6,-1,8,10,12,-1,-1,-1,-1,-1,-1],"split_conditions":[8.445568E-1,NaN,9.77009E-1,1.4140038E-1,1.8398268E0,8.7201935E-1,1.409E2,4.3836776E-2,1.23263076E-1,-7.1624555E-2,2.9664423E-2,-1.0299052E-2,-6.6658765E-2],"split_indices":[11,1,10,0,17,11,8,0,0,0,0,0,0],"split_type":[0,1,0,0,0,0,0,0,0,0,0,0,0],"sum_hessian":[2.3017426E2,6.3522533E1,1.6665172E2,1.5180078E1,4.8342453E1,4.9911957E1,1.1673976E2,3.9631546E1,8.710909E0,5.9892507E0,4.3922703E1,2.1963926E1,9.477584E1],"tree_param":{"num_deleted":"0","num_feature":"21","num_nodes":"13","size_leaf_vector":"1"}},{"base_weights":[-8.6496025E-3,5.414017E-1,-3.9795828E-1,6.5453994E-1,-8.854988E-2,-6.678422E-1,-1.2924215E-1,1.0670514E-1,4.8599318E-2,-4.1045483E-2,4.7742575E-2,-4.752088E-2,-1.0291309E-1,2.688617E-2,-3.769535E-2],"categories":[0,1,2,3,4,5,6,7,8,9,10,13,14,15,37],"categories_nodes":[1],"categories_segments":[0],"categories_sizes":[15],"default_left":[0,1,0,0,0,0,0,0,0,0,0,0,0,0,0],"id":23,"left_children":[1,3,5,7,9,11,13,-1,-1,-1,-1,-1,-1,-1,-1],"loss_changes":[5.026306E1,6.991585E0,9.880426E0,4.951309E0,3.4110668E0,4.213234E0,7.8626366E0,0E0,0E0,0E0,0E0,0E0,0E0,0E0,0E0],"parents":[2147483647,0,0,1,1,2,2,3,3,4,4,5,5,6,6],"right_children":[2,4,6,8,10,12,14,-1,-1,-1,-1,-1,-1,-1,-1],"split_conditions":[9.7063935E-1,NaN,1.0297918E0,5.0617284E-1,8.132652E-1,8.836039E-1,1.5091667E2,1.0670514E-1,4.8599318E-2,-4.1045483E-2,4.7742575E-2,-4.752088E-2,-1.0291309E-1,2.688617E-2,-3.769535E-2],"split_indices":[10,1,16,5,12,16,8,0,0,0,0,0,0,0,0],"split_type":[0,1,0,0,0,0,0,0,0,0,0,0,0,0,0],"sum_hessian":[2.3271474E2,9.628447E1,1.3643027E2,8.15917E1,1.469277E1,6.732619E1,6.910408E1,1.737601E1,6.421569E1,9.461184E0,5.2315865E0,4.962408E1,1.7702106E1,2.7188572E1,4.191551E1],"tree_param":{"num_deleted":"0","num_feature":"21","num_nodes":"15","size_leaf_vector":"1"}},{"base_weights":[1.4517318E-2,5.313041E-1,-5.5065256E-1,9.802193E-1,2.5657135E-1,-7.895623E-3,-7.5202364E-1,2.8095238E-2,1.1058819E-1,6.0092855E-2,3.5878748E-3,3.742972E-2,-4.5222588E-2,-3.808037E-2,-9.46338E-2],"categories":[0,37,83],"categories_nodes":[4,5],"categories_segments":[0,1],"categories_sizes":[1,2],"default_left":[1,0,0,1,1,1,0,0,0,0,0,0,0,0,0],"id":24,"left_children":[1,3,5,7,9,11,13,-1,-1,-1,-1,-1,-1,-1,-1],"loss_changes":[6.8812515E1,1.4924965E1,1.2294758E1,5.526169E0,6.3776517E0,6.120552E0,6.6581993E0,0E0,0E0,0E0,0E0,0E0,0E0,0E0,0E0],"parents":[2147483647,0,0,1,1,2,2,3,3,4,4,5,5,6,6],"right_children":[2,4,6,8,10,12,14,-1,-1,-1,-1,-1,-1,-1,-1],"split_conditions":[1.0143495E0,7.7692807E-1,9.9271744E-1,9.007175E-1,NaN,NaN,1.1994745E0,2.8095238E-2,1.1058819E-1,6.0092855E-2,3.5878748E-3,3.742972E-2,-4.5222588E-2,-3.808037E-2,-9.46338E-2],"split_indices":[9,9,11,19,20,1,9,0,0,0,0,0,0,0,0],"split_type":[0,0,0,0,1,1,0,0,0,0,0,0,0,0,0],"sum_hessian":[2.3359926E2,1.22053986E2,1.1154527E2,4.5362865E1,7.6691124E1,3.0466883E1,8.107839E1,1.0212708E1,3.5150158E1,2.7481346E1,4.9209778E1,1.6478743E1,1.3988139E1,3.4441387E1,4.6637005E1],"tree_param":{"num_deleted":"0","num_feature":"21","num_nodes":"15","size_leaf_vector":"1"}},{"base_weights":[5.1359445E-2,1.7232285E-1,-3.9137045E-1,3.9195943E-1,-4.9773887E-2,-5.761584E-1,2.072963E-1,6.9918625E-2,2.041249E-2,2.199388E-2,-2.1362025E-2,5.992895E-3,-7.0838675E-2,6.328609E-2,-2.777869E-2],"categories":[0,1,2,3,4,5,6,7,8,9,10,11,12,13,14,15,16,17,18,19,20,21,22,23,24,25,26,27,28,29,30,31,32,33,34,35,36,37,38,39,40,41,42,43,44,45,46,47,48,49,50,51,52,53,54,0],"categories_nodes":[1,3],"categories_segments":[0,55],"categories_sizes":[55,1],"default_left":[1,1,0,1,0,0,0,0,0,0,0,0,0,0,0],"id":25,"left_children":[1,3,5,7,9,11,13,-1,-1,-1,-1,-1,-1,-1,-1],"loss_changes":[1.1309931E1,8.096272E0,5.1368117E0,4.9251156E0,4.159567E0,3.8491297E0,2.822379E0,0E0,0E0,0E0,0E0,0E0,0E0,0E0,0E0],"parents":[2147483647,0,0,1,1,2,2,3,3,4,4,5,5,6,6],"right_children":[2,4,6,8,10,12,14,-1,-1,-1,-1,-1,-1,-1,-1],"split_conditions":[1.1994745E0,NaN,1.649E2,NaN,8.7965894E-1,6.058815E-1,1.1299146E0,6.9918625E-2,2.041249E-2,2.199388E-2,-2.1362025E-2,5.992895E-3,-7.0838675E-2,6.328609E-2,-2.777869E-2],"split_indices":[9,3,8,20,9,5,12,0,0,0,0,0,0,0,0],"split_type":[0,1,0,1,0,0,0,0,0,0,0,0,0,0,0],"sum_hessian":[2.0892763E2,1.6457338E2,4.4354244E1,8.2360435E1,8.2212944E1,3.392145E1,1.0432796E1,2.6850027E1,5.551041E1,3.1426939E1,5.0786003E1,7.267602E0,2.6653849E1,5.2623277E0,5.170468E0],"tree_param":{"num_deleted":"0","num_feature":"21","num_nodes":"15","size_leaf_vector":"1"}},{"base_weights":[-2.3318183E-2,5.133544E-1,-1.11416325E-1,7.623466E-1,-3.0056298E-2,5.8630683E-2,-1.6580239E-1,8.259984E-3,1.0547371E-1,3.874959E-2,-2.3676341E-2],"categories":[0,0,1,2,3,4,5,6,7,8,9,10,11,12,13,14,15,16,17,18,19,20,21,22,23,24,25,26,27,28,29,30,31,32,33,34,35,36,37,38,39,40,41,42,43,44,45,46,47,48,49,50,51,52,53,54,56,57,58,59,60,61,62,63,64,65,66,67,68,69,70,71,72,73,74,75,76,77,78,79,80,81,82,83,84,85,86,87,88,89,90,91,92,94,95,96,97,98,99,100,101,102,103,104,105,106,107,108,109,110,111,112,113,114,115,116,117,118,119,120,121,122,123,124,125,0,1,2,3],"categories_nodes":[1,2,6],"categories_segments":[0,1,125],"categories_sizes":[1,124,4],"default_left":[1,1,0,0,0,0,1,0,0,0,0],"id":26,"left_children":[1,3,5,7,-1,-1,9,-1,-1,-1,-1],"loss_changes":[1.0458861E1,6.6900034E0,7.6299706E0,5.6302605E0,0E0,0E0,8.625937E0,0E0,0E0,0E0,0E0],"parents":[2147483647,0,0,1,1,2,2,3,3,6,6],"right_children":[2,4,6,8,-1,-1,10,-1,-1,-1,-1],"split_conditions":[7.2685266E-1,NaN,NaN,8.65353E-1,-3.0056298E-2,5.8630683E-2,NaN,8.259984E-3,1.0547371E-1,3.874959E-2,-2.3676341E-2],"split_indices":[11,2,3,13,0,0,2,0,0,0,0],"split_type":[0,1,1,0,0,0,1,0,0,0,0],"sum_hessian":[2.1900203E2,3.020054E1,1.8880148E2,2.3294565E1,6.905974E0,1.2384534E1,1.7641695E2,8.363702E0,1.4930864E1,2.1949883E1,1.5446707E2],"tree_param":{"num_deleted":"0","num_feature":"21","num_nodes":"11","size_leaf_vector":"1"}},{"base_weights":[9.288092E-2,7.015549E-1,-4.0457733E-3,9.507545E-3,8.070279E-2,2.4911325E-1,-1.3012095E-1,-4.4636387E-2,3.200591E-2,-3.1543866E-2,1.153549E-2],"categories":[0],"categories_nodes":[2],"categories_segments":[0],"categories_sizes":[1],"default_left":[0,0,1,0,0,1,0,0,0,0,0],"id":27,"left_children":[1,3,5,-1,-1,7,9,-1,-1,-1,-1],"loss_changes":[1.2221997E1,2.4619646E0,5.766605E0,0E0,0E0,3.9681628E0,6.179129E0,0E0,0E0,0E0,0E0],"parents":[2147483647,0,0,1,1,2,2,5,5,6,6],"right_children":[2,4,6,-1,-1,8,10,-1,-1,-1,-1],"split_conditions":[7.522884E-1,1.424E2,NaN,9.507545E-3,8.070279E-2,1.16255544E-1,1.0585713E0,-4.4636387E-2,3.200591E-2,-3.1543866E-2,1.153549E-2],"split_indices":[11,6,20,0,0,17,16,0,0,0,0],"split_type":[0,0,1,0,0,0,0,0,0,0,0],"sum_hessian":[2.0611578E2,2.745674E1,1.7865904E2,5.7793975E0,2.1677341E1,5.907018E1,1.1958887E2,5.973913E0,5.3096264E1,6.61244E1,5.3464466E1],"tree_param":{"num_deleted":"0","num_feature":"21","num_nodes":"11","size_leaf_vector":"1"}},{"base_weights":[3.1050123E-2,4.0731037E-1,-2.4545102E-1,8.137338E-1,2.4047945E-1,-6.5824226E-2,-5.628194E-1,1.0729302E-1,1.9441757E-2,1.1217442E-2,7.6494485E-2,-2.0676436E-2,2.7229376E-2,3.271152E-3,-7.2414584E-2],"categories":[0,1,2,3,4,5,6,7,8,9,10,11,12,13,14,15,16,17,18,19,20,21,22,23,24,25,26,27,28,29,30,31,32,33,34,35,36,37,38,39,40,41,42,43,44,45,46,47,48,49,50,51,52,53,54,55,56,57,58,59,60,61,83],"categories_nodes":[6],"categories_segments":[0],"categories_sizes":[63],"default_left":[0,0,1,0,0,1,1,0,0,0,0,0,0,0,0],"id":28,"left_children":[1,3,5,7,9,11,13,-1,-1,-1,-1,-1,-1,-1,-1],"loss_changes":[2.359887E1,6.317049E0,7.4206934E0,5.0803604E0,4.712368E0,4.603939E0,5.665456E0,0E0,0E0,0E0,0E0,0E0,0E0,0E0,0E0],"parents":[2147483647,0,0,1,1,2,2,3,3,4,4,5,5,6,6],"right_children":[2,4,6,8,10,12,14,-1,-1,-1,-1,-1,-1,-1,-1],"split_conditions":[9.7063935E-1,9.3140274E-1,1.1217178E0,9.002821E-1,9.4681334E-1,1.0593882E0,NaN,1.0729302E-1,1.9441757E-2,1.1217442E-2,7.6494485E-2,-2.0676436E-2,2.7229376E-2,3.271152E-3,-7.2414584E-2],"split_indices":[10,18,10,10,10,10,1,0,0,0,0,0,0,0,0],"split_type":[0,0,0,0,0,0,1,0,0,0,0,0,0,0,0],"sum_hessian":[2.2487189E2,9.505238E1,1.298195E2,2.6534073E1,6.851831E1,8.367043E1,4.6149075E1,1.6888422E1,9.645651E0,5.733214E1,1.1186167E1,5.8735233E1,2.4935202E1,1.1794871E1,3.4354202E1],"tree_param":{"num_deleted":"0","num_feature":"21","num_nodes":"15","size_leaf_vector":"1"}},{"base_weights":[-1.9039482E-2,2.1469405E-1,-1.5661252E-1,5.480394E-1,3.2264255E-2,-3.0841264E-1,3.0291403E-2,9.613696E-2,2.3597028E-2,-3.9366335E-2,1.7745074E-2,-1.2729451E-2,-7.626429E-2,-4.34641E-3,5.9568215E-2],"categories":[0,1,3,5,0,0],"categories_nodes":[1,3,5],"categories_segments":[0,4,5],"categories_sizes":[4,1,1],"default_left":[1,1,0,1,1,1,1,0,0,0,0,0,0,0,0],"id":29,"left_children":[1,3,5,7,9,11,13,-1,-1,-1,-1,-1,-1,-1,-1],"loss_changes":[6.8351912E0,4.7738733E0,3.8035011E0,3.619153E0,3.673667E0,6.268723E0,2.7945921E0,0E0,0E0,0E0,0E0,0E0,0E0,0E0,0E0],"parents":[2147483647,0,0,1,1,2,2,3,3,4,4,5,5,6,6],"right_children":[2,4,6,8,10,12,14,-1,-1,-1,-1,-1,-1,-1,-1],"split_conditions":[1.4908333E2,NaN,1.0560385E0,NaN,3.3187655E-1,NaN,1.1009861E0,9.613696E-2,2.3597028E-2,-3.9366335E-2,1.7745074E-2,-1.2729451E-2,-7.626429E-2,-4.34641E-3,5.9568215E-2],"split_indices":[8,2,16,20,17,0,18,0,0,0,0,0,0,0,0],"split_type":[0,1,0,1,0,1,0,0,0,0,0,0,0,0,0],"sum_hessian":[2.1052156E2,7.779278E1,1.3272878E2,2.680647E1,5.0986305E1,7.288374E1,5.9845036E1,9.565737E0,1.7240734E1,1.2676256E1,3.831005E1,5.4851242E1,1.8032505E1,5.390277E1,5.942265E0],"tree_param":{"num_deleted":"0","num_feature":"21","num_nodes":"15","size_leaf_vector":"1"}},{"base_weights":[-1.6892932E-2,1.8237652E-1,-3.216198E-1,-8.945022E-2,3.8539445E-1,-4.6422303E-1,3.3504075E-1,6.5658116E-3,-6.561736E-2,5.337645E-2,-1.4596609E-2,4.5449166E-3,-6.218698E-2,7.653929E-2,-3.8866002E-2],"categories":[0,1],"categories_nodes":[6],"categories_segments":[0],"categories_sizes":[2],"default_left":[0,0,1,0,0,0,1,0,0,0,0,0,0,0,0],"id":30,"left_children":[1,3,5,7,9,11,13,-1,-1,-1,-1,-1,-1,-1,-1],"loss_changes":[1.2778426E1,7.0590553E0,7.9449472E0,5.322525E0,7.0610867E0,6.759491E0,5.744448E0,0E0,0E0,0E0,0E0,0E0,0E0,0E0,0E0],"parents":[2147483647,0,0,1,1,2,2,3,3,4,4,5,5,6,6],"right_children":[2,4,6,8,10,12,14,-1,-1,-1,-1,-1,-1,-1,-1],"split_conditions":[1.0552917E0,9.5460045E-1,1.1347181E0,9.2797077E-1,1.0387306E0,9.093454E-1,NaN,6.5658116E-3,-6.561736E-2,5.337645E-2,-1.4596609E-2,4.5449166E-3,-6.218698E-2,7.653929E-2,-3.8866002E-2],"split_indices":[9,13,13,13,11,13,2,0,0,0,0,0,0,0,0],"split_type":[0,0,0,0,0,0,1,0,0,0,0,0,0,0,0],"sum_hessian":[2.0847287E2,1.2628989E2,8.218299E1,5.4233902E1,7.2055984E1,6.776082E1,1.44221735E1,4.3623272E1,1.0610632E1,5.421174E1,1.7844246E1,1.8615402E1,4.9145412E1,8.779602E0,5.6425714E0],"tree_param":{"num_deleted":"0","num_feature":"21","num_nodes":"15","size_leaf_vector":"1"}},{"base_weights":[-2.1809833E-3,9.330686E-2,-4.6704003E-1,2.6913214E-1,-1.759003E-1,-7.267693E-1,-5.8802333E-2,6.050366E-2,1.2104542E-2,2.0707933E-2,-4.039464E-2,-9.4696656E-2,-2.5736788E-2,5.67158E-2,-4.3254457E-2],"categories":[11,37,56,71,73,0,1,2,3,4,5,6,7,8,9,10,11,12,13,14,15,16,17,18,19,20,21,22,23,24,25,26,27,28,29,30,31,32,33,34,35,36,37,38],"categories_nodes":[1,5],"categories_segments":[0,5],"categories_sizes":[5,39],"default_left":[0,1,1,0,0,1,0,0,0,0,0,0,0,0,0],"id":31,"left_children":[1,3,5,7,9,11,13,-1,-1,-1,-1,-1,-1,-1,-1],"loss_changes":[9.536237E0,8.484305E0,3.8389788E0,5.5635266E0,7.0840607E0,2.4817152E0,4.265538E0,0E0,0E0,0E0,0E0,0E0,0E0,0E0,0E0],"parents":[2147483647,0,0,1,1,2,2,3,3,4,4,5,5,6,6],"right_children":[2,4,6,8,10,12,14,-1,-1,-1,-1,-1,-1,-1,-1],"split_conditions":[1.2545534E0,NaN,1.0466741E0,7.395186E-1,8.7706417E-1,NaN,1.1839569E0,6.050366E-2,1.2104542E-2,2.0707933E-2,-4.039464E-2,-9.4696656E-2,-2.5736788E-2,5.67158E-2,-4.3254457E-2],"split_indices":[11,1,16,12,16,1,16,0,0,0,0,0,0,0,0],"split_type":[0,1,0,0,0,1,0,0,0,0,0,0,0,0,0],"sum_hessian":[2.1285455E2,1.772454E2,3.5609142E1,1.0721873E2,7.002669E1,2.1286173E1,1.4322968E1,2.8792538E1,7.8426186E1,2.7212366E1,4.281432E1,1.2598855E1,8.687318E0,5.2071834E0,9.115785E0],"tree_param":{"num_deleted":"0","num_feature":"21","num_nodes":"15","size_leaf_vector":"1"}},{"base_weights":[-3.2388803E-2,-1.4516763E-1,2.3212448E-1,1.8246569E-1,-2.706316E-1,7.0722467E-1,5.3496556E-3,4.172113E-2,-2.0983472E-2,-1.696302E-2,-7.1829066E-2,3.0219069E-2,1.3679191E-1,2.2965321E-2,-3.512133E-2],"categories":[],"categories_nodes":[],"categories_segments":[],"categories_sizes":[],"default_left":[0,1,1,0,0,1,0,0,0,0,0,0,0,0,0],"id":32,"left_children":[1,3,5,7,9,11,13,-1,-1,-1,-1,-1,-1,-1,-1],"loss_changes":[6.2368793E0,6.067284E0,6.734503E0,4.3665357E0,4.6125803E0,5.307062E0,3.9403155E0,0E0,0E0,0E0,0E0,0E0,0E0,0E0,0E0],"parents":[2147483647,0,0,1,1,2,2,3,3,4,4,5,5,6,6],"right_children":[2,4,6,8,10,12,14,-1,-1,-1,-1,-1,-1,-1,-1],"split_conditions":[1.0513679E0,1.4577777E2,9.4365716E-1,1.0336636E0,1.2222557E0,8.735168E-1,1.481736E0,4.172113E-2,-2.0983472E-2,-1.696302E-2,-7.1829066E-2,3.0219069E-2,1.3679191E-1,2.2965321E-2,-3.512133E-2],"split_indices":[13,8,15,18,11,15,16,0,0,0,0,0,0,0,0],"split_type":[0,0,0,0,0,0,0,0,0,0,0,0,0,0,0],"sum_hessian":[2.0694067E2,1.4539902E2,6.154166E1,4.013561E1,1.0526341E2,1.91995E1,4.234216E1,2.4459938E1,1.5675671E1,8.968403E1,1.5579381E1,1.3489791E1,5.709709E0,2.6189716E1,1.6152443E1],"tree_param":{"num_deleted":"0","num_feature":"21","num_nodes":"15","size_leaf_vector":"1"}},{"base_weights":[-7.751652E-2,4.5526975E-1,-4.8619977E-1,8.32238E-1,2.554783E-1,5.8536977E-2,-6.0966307E-1,2.2065226E-2,9.951871E-2,4.331645E-2,-2.908447E-2,-4.018846E-2,4.5232043E-2,-4.0352862E-2,-7.697221E-2],"categories":[],"categories_nodes":[],"categories_segments":[],"categories_sizes":[],"default_left":[1,0,0,0,0,0,0,0,0,0,0,0,0,0,0],"id":33,"left_children":[1,3,5,7,9,11,13,-1,-1,-1,-1,-1,-1,-1,-1],"loss_changes":[5.1514473E1,7.5278854E0,9.034039E0,4.3197556E0,7.888931E0,5.3677382E0,3.7107124E0,0E0,0E0,0E0,0E0,0E0,0E0,0E0,0E0],"parents":[2147483647,0,0,1,1,2,2,3,3,4,4,5,5,6,6],"right_children":[2,4,6,8,10,12,14,-1,-1,-1,-1,-1,-1,-1,-1],"split_conditions":[9.77009E-1,7.733998E-1,9.6723706E-1,1.514E2,1.0320324E0,1.6413333E2,1.1217178E0,2.2065226E-2,9.951871E-2,4.331645E-2,-2.908447E-2,-4.018846E-2,4.5232043E-2,-4.0352862E-2,-7.697221E-2],"split_indices":[10,11,11,6,18,6,10,0,0,0,0,0,0,0,0],"split_type":[0,0,0,0,0,0,0,0,0,0,0,0,0,0,0],"sum_hessian":[2.3456961E2,1.01775024E2,1.3279459E2,3.4158646E1,6.761638E1,2.4633614E1,1.0816097E2,9.608345E0,2.4550303E1,4.994344E1,1.7672937E1,1.1436053E1,1.319756E1,5.8083645E1,5.0077324E1],"tree_param":{"num_deleted":"0","num_feature":"21","num_nodes":"15","size_leaf_vector":"1"}},{"base_weights":[4.931321E-2,3.2541832E-1,-4.4970974E-2,3.2363333E-2,5.4317407E-2,-8.921104E-2,6.327383E-2,2.8461128E-2,-6.454126E-2,2.0294525E-2,-1.9334948E-2],"categories":[],"categories_nodes":[],"categories_segments":[],"categories_sizes":[],"default_left":[0,1,0,1,0,0,0,0,0,0,0],"id":34,"left_children":[1,3,5,7,-1,9,-1,-1,-1,-1,-1],"loss_changes":[5.474382E0,3.8538566E0,5.009762E0,5.070331E0,0E0,5.211873E0,0E0,0E0,0E0,0E0,0E0],"parents":[2147483647,0,0,1,1,2,2,3,3,5,5],"right_children":[2,4,6,8,-1,10,-1,-1,-1,-1,-1],"split_conditions":[8.445568E-1,9.7596E-1,2.6E1,1.1102812E0,5.4317407E-2,9.171397E-1,6.327383E-2,2.8461128E-2,-6.454126E-2,2.0294525E-2,-1.9334948E-2],"split_indices":[11,19,5,14,0,9,0,0,0,0,0],"split_type":[0,0,0,0,0,0,0,0,0,0,0],"sum_hessian":[2.0872937E2,5.2508926E1,1.5622044E2,2.4529936E1,2.797899E1,1.4790155E2,8.318902E0,1.8254185E1,6.2757516E0,4.0325787E1,1.0757576E2],"tree_param":{"num_deleted":"0","num_feature":"21","num_nodes":"11","size_leaf_vector":"1"}},{"base_weights":[-3.2738545E-3,1.6520871E-1,-1.659986E-1,2.2960886E-1,-5.669815E-2,-5.2526677E-1,-1.3932494E-2,2.9057205E-2,-3.7792522E-2,1.5650729E-2,-7.880733E-2,6.625534E-2,-9.0677915E-3],"categories":[0,1,2,3,4,5,6,7,8,9,10,11,12,13,14,15,16,17,18,19,20,21,22,23,24,25,26,27,28,29,30,31,32,33,34,35,36,37,38,39,40,41,42,43,44,45,46,47,48,49,50,51,52,53,54],"categories_nodes":[0],"categories_segments":[0],"categories_sizes":[55],"default_left":[1,0,0,0,0,1,0,0,0,0,0,0,0],"id":35,"left_children":[1,3,5,7,-1,9,11,-1,-1,-1,-1,-1,-1],"loss_changes":[5.834969E0,5.273382E0,5.9068804E0,4.793038E0,0E0,6.9117336E0,4.547037E0,0E0,0E0,0E0,0E0,0E0,0E0],"parents":[2147483647,0,0,1,1,2,2,3,3,5,5,6,6],"right_children":[2,4,6,8,-1,10,12,-1,-1,-1,-1,-1,-1],"split_conditions":[NaN,1.448024E0,7E-1,1.8888888E0,-5.669815E-2,8.2987595E-1,7.7272725E-1,2.9057205E-2,-3.7792522E-2,1.5650729E-2,-7.880733E-2,6.625534E-2,-9.0677915E-3],"split_indices":[3,11,4,4,0,11,4,0,0,0,0,0,0],"split_type":[1,0,0,0,0,0,0,0,0,0,0,0,0],"sum_hessian":[2.1082831E2,1.0357409E2,1.0725421E2,9.615367E1,7.4204187E0,3.1166557E1,7.6087654E1,8.6157295E1,9.996373E0,9.696127E0,2.147043E1,7.047432E0,6.904022E1],"tree_param":{"num_deleted":"0","num_feature":"21","num_nodes":"13","size_leaf_vector":"1"}},{"base_weights":[-1.9092105E-2,4.069357E-1,-6.4840853E-1,8.8278955E-1,1.3916141E-1,-7.564629E-1,1.4374852E-1,9.560418E-2,-7.349565E-3,6.88036E-2,-3.7142E-3,-3.852007E-2,-8.509069E-2,7.816532E-2,-5.0672535E-2],"categories":[],"categories_nodes":[],"categories_segments":[],"categories_sizes":[],"default_left":[1,0,0,0,0,0,0,0,0,0,0,0,0,0,0],"id":36,"left_children":[1,3,5,7,9,11,13,-1,-1,-1,-1,-1,-1,-1,-1],"loss_changes":[6.2702938E1,1.7651098E1,8.188976E0,6.0667763E0,9.476244E0,3.7258186E0,6.0481E0,0E0,0E0,0E0,0E0,0E0,0E0,0E0,0E0],"parents":[2147483647,0,0,1,1,2,2,3,3,4,4,5,5,6,6],"right_children":[2,4,6,8,10,12,14,-1,-1,-1,-1,-1,-1,-1,-1],"split_conditions":[1.0573043E0,8.033819E-1,1.2073289E0,2.9047618E0,8.385381E-1,1.1575613E0,1.0657895E0,9.560418E-2,-7.349565E-3,6.88036E-2,-3.7142E-3,-3.852007E-2,-8.509069E-2,7.816532E-2,-5.0672535E-2],"split_indices":[9,9,13,5,11,9,5,0,0,0,0,0,0,0,0],"split_type":[0,0,0,0,0,0,0,0,0,0,0,0,0,0,0],"sum_hessian":[2.3188927E2,1.384895E2,9.339976E1,4.904187E1,8.944764E1,8.222843E1,1.1171325E1,4.336438E1,5.677489E0,2.0155413E1,6.929223E1,2.4600382E1,5.7628048E1,5.46908E0,5.7022448E0],"tree_param":{"num_deleted":"0","num_feature":"21","num_nodes":"15","size_leaf_vector":"1"}},{"base_weights":[-1.5072658E-2,3.3883743E-2,-4.9891016E-1,1.2710659E-1,-2.2526991E-1,-7.138783E-2,1.5313483E-2,-3.4467194E-2,2.6193988E-2,1.1130643E-2,-7.6543756E-2],"categories":[0,1,13,47],"categories_nodes":[0],"categories_segments":[0],"categories_sizes":[4],"default_left":[1,1,0,0,0,0,0,0,0,0,0],"id":37,"left_children":[1,3,5,7,9,-1,-1,-1,-1,-1,-1],"loss_changes":[5.0038676E0,4.6702466E0,3.367906E0,1.04633E1,1.0287846E1,0E0,0E0,0E0,0E0,0E0,0E0],"parents":[2147483647,0,0,1,1,2,2,3,3,4,4],"right_children":[2,4,6,8,10,-1,-1,-1,-1,-1,-1],"split_conditions":[NaN,1.1380916E0,1.5164381E0,8.7962246E-1,1.2962656E0,-7.138783E-2,1.5313483E-2,-3.4467194E-2,2.6193988E-2,1.1130643E-2,-7.6543756E-2],"split_indices":[3,11,17,13,17,0,0,0,0,0,0],"split_type":[1,0,0,0,0,0,0,0,0,0,0],"sum_hessian":[2.0953636E2,1.9112738E2,1.8408981E1,1.4093848E2,5.0188904E1,1.3203722E1,5.205259E0,3.249767E1,1.084408E2,3.2081635E1,1.810727E1],"tree_param":{"num_deleted":"0","num_feature":"21","num_nodes":"11","size_leaf_vector":"1"}},{"base_weights":[2.0821238E-2,8.926689E-2,-3.9807066E-1,4.5003146E-1,1.3834969E-2,-6.44138E-1,4.0791605E-2,1.3574767E-3,7.7621035E-2,3.6067154E-2,-6.969482E-3,-1.0486871E-1,-6.0992567E-3],"categories":[39,56,61,71],"categories_nodes":[0],"categories_segments":[0],"categories_sizes":[4],"default_left":[1,1,0,0,0,1,0,0,0,0,0,0,0],"id":38,"left_children":[1,3,5,7,9,11,-1,-1,-1,-1,-1,-1,-1],"loss_changes":[6.159776E0,5.0123844E0,6.4258175E0,5.095484E0,4.9359303E0,6.2545576E0,0E0,0E0,0E0,0E0,0E0,0E0,0E0],"parents":[2147483647,0,0,1,1,2,2,3,3,4,4,5,5],"right_children":[2,4,6,8,10,12,-1,-1,-1,-1,-1,-1,-1],"split_conditions":[NaN,7.816195E-1,1.066486E0,1.542E2,7.725729E-1,1.003263E0,4.0791605E-2,1.3574767E-3,7.7621035E-2,3.6067154E-2,-6.969482E-3,-1.0486871E-1,-6.0992567E-3],"split_indices":[1,11,13,8,14,18,0,0,0,0,0,0,0],"split_type":[1,0,0,0,0,0,0,0,0,0,0,0,0],"sum_hessian":[2.126016E2,1.8341847E2,2.9183119E1,3.0859966E1,1.5255852E2,2.2667849E1,6.515269E0,1.4603123E1,1.6256844E1,2.8714348E1,1.2384416E2,1.2124799E1,1.0543051E1],"tree_param":{"num_deleted":"0","num_feature":"21","num_nodes":"13","size_leaf_vector":"1"}},{"base_weights":[4.8943963E-2,5.7368726E-1,-3.009407E-3,7.860116E-3,8.267055E-2,-6.772326E-2,3.710061E-2,7.973961E-4,7.434051E-2],"categories":[],"categories_nodes":[],"categories_segments":[],"categories_sizes":[],"default_left":[0,1,0,0,0,0,0,0,0],"id":39,"left_children":[1,3,5,-1,-1,-1,7,-1,-1],"loss_changes":[5.7382994E0,2.6963534E0,5.512165E0,0E0,0E0,0E0,3.9153204E0,0E0,0E0],"parents":[2147483647,0,0,1,1,2,2,6,6],"right_children":[2,4,6,-1,-1,-1,8,-1,-1],"split_conditions":[6.5655E-1,9.3354845E-1,3.75E-1,7.860116E-3,8.267055E-2,-6.772326E-2,1.5490165E0,7.973961E-4,7.434051E-2],"split_indices":[9,19,4,0,0,0,10,0,0],"split_type":[0,0,0,0,0,0,0,0,0],"sum_hessian":[2.0942236E2,1.796172E1,1.9146065E2,7.2597427E0,1.0701978E1,9.332234E0,1.8212842E2,1.7635764E2,5.770777E0],"tree_param":{"num_deleted":"0","num_feature":"21","num_nodes":"9","size_leaf_vector":"1"}},{"base_weights":[2.2893198E-2,4.270315E-1,-4.482775E-1,1.1888325E-1,6.2762004E-1,-5.219377E-1,3.1736113E-2,-6.531018E-5,7.383037E-2,6.9649145E-2,-6.502209E-2,-1.3474243E-2,-6.424507E-2],"categories":[],"categories_nodes":[],"categories_segments":[],"categories_sizes":[],"default_left":[1,0,0,0,1,0,0,0,0,0,0,0,0],"id":40,"left_children":[1,3,5,7,9,11,-1,-1,-1,-1,-1,-1,-1],"loss_changes":[4.4583622E1,7.7138176E0,6.408392E0,4.013143E0,1.1121065E1,5.7484684E0,0E0,0E0,0E0,0E0,0E0,0E0,0E0],"parents":[2147483647,0,0,1,1,2,2,3,3,4,4,5,5],"right_children":[2,4,6,8,10,12,-1,-1,-1,-1,-1,-1,-1],"split_conditions":[1.0143495E0,8.90951E-1,1.1724926E0,1.4152856E0,1.0953052E0,1.0012709E0,3.1736113E-2,-6.531018E-5,7.383037E-2,6.9649145E-2,-6.502209E-2,-1.3474243E-2,-6.424507E-2],"split_indices":[9,14,19,16,10,10,0,0,0,0,0,0,0],"split_type":[0,0,0,0,0,0,0,0,0,0,0,0,0],"sum_hessian":[2.3213011E2,1.25003914E2,1.07126205E2,4.9915447E1,7.508846E1,9.821612E1,8.910083E0,4.309605E1,6.8193974E0,6.987162E1,5.2168446E0,2.9017824E1,6.9198296E1],"tree_param":{"num_deleted":"0","num_feature":"21","num_nodes":"13","size_leaf_vector":"1"}},{"base_weights":[4.5571283E-2,4.2306668E-1,-3.382139E-1,6.282485E-2,6.5311503E-1,-1.6079788E-1,-7.611231E-1,7.308291E-2,-1.07704075E-2,1.2283704E-1,4.0117968E-2,-2.4263255E-2,9.294947E-2,-4.3454114E-2,-1.0910362E-1],"categories":[],"categories_nodes":[],"categories_segments":[],"categories_sizes":[],"default_left":[0,0,1,0,0,1,0,0,0,0,0,0,0,0,0],"id":41,"left_children":[1,3,5,7,9,11,13,-1,-1,-1,-1,-1,-1,-1,-1],"loss_changes":[3.3303318E1,9.558353E0,8.435091E0,5.854869E0,9.880333E0,9.079404E0,3.4132557E0,0E0,0E0,0E0,0E0,0E0,0E0,0E0,0E0],"parents":[2147483647,0,0,1,1,2,2,3,3,4,4,5,5,6,6],"right_children":[2,4,6,8,10,12,14,-1,-1,-1,-1,-1,-1,-1,-1],"split_conditions":[9.937436E-1,9.529892E-1,1.161571E0,8.93592E-1,8.5311896E-1,1.2073289E0,1.5596666E2,7.308291E-2,-1.07704075E-2,1.2283704E-1,4.0117968E-2,-2.4263255E-2,9.294947E-2,-4.3454114E-2,-1.0910362E-1],"split_indices":[11,13,10,18,10,13,8,0,0,0,0,0,0,0,0],"split_type":[0,0,0,0,0,0,0,0,0,0,0,0,0,0,0],"sum_hessian":[2.2788518E2,1.148324E2,1.1305279E2,4.5248726E1,6.958367E1,8.061426E1,3.243853E1,8.357131E0,3.6891594E1,1.7170273E1,5.24134E1,7.513817E1,5.4760904E0,1.9443167E1,1.2995361E1],"tree_param":{"num_deleted":"0","num_feature":"21","num_nodes":"15","size_leaf_vector":"1"}},{"base_weights":[-2.4123313E-2,5.703802E-2,-3.2049108E-1,1.3493088E-3,6.934383E-1,-5.142317E-1,3.198593E-2,-1.2496129E-2,2.5710588E-2,1.1429907E-1,2.1312179E-2,-2.1113386E-2,-8.030906E-2],"categories":[0,1,2,3,4,5,6,7,8,9,10,11,12,13,14],"categories_nodes":[2],"categories_segments":[0],"categories_sizes":[15],"default_left":[0,0,1,0,0,0,0,0,0,0,0,0,0],"id":42,"left_children":[1,3,5,7,9,11,-1,-1,-1,-1,-1,-1,-1],"loss_changes":[5.057364E0,5.8575525E0,5.92994E0,5.5225368E0,2.9157515E0,3.231101E0,0E0,0E0,0E0,0E0,0E0,0E0,0E0],"parents":[2147483647,0,0,1,1,2,2,3,3,4,4,5,5],"right_children":[2,4,6,8,10,12,-1,-1,-1,-1,-1,-1,-1],"split_conditions":[1.9615384E0,1.4901961E0,NaN,1.0513679E0,7.768151E-1,1.3E0,3.198593E-2,-1.2496129E-2,2.5710588E-2,1.1429907E-1,2.1312179E-2,-2.1113386E-2,-8.030906E-2],"split_indices":[5,5,3,13,14,4,0,0,0,0,0,0,0],"split_type":[0,0,1,0,0,0,0,0,0,0,0,0,0],"sum_hessian":[2.0849394E2,1.6430579E2,4.4188164E1,1.5200645E2,1.2299325E1,3.4299843E1,9.888321E0,1.0212334E2,4.9883118E1,5.134659E0,7.1646667E0,1.914595E1,1.5153892E1],"tree_param":{"num_deleted":"0","num_feature":"21","num_nodes":"13","size_leaf_vector":"1"}},{"base_weights":[-1.3639752E-2,2.078592E-1,-1.7746554E-1,6.9772935E-1,9.2891544E-2,-8.236062E-2,-6.8230785E-2,1.519648E-2,1.0243684E-1,-1.5015728E-2,3.7018888E-2,-5.7696402E-2,-4.6491832E-4],"categories":[0,1,2,3,4,5,6,7,8,9,10,11,12,13,14,15,16,17,18,20,21,22,23,24,25,26,27,28,29,30,31,32,33,34,35,36,38,39,40,41,42,43,44,45,46,47,48,49,50,51,52,53,54,55,56,71,83],"categories_nodes":[0],"categories_segments":[0],"categories_sizes":[57],"default_left":[1,0,1,1,1,0,0,0,0,0,0,0,0],"id":43,"left_children":[1,3,5,7,9,11,-1,-1,-1,-1,-1,-1,-1],"loss_changes":[7.332117E0,4.775024E0,5.920244E0,3.147439E0,5.3421636E0,4.063982E0,0E0,0E0,0E0,0E0,0E0,0E0,0E0],"parents":[2147483647,0,0,1,1,2,2,3,3,4,4,5,5],"right_children":[2,4,6,8,10,12,-1,-1,-1,-1,-1,-1,-1],"split_conditions":[NaN,8.160812E-1,1.2702143E0,9.785196E-1,1.0594634E0,1.514E2,-6.8230785E-2,1.519648E-2,1.0243684E-1,-1.5015728E-2,3.7018888E-2,-5.7696402E-2,-4.6491832E-4],"split_indices":[1,11,11,19,11,6,0,0,0,0,0,0,0],"split_type":[1,0,0,0,0,0,0,0,0,0,0,0,0],"sum_hessian":[2.0004114E2,8.49358E1,1.1510534E2,1.5181108E1,6.975469E1,9.888955E1,1.6215788E1,6.8926105E0,8.288498E0,3.806145E1,3.1693243E1,1.1822201E1,8.706735E1],"tree_param":{"num_deleted":"0","num_feature":"21","num_nodes":"13","size_leaf_vector":"1"}},{"base_weights":[3.8115937E-2,9.651805E-2,-4.3071085E-1,5.666241E-1,3.4615695E-2,-9.236998E-2,7.354542E-2,1.78388E-2,9.75462E-2,6.5890257E-3,-5.8961526E-2,-3.223191E-2,4.9331706E-2],"categories":[18,39,56],"categories_nodes":[0],"categories_segments":[0],"categories_sizes":[3],"default_left":[1,1,0,0,0,0,0,0,0,0,0,0,0],"id":44,"left_children":[1,3,5,7,9,-1,11,-1,-1,-1,-1,-1,-1],"loss_changes":[5.628241E0,5.28409E0,6.3060536E0,3.4992247E0,3.7451582E0,0E0,2.5257332E0,0E0,0E0,0E0,0E0,0E0,0E0],"parents":[2147483647,0,0,1,1,2,2,3,3,4,4,6,6],"right_children":[2,4,6,8,10,-1,12,-1,-1,-1,-1,-1,-1],"split_conditions":[NaN,6.9662875E-1,9.3186903E-1,1.6513333E2,1.5922451E0,-9.236998E-2,9.6186805E-1,1.78388E-2,9.75462E-2,6.5890257E-3,-5.8961526E-2,-3.223191E-2,4.9331706E-2],"split_indices":[1,9,16,6,11,0,9,0,0,0,0,0,0],"split_type":[1,0,0,0,0,0,0,0,0,0,0,0,0],"sum_hessian":[2.0303847E2,1.8125368E2,2.178478E1,2.0141237E1,1.6111244E2,1.0045059E1,1.1739721E1,1.1834113E1,8.307124E0,1.5384085E2,7.2716002E0,6.2199783E0,5.519743E0],"tree_param":{"num_deleted":"0","num_feature":"21","num_nodes":"13","size_leaf_vector":"1"}},{"base_weights":[1.8691752E-2,4.0418538E-1,-5.5366737E-1,9.0546685E-1,1.5702975E-1,-6.7298174E-1,4.1194025E-2,8.189372E-3,1.05162084E-1,-5.896403E-2,2.5818203E-2,1.6210394E-2,-8.0676645E-2],"categories":[],"categories_nodes":[],"categories_segments":[],"categories_sizes":[],"default_left":[0,0,1,1,0,0,0,0,0,0,0,0,0],"id":45,"left_children":[1,3,5,7,9,11,-1,-1,-1,-1,-1,-1,-1],"loss_changes":[5.1397095E1,1.7099804E1,1.13424E1,7.4993286E0,8.622642E0,1.2708317E1,0E0,0E0,0E0,0E0,0E0,0E0,0E0],"parents":[2147483647,0,0,1,1,2,2,3,3,4,4,5,5],"right_children":[2,4,6,8,10,12,-1,-1,-1,-1,-1,-1,-1],"split_conditions":[1.0598543E0,7.74156E-1,1.2073289E0,8.617101E-1,2.1861073E-1,8.65353E-1,4.1194025E-2,8.189372E-3,1.05162084E-1,-5.896403E-2,2.5818203E-2,1.6210394E-2,-8.0676645E-2],"split_indices":[9,9,13,18,17,13,0,0,0,0,0,0,0],"split_type":[0,0,0,0,0,0,0,0,0,0,0,0,0],"sum_hessian":[2.309304E2,1.3816664E2,9.276376E1,4.4747047E1,9.341959E1,8.305039E1,9.713375E0,9.1577835E0,3.5589264E1,1.1461455E1,8.1958145E1,1.4416103E1,6.8634285E1],"tree_param":{"num_deleted":"0","num_feature":"21","num_nodes":"13","size_leaf_vector":"1"}},{"base_weights":[3.203505E-2,1.3648136E-1,-2.0588128E-1,9.43445E-3,3.7306193E-1,-4.148498E-1,2.935005E-1,-9.48409E-3,4.2383913E-2,5.6819297E-2,-3.6078118E-2,-6.7055844E-2,2.786227E-3,-7.666811E-3,8.748512E-2],"categories":[],"categories_nodes":[],"categories_segments":[],"categories_sizes":[],"default_left":[1,1,0,1,0,0,0,0,0,0,0,0,0,0,0],"id":46,"left_children":[1,3,5,7,9,11,13,-1,-1,-1,-1,-1,-1,-1,-1],"loss_changes":[5.0611005E0,4.245045E0,6.611432E0,4.491037E0,8.617838E0,5.7562304E0,4.527025E0,0E0,0E0,0E0,0E0,0E0,0E0,0E0,0E0],"parents":[2147483647,0,0,1,1,2,2,3,3,4,4,5,5,6,6],"right_children":[2,4,6,8,10,12,14,-1,-1,-1,-1,-1,-1,-1,-1],"split_conditions":[1.608E2,1.6609091E2,6.667E1,1.1776475E0,1.3758246E0,1.6946666E2,1.0941399E0,-9.48409E-3,4.2383913E-2,5.6819297E-2,-3.6078118E-2,-6.7055844E-2,2.786227E-3,-7.666811E-3,8.748512E-2],"split_indices":[8,6,7,19,12,8,14,0,0,0,0,0,0,0,0],"split_type":[0,0,0,0,0,0,0,0,0,0,0,0,0,0,0],"sum_hessian":[2.0153946E2,1.4035106E2,6.118839E1,9.199071E1,4.836036E1,4.3256702E1,1.7931684E1,7.419929E1,1.7791424E1,3.736964E1,1.099072E1,2.575248E1,1.7504225E1,1.1783954E1,6.1477313E0],"tree_param":{"num_deleted":"0","num_feature":"21","num_nodes":"15","size_leaf_vector":"1"}},{"base_weights":[1.5383164E-2,4.984152E-1,-3.8705447E-1,9.507013E-1,2.618068E-1,3.3168182E-1,-5.0917155E-1,4.5618124E-2,1.2801023E-1,-1.1971532E-2,4.588263E-2,7.2317064E-2,-2.5352105E-2,-1.2654397E-2,-7.344776E-2],"categories":[0,1,2,3,4,5,6,7,8,9,10,11,13,14,15,16,17,18,19,20,21,22,23,24,25,26,27,28,29,30,31,32,33,34,35,36,37,38,39,40,41,42,43,44,45,46,47,48,49,50,51,52,53,54,55,56,57,58,59,60,61,62,63,64,65,66,67,68,69,73,83,0,1,3,0,2,3],"categories_nodes":[2,5,6],"categories_segments":[0,71,74],"categories_sizes":[71,3,3],"default_left":[1,0,0,0,0,1,1,0,0,0,0,0,0,0,0],"id":47,"left_children":[1,3,5,7,9,11,13,-1,-1,-1,-1,-1,-1,-1,-1],"loss_changes":[4.674025E1,1.14442005E1,1.1683142E1,6.304081E0,6.349172E0,5.2695208E0,1.1094614E1,0E0,0E0,0E0,0E0,0E0,0E0,0E0,0E0],"parents":[2147483647,0,0,1,1,2,2,3,3,4,4,5,5,6,6],"right_children":[2,4,6,8,10,12,14,-1,-1,-1,-1,-1,-1,-1,-1],"split_conditions":[9.6723706E-1,7.522884E-1,NaN,1.542E2,9.600753E-1,NaN,NaN,4.5618124E-2,1.2801023E-1,-1.1971532E-2,4.588263E-2,7.2317064E-2,-2.5352105E-2,-1.2654397E-2,-7.344776E-2],"split_indices":[11,11,1,8,13,2,2,0,0,0,0,0,0,0,0],"split_type":[0,0,1,0,0,1,1,0,0,0,0,0,0,0,0],"sum_hessian":[2.3845302E2,1.0826626E2,1.3018675E2,3.6148663E1,7.211759E1,1.8657785E1,1.1152897E2,1.7591696E1,1.8556967E1,2.6380394E1,4.57372E1,1.0697434E1,7.9603515E0,4.671912E1,6.480985E1],"tree_param":{"num_deleted":"0","num_feature":"21","num_nodes":"15","size_leaf_vector":"1"}},{"base_weights":[7.490247E-2,4.366855E-1,-3.3693054E-1,1.0423986E0,2.9105178E-1,2.0763959E-1,-5.09208E-1,1.1851627E-1,3.839027E-2,-1.5223891E-2,5.0391402E-2,-2.8238494E-3,5.8783624E-2,1.0570377E-2,-6.411437E-2],"categories":[],"categories_nodes":[],"categories_segments":[],"categories_sizes":[],"default_left":[0,0,0,0,0,0,1,0,0,0,0,0,0,0,0],"id":48,"left_children":[1,3,5,7,9,11,13,-1,-1,-1,-1,-1,-1,-1,-1],"loss_changes":[3.5003014E1,1.0720819E1,1.0422578E1,2.6338177E0,1.1149476E1,2.6713939E0,8.731537E0,0E0,0E0,0E0,0E0,0E0,0E0,0E0,0E0],"parents":[2147483647,0,0,1,1,2,2,3,3,4,4,5,5,6,6],"right_children":[2,4,6,8,10,12,14,-1,-1,-1,-1,-1,-1,-1,-1],"split_conditions":[1.0143495E0,6.497015E-1,9.6723706E-1,9.166667E-1,6.818182E-1,1.1094916E0,1.4113333E2,1.1851627E-1,3.839027E-2,-1.5223891E-2,5.0391402E-2,-2.8238494E-3,5.8783624E-2,1.0570377E-2,-6.411437E-2],"split_indices":[9,9,11,4,4,15,8,0,0,0,0,0,0,0,0],"split_type":[0,0,0,0,0,0,0,0,0,0,0,0,0,0,0],"sum_hessian":[2.3294122E2,1.2397369E2,1.0896754E2,2.2836306E1,1.0113738E2,2.6138462E1,8.282908E1,1.6528656E1,6.307648E0,3.5212894E1,6.5924484E1,1.7168533E1,8.969929E0,1.7582375E1,6.5246704E1],"tree_param":{"num_deleted":"0","num_feature":"21","num_nodes":"15","size_leaf_vector":"1"}},{"base_weights":[6.7395293E-3,5.2083027E-2,-7.0624895E-2,2.6935206E-3,1.0741555E-1,4.1206833E-2,-5.695936E-3],"categories":[],"categories_nodes":[],"categories_segments":[],"categories_sizes":[],"default_left":[1,0,0,1,0,0,0],"id":49,"left_children":[1,3,-1,5,-1,-1,-1],"loss_changes":[6.891599E0,1.0168731E1,0E0,4.9890237E0,0E0,0E0,0E0],"parents":[2147483647,0,0,1,1,3,3],"right_children":[2,4,-1,6,-1,-1,-1],"split_conditions":[1.5320289E0,2.1203816E0,-7.0624895E-2,1.36E2,1.0741555E-1,4.1206833E-2,-5.695936E-3],"split_indices":[11,12,0,8,0,0,0],"split_type":[0,0,0,0,0,0,0],"sum_hessian":[2.002559E2,1.8973024E2,1.0525665E1,1.8239029E2,7.339957E0,2.2392063E1,1.5999821E2],"tree_param":{"num_deleted":"0","num_feature":"21","num_nodes":"7","size_leaf_vector":"1"}},{"base_weights":[3.581203E-2,3.6190736E-1,-4.8377868E-2,-1.7401196E-2,5.2550006E-1,1.9158721E-1,-2.2905725E-1,8.092899E-2,1.8519433E-2,4.3067057E-3,7.430333E-2,-1.428602E-3,-4.2638004E-2],"categories":[0,1,2,3,4,5,6,7,8,9,10,11,12,13,14,15,16,17,18,19,20,21,22,23,24,25,26,27,28,29,30,31,32,33,34,35,36,37,38,39,40,41,42,43,44,45,46,47,48,49,50,51,52,53,54,55,56,57,58,59,60,61,0,1,2,3,4,5,6,7,8,9,10,11,12,13,14,15,16,17,0,1,2,3,4,5,6,7,8,9,10,11,12,13,14,15,16,17,18,19,20,21,22,23,24,25,26,27,28,29,30,31,32,33,34,35,36,37,38,39,40,41,42,43,44,45,46,47],"categories_nodes":[4,5,6],"categories_segments":[0,62,80],"categories_sizes":[62,18,48],"default_left":[1,0,1,0,1,1,1,0,0,0,0,0,0],"id":50,"left_children":[1,3,5,-1,7,9,11,-1,-1,-1,-1,-1,-1],"loss_changes":[5.585366E0,3.8190956E0,7.0708685E0,0E0,3.332405E0,6.030693E0,4.372389E0,0E0,0E0,0E0,0E0,0E0,0E0],"parents":[2147483647,0,0,1,1,2,2,4,4,5,5,6,6],"right_children":[2,4,6,-1,8,10,12,-1,-1,-1,-1,-1,-1],"split_conditions":[8.033819E-1,7.0709556E-1,9.5787233E-1,-1.7401196E-2,NaN,NaN,NaN,8.092899E-2,1.8519433E-2,4.3067057E-3,7.430333E-2,-1.428602E-3,-4.2638004E-2],"split_indices":[9,15,19,0,3,3,3,0,0,0,0,0,0],"split_type":[0,0,0,0,1,1,1,0,0,0,0,0,0],"sum_hessian":[2.0180727E2,4.073365E1,1.6107362E2,9.372688E0,3.1360964E1,6.916E1,9.191361E1,1.4959312E1,1.6401651E1,5.6314228E1,1.2845778E1,4.7158333E1,4.4755276E1],"tree_param":{"num_deleted":"0","num_feature":"21","num_nodes":"13","size_leaf_vector":"1"}},{"base_weights":[-3.6904007E-2,6.7041446E-3,-8.033808E-2,8.5945904E-2,-3.1049564E-1,1.4843693E-2,-2.6619554E-2,-8.795456E-2,-1.2068442E-2],"categories":[],"categories_nodes":[],"categories_segments":[],"categories_sizes":[],"default_left":[0,0,0,1,0,0,0,0,0],"id":51,"left_children":[1,3,-1,5,7,-1,-1,-1,-1],"loss_changes":[7.1356883E0,4.868092E0,0E0,4.043724E0,4.2566075E0,0E0,0E0,0E0,0E0],"parents":[2147483647,0,0,1,1,3,3,4,4],"right_children":[2,4,-1,6,8,-1,-1,-1,-1],"split_conditions":[1.173378E0,1.1482586E0,-8.033808E-2,1.3758246E0,1.1816356E0,1.4843693E-2,-2.6619554E-2,-8.795456E-2,-1.2068442E-2],"split_indices":[18,19,0,12,19,0,0,0,0],"split_type":[0,0,0,0,0,0,0,0,0],"sum_hessian":[2.009411E2,1.916125E2,9.32861E0,1.5389581E2,3.7716675E1,1.2955536E2,2.4340467E1,7.717123E0,2.9999554E1],"tree_param":{"num_deleted":"0","num_feature":"21","num_nodes":"9","size_leaf_vector":"1"}},{"base_weights":[4.211807E-2,1.2739675E-1,-2.8542984E-1,1.6193777E-1,-5.658563E-2,-1.5298265E-1,-9.234348E-2,4.25048E-3,3.7792493E-2,-6.384358E-2,5.480648E-3],"categories":[0,1,2,3,4,5,6,7,8,9,10,13,14,15,16,17,18,20,21,22,23,24,25,26,39,56,71],"categories_nodes":[0],"categories_segments":[0],"categories_sizes":[27],"default_left":[1,0,0,0,0,0,0,0,0,0,0],"id":52,"left_children":[1,3,5,7,-1,9,-1,-1,-1,-1,-1],"loss_changes":[5.649593E0,4.0992765E0,3.659911E0,4.2348084E0,0E0,4.009675E0,0E0,0E0,0E0,0E0,0E0],"parents":[2147483647,0,0,1,1,2,2,3,3,5,5],"right_children":[2,4,6,8,-1,10,-1,-1,-1,-1,-1],"split_conditions":[NaN,5.2211876E0,1.2691826E0,1.2222222E0,-5.658563E-2,1.4536363E2,-9.234348E-2,4.25048E-3,3.7792493E-2,-6.384358E-2,5.480648E-3],"split_indices":[1,17,14,4,0,8,0,0,0,0,0],"split_type":[1,0,0,0,0,0,0,0,0,0,0],"sum_hessian":[1.9995438E2,1.5913411E2,4.0820274E1,1.526254E2,6.5087123E0,3.5252617E1,5.5676594E0,1.02833374E2,4.979202E1,9.537239E0,2.5715378E1],"tree_param":{"num_deleted":"0","num_feature":"21","num_nodes":"11","size_leaf_vector":"1"}},{"base_weights":[1.0426998E-2,3.8572025E-1,-5.730638E-2,6.530665E-1,-3.5058258E-3,-9.5472254E-2,-1.471104E-2,3.0172352E-2,1.1501651E-1,2.303834E-3,-6.673714E-2],"categories":[0,1,2,3,4,5,6,7,8,9,10,11,12,13,15,16,17,18,19,20,21,22,23,24,25,26,27,28,29,30,31,32,33,34,35,36,37,38,39,40,41,42,43,44,45,46,47,48,49,50,51,52,53,54,56,57,58,59,60,61,62,63,64,65,66,67,68,69,70,71,72,73,74,75,76,77,78,79,80,81,82,83,84,85,86,87,88,89,90,91,92,94,95,96,97,98,99,100,101,102,103,104,105,106,107,108,109,110,111,112,113,114,115,116,0,1,2,3,4,5,6,7,8,9,10,11,12,13,14,15,16,17,18,19,20,21,22,23,24,25,26,27,28,29,30,31,32,33,34,35,36,37,38,39,40,41,42,43,44,45,46,47,48,49,50,51,52,53,54,55,56,57,58,59,60,61,62,63,64,65,66,67,68,69,70,71,72,73,74,75,76,77,78,79,80,81,82,83,84,85,86,87,88,89,90,91,92,93,94,95,96,97,98,99,100,101,102,103,104,105,106,107,108],"categories_nodes":[0,2],"categories_segments":[0,114],"categories_sizes":[114,109],"default_left":[0,1,0,1,0,0,0,0,0,0,0],"id":53,"left_children":[1,3,5,7,-1,-1,9,-1,-1,-1,-1],"loss_changes":[5.216225E0,3.5687795E0,7.0152802E0,3.2238226E0,0E0,0E0,4.513516E0,0E0,0E0,0E0,0E0],"parents":[2147483647,0,0,1,1,2,2,3,3,6,6],"right_children":[2,4,6,8,-1,-1,10,-1,-1,-1,-1],"split_conditions":[NaN,1.4908333E2,NaN,1.4536363E2,-3.5058258E-3,-9.5472254E-2,2.375E0,3.0172352E-2,1.1501651E-1,2.303834E-3,-6.673714E-2],"split_indices":[3,8,3,8,0,0,4,0,0,0,0],"split_type":[1,0,1,0,0,0,0,0,0,0,0],"sum_hessian":[2.0333302E2,3.036938E1,1.7296364E2,1.8268747E1,1.2100634E1,6.4600897E0,1.6650354E2,1.2401518E1,5.8672295E0,1.5849365E2,8.009899E0],"tree_param":{"num_deleted":"0","num_feature":"21","num_nodes":"11","size_leaf_vector":"1"}},{"base_weights":[7.530032E-3,4.6368468E-1,-6.432751E-1,9.04254E-1,1.407758E-1,-1.3701887E-1,-7.993754E-1,1.5174622E-2,1.05127476E-1,8.173538E-2,-3.1081587E-4,3.1741384E-2,-3.8753454E-2,-8.3715096E-2,-2.9571049E-2],"categories":[0,1,2,3,4,5,6,7,8,9,10,12,13,14,15,16,17,18,19,20,21,22,23,24,25,26,27,28,29,30,31,32,33,34,35,36,37,38,39,40,41,42,43,44,45,46,47,48,49,50,51,52,53,54,55,56,57,58,59,60,61,62,63,64,65,73,83],"categories_nodes":[4],"categories_segments":[0],"categories_sizes":[67],"default_left":[1,1,0,1,0,0,0,0,0,0,0,0,0,0,0],"id":54,"left_children":[1,3,5,7,9,11,13,-1,-1,-1,-1,-1,-1,-1,-1],"loss_changes":[7.107281E1,1.989548E1,7.687271E0,8.812576E0,8.555207E0,3.2656953E0,2.7610474E0,0E0,0E0,0E0,0E0,0E0,0E0,0E0,0E0],"parents":[2147483647,0,0,1,1,2,2,3,3,4,4,5,5,6,6],"right_children":[2,4,6,8,10,12,14,-1,-1,-1,-1,-1,-1,-1,-1],"split_conditions":[1.0552917E0,8.167729E-1,1.0074865E0,8.9622796E-1,NaN,2.5E1,1.4060736E0,1.5174622E-2,1.05127476E-1,8.173538E-2,-3.1081587E-4,3.1741384E-2,-3.8753454E-2,-8.3715096E-2,-2.9571049E-2],"split_indices":[9,9,10,19,1,7,14,0,0,0,0,0,0,0,0],"split_type":[0,0,0,0,1,0,0,0,0,0,0,0,0,0,0],"sum_hessian":[2.3740424E2,1.3974402E2,9.766022E1,5.8342518E1,8.1401505E1,2.3458534E1,7.420168E1,1.2910128E1,4.5432392E1,1.2733428E1,6.8668076E1,8.483951E0,1.4974583E1,6.274645E1,1.1455233E1],"tree_param":{"num_deleted":"0","num_feature":"21","num_nodes":"15","size_leaf_vector":"1"}},{"base_weights":[3.0887516E-2,5.8750683E-3,7.595009E-2,2.5100398E-1,-6.634389E-2,6.6092536E-2,7.227061E-4,-3.5906956E-2,4.4087255E-3],"categories":[0,1,2,3,4,5,6,7,8,9,10,11,12,13,14,15,16,17,18,19,20,21,22,23,24,25,26,27,28,29,30,31,32,33,34,35,36,37,38,39,40,41,42,43,44,45,46,47,48,49,50,51,52,53,54,55,56,57,58,59,60,61,62,63,64,65,66,67,68,69,70,71,72,73,74,75,76,77,78,79,80,81,82,83,84,85,86,87],"categories_nodes":[4],"categories_segments":[0],"categories_sizes":[88],"default_left":[0,1,0,0,0,0,0,0,0],"id":55,"left_children":[1,3,-1,5,7,-1,-1,-1,-1],"loss_changes":[3.8781135E0,3.4936736E0,0E0,4.8631744E0,5.3851175E0,0E0,0E0,0E0,0E0],"parents":[2147483647,0,0,1,1,3,3,4,4],"right_children":[2,4,-1,6,8,-1,-1,-1,-1],"split_conditions":[2.7382665E0,8.167729E-1,7.595009E-2,6.058815E-1,NaN,6.6092536E-2,7.227061E-4,-3.5906956E-2,4.4087255E-3],"split_indices":[16,9,0,5,3,0,0,0,0],"split_type":[0,0,0,0,1,0,0,0,0],"sum_hessian":[2.0075378E2,1.954091E2,5.344681E0,4.390594E1,1.5150316E2,1.4855867E1,2.9050074E1,3.9602528E1,1.1190063E2],"tree_param":{"num_deleted":"0","num_feature":"21","num_nodes":"9","size_leaf_vector":"1"}},{"base_weights":[7.9483174E-2,4.526805E-1,-2.1690689E-1,6.0277903E-1,-1.1426694E-2,-3.3488122E-1,2.3988628E-1,8.058313E-2,3.550054E-2,-7.0539825E-2,2.5047906E-2,-1.1214399E-2,-5.9838172E-2,6.5558955E-2,-1.54091045E-2],"categories":[],"categories_nodes":[],"categories_segments":[],"categories_sizes":[],"default_left":[1,0,0,0,0,0,0,0,0,0,0,0,0,0,0],"id":56,"left_children":[1,3,5,7,9,11,13,-1,-1,-1,-1,-1,-1,-1,-1],"loss_changes":[2.5828789E1,7.202423E0,7.103691E0,4.0808105E0,5.481215E0,6.588662E0,5.0702066E0,0E0,0E0,0E0,0E0,0E0,0E0,0E0,0E0],"parents":[2147483647,0,0,1,1,2,2,3,3,4,4,5,5,6,6],"right_children":[2,4,6,8,10,12,14,-1,-1,-1,-1,-1,-1,-1,-1],"split_conditions":[9.77009E-1,1.0320324E0,1.118531E0,8.822552E-1,7.470176E-1,9.930266E-1,8.0354506E-1,8.058313E-2,3.550054E-2,-7.0539825E-2,2.5047906E-2,-1.1214399E-2,-5.9838172E-2,6.5558955E-2,-1.54091045E-2],"split_indices":[10,18,13,10,14,15,17,0,0,0,0,0,0,0,0],"split_type":[0,0,0,0,0,0,0,0,0,0,0,0,0,0,0],"sum_hessian":[2.3162036E2,1.0229237E2,1.2932799E2,7.7068565E1,2.522381E1,1.0299478E2,2.6333204E1,3.5795494E1,4.127307E1,6.43125E0,1.879256E1,6.0239964E1,4.2754818E1,1.2077199E1,1.4256005E1],"tree_param":{"num_deleted":"0","num_feature":"21","num_nodes":"15","size_leaf_vector":"1"}},{"base_weights":[-2.9794622E-2,4.39747E-1,-6.0781294E-1,8.132584E-1,2.3426868E-1,8.1718326E-2,-7.323022E-1,-1.5300942E-2,9.220323E-2,-5.4004315E-2,3.609327E-2,5.1051695E-2,-3.5263732E-2,-9.053014E-2,-3.8873497E-2],"categories":[],"categories_nodes":[],"categories_segments":[],"categories_sizes":[],"default_left":[0,0,1,1,0,0,1,0,0,0,0,0,0,0,0],"id":57,"left_children":[1,3,5,7,9,11,13,-1,-1,-1,-1,-1,-1,-1,-1],"loss_changes":[6.244175E1,9.555286E0,8.909962E0,7.0471783E0,9.993181E0,3.6468651E0,5.862652E0,0E0,0E0,0E0,0E0,0E0,0E0,0E0,0E0],"parents":[2147483647,0,0,1,1,2,2,3,3,4,4,5,5,6,6],"right_children":[2,4,6,8,10,12,14,-1,-1,-1,-1,-1,-1,-1,-1],"split_conditions":[1.0210652E0,7.7692807E-1,9.3140274E-1,8.145913E-1,5.263158E-1,1.0403532E0,1.0667932E0,-1.5300942E-2,9.220323E-2,-5.4004315E-2,3.609327E-2,5.1051695E-2,-3.5263732E-2,-9.053014E-2,-3.8873497E-2],"split_indices":[9,9,18,18,4,15,16,0,0,0,0,0,0,0,0],"split_type":[0,0,0,0,0,0,0,0,0,0,0,0,0,0,0],"sum_hessian":[2.2808482E2,1.259837E2,1.0210112E2,4.3660774E1,8.232293E1,1.5666998E1,8.643413E1,6.0995536E0,3.756122E1,1.2219517E1,7.010342E1,7.715221E0,7.9517775E0,5.007827E1,3.6355854E1],"tree_param":{"num_deleted":"0","num_feature":"21","num_nodes":"15","size_leaf_vector":"1"}},{"base_weights":[-6.352871E-3,9.935894E-2,-2.1688169E-1,2.5537282E-1,-2.5454712E-1,1.3433453E-1,-4.3575972E-1,5.0855275E-2,8.242358E-3,-3.9130244E-2,2.4033923E-2,4.1319642E-2,-3.2404434E-2,1.759217E-2,-5.840213E-2],"categories":[12,18,37,56,1,2,4,0,2,3,5],"categories_nodes":[1,2,3],"categories_segments":[0,4,7],"categories_sizes":[4,3,4],"default_left":[1,1,1,1,0,0,1,0,0,0,0,0,0,0,0],"id":58,"left_children":[1,3,5,7,9,11,13,-1,-1,-1,-1,-1,-1,-1,-1],"loss_changes":[4.505238E0,7.5082192E0,5.2597475E0,4.399824E0,3.4492276E0,3.9792109E0,4.79155E0,0E0,0E0,0E0,0E0,0E0,0E0,0E0,0E0],"parents":[2147483647,0,0,1,1,2,2,3,3,4,4,5,5,6,6],"right_children":[2,4,6,8,10,12,14,-1,-1,-1,-1,-1,-1,-1,-1],"split_conditions":[1.0979474E0,NaN,NaN,NaN,1.0508219E0,1.1578351E0,1.425E2,5.0855275E-2,8.242358E-3,-3.9130244E-2,2.4033923E-2,4.1319642E-2,-3.2404434E-2,1.759217E-2,-5.840213E-2],"split_indices":[9,1,2,2,10,14,8,0,0,0,0,0,0,0,0],"split_type":[0,1,1,1,0,0,0,0,0,0,0,0,0,0,0],"sum_hessian":[2.0046535E2,1.3380603E2,6.665932E1,9.3060295E1,4.074574E1,2.5741013E1,4.091831E1,3.410717E1,5.8953125E1,3.1229975E1,9.515763E0,1.5817241E1,9.923773E0,9.172442E0,3.1745863E1],"tree_param":{"num_deleted":"0","num_feature":"21","num_nodes":"15","size_leaf_vector":"1"}},{"base_weights":[-3.7451833E-2,6.65502E-1,-2.8687733E-1,1.3783689E-1,9.0825033E-1,2.3753193E-1,-4.756716E-1,-2.2214321E-2,7.833983E-2,1.2377994E-1,5.490859E-2,-8.175353E-2,3.8710333E-2,-5.093115E-2,2.7095009E-2],"categories":[],"categories_nodes":[],"categories_segments":[],"categories_sizes":[],"default_left":[1,1,0,0,1,0,1,0,0,0,0,0,0,0,0],"id":59,"left_children":[1,3,5,7,9,11,13,-1,-1,-1,-1,-1,-1,-1,-1],"loss_changes":[4.0315445E1,7.5903263E0,1.6905327E1,5.3488064E0,4.6086044E0,8.883084E0,5.960371E0,0E0,0E0,0E0,0E0,0E0,0E0,0E0,0E0],"parents":[2147483647,0,0,1,1,2,2,3,3,4,4,5,5,6,6],"right_children":[2,4,6,8,10,12,14,-1,-1,-1,-1,-1,-1,-1,-1],"split_conditions":[8.445568E-1,7.700597E-1,9.171397E-1,1.672E2,7.556995E-1,2.0933749E-1,1.848E2,-2.2214321E-2,7.833983E-2,1.2377994E-1,5.490859E-2,-8.175353E-2,3.8710333E-2,-5.093115E-2,2.7095009E-2],"split_indices":[11,16,9,6,9,17,6,0,0,0,0,0,0,0,0],"split_type":[0,0,0,0,0,0,0,0,0,0,0,0,0,0,0],"sum_hessian":[2.2784544E2,5.9235207E1,1.6861024E2,1.9158325E1,4.007688E1,4.4564987E1,1.2404525E2,1.2861728E1,6.296599E0,1.6861645E1,2.3215237E1,5.4370375E0,3.9127953E1,1.1511355E2,8.931704E0],"tree_param":{"num_deleted":"0","num_feature":"21","num_nodes":"15","size_leaf_vector":"1"}},{"base_weights":[2.3691444E-2,6.825633E-2,-2.1949919E-2,-6.014948E-2,5.9507787E-2,5.1079206E-3,-3.1016536E-2],"categories":[0,1,2,3,4,5,6,7,8,9,10,11,12,13,15,16,17,18,19,20,21,22,23,24,25,26,27,28,29,30,31,32,33,34,35,36,37,38,39,40,41,42,43,44,45,46,47,48,49,50,51,52,53,54,56,57,58,59,60,61,62,63,64,65,66,67,68,69,70,71,72,73,74,75,76,77,78,79,80,81,82,83,84,85,86,87,88,89,90,91,92,93,94,95,96,97,98,99,100,101,102,103,104,105,106,107,108,109,110,111,112,113,114,115,116,117,118,119,120,121,122,123,124,125],"categories_nodes":[0],"categories_segments":[0],"categories_sizes":[124],"default_left":[0,0,1,1,0,0,0],"id":60,"left_children":[1,-1,3,5,-1,-1,-1],"loss_changes":[6.4965806E0,0E0,4.8112493E0,5.572409E0,0E0,0E0,0E0],"parents":[2147483647,0,0,2,2,3,3],"right_children":[2,-1,4,6,-1,-1,-1],"split_conditions":[NaN,6.825633E-2,2.0777297E0,1.6075E2,5.9507787E-2,5.1079206E-3,-3.1016536E-2],"split_indices":[3,0,12,8,0,0,0],"split_type":[1,0,0,0,0,0,0],"sum_hessian":[2.0314517E2,1.1600486E1,1.915447E2,1.8175424E2,9.790444E0,1.2789398E2,5.3860264E1],"tree_param":{"num_deleted":"0","num_feature":"21","num_nodes":"7","size_leaf_vector":"1"}},{"base_weights":[4.0993486E-2,4.989346E-1,-2.9805443E-1,1.0018518E0,2.800127E-1,-3.979307E-1,4.0782407E-1,4.7518317E-2,1.3155675E-1,3.5802994E-2,-5.2077748E-2,-1.2389008E-2,-5.87304E-2,7.6385766E-2,-1.31523525E-2],"categories":[0,1,2,3,4,5,6,7,8,9,10,11,12,13,14,15,16,17,18,19,20,21,22,23,24,25,26,27,28,29,30,31,32,33,34,35,36,37,38,39,40,41,42,43,44,45,46,47,48,49,50,51,52,53,54],"categories_nodes":[5],"categories_segments":[0],"categories_sizes":[55],"default_left":[1,1,0,0,1,1,1,0,0,0,0,0,0,0,0],"id":61,"left_children":[1,3,5,7,9,11,13,-1,-1,-1,-1,-1,-1,-1,-1],"loss_changes":[3.5628407E1,1.0463596E1,9.463177E0,4.9326115E0,5.799214E0,6.7765503E0,3.7668197E0,0E0,0E0,0E0,0E0,0E0,0E0,0E0,0E0],"parents":[2147483647,0,0,1,1,2,2,3,3,4,4,5,5,6,6],"right_children":[2,4,6,8,10,12,14,-1,-1,-1,-1,-1,-1,-1,-1],"split_conditions":[9.509141E-1,7.2685266E-1,1.8109091E2,7.606163E-1,1.0803057E0,NaN,1.608E2,4.7518317E-2,1.3155675E-1,3.5802994E-2,-5.2077748E-2,-1.2389008E-2,-5.87304E-2,7.6385766E-2,-1.31523525E-2],"split_indices":[11,11,6,10,18,3,8,0,0,0,0,0,0,0,0],"split_type":[0,0,0,0,0,1,0,0,0,0,0,0,0,0,0],"sum_hessian":[2.2751208E2,9.658553E1,1.3092654E2,2.8208166E1,6.8377365E1,1.150799E2,1.5846645E1,1.3244677E1,1.496349E1,6.1683514E1,6.693855E0,5.2786728E1,6.2293175E1,8.90341E0,6.943235E0],"tree_param":{"num_deleted":"0","num_feature":"21","num_nodes":"15","size_leaf_vector":"1"}},{"base_weights":[7.472309E-3,3.701042E-1,-3.6591798E-1,-1.6056282E-2,7.01273E-1,-4.9116746E-1,5.4816365E-1,5.2190326E-2,-2.978012E-2,1.3134243E-1,4.262491E-2,-5.505393E-2,2.2224745E-2,9.751134E-2,1.5498977E-2],"categories":[],"categories_nodes":[],"categories_segments":[],"categories_sizes":[],"default_left":[0,0,0,0,1,1,1,0,0,0,0,0,0,0,0],"id":62,"left_children":[1,3,5,7,9,11,13,-1,-1,-1,-1,-1,-1,-1,-1],"loss_changes":[3.1721432E1,1.5208883E1,1.3485167E1,9.583495E0,1.0394119E1,6.720886E0,2.485622E0,0E0,0E0,0E0,0E0,0E0,0E0,0E0,0E0],"parents":[2147483647,0,0,1,1,2,2,3,3,4,4,5,5,6,6],"right_children":[2,4,6,8,10,12,14,-1,-1,-1,-1,-1,-1,-1,-1],"split_conditions":[9.937436E-1,9.70026E-1,1.8109091E2,7.570789E-1,9.202008E-1,1.1789329E0,8.5265493E-1,5.2190326E-2,-2.978012E-2,1.3134243E-1,4.262491E-2,-5.505393E-2,2.2224745E-2,9.751134E-2,1.5498977E-2],"split_indices":[11,13,6,11,16,13,16,0,0,0,0,0,0,0,0],"split_type":[0,0,0,0,0,0,0,0,0,0,0,0,0,0,0],"sum_hessian":[2.3227365E2,1.1783886E2,1.144348E2,5.4841854E1,6.2997005E1,1.010512E2,1.3383593E1,1.8612783E1,3.622907E1,1.5778658E1,4.7218346E1,9.019043E1,1.086077E1,5.216319E0,8.1672735E0],"tree_param":{"num_deleted":"0","num_feature":"21","num_nodes":"15","size_leaf_vector":"1"}},{"base_weights":[-9.41351E-3,2.521267E-1,-1.3094942E-1,3.9449602E-1,-3.9659005E-2,-3.3212706E-1,8.491658E-2,-2.6009807E-3,5.640426E-2,-5.378364E-3,-8.5393555E-2,4.700324E-2,-2.2179637E-2],"categories":[0,3],"categories_nodes":[5],"categories_segments":[0],"categories_sizes":[2],"default_left":[0,0,0,0,0,1,1,0,0,0,0,0,0],"id":63,"left_children":[1,3,5,7,-1,9,11,-1,-1,-1,-1,-1,-1],"loss_changes":[6.2223835E0,6.0904264E0,5.830038E0,4.379631E0,0E0,1.0794443E1,8.646859E0,0E0,0E0,0E0,0E0,0E0,0E0],"parents":[2147483647,0,0,1,1,2,2,3,3,5,5,6,6],"right_children":[2,4,6,8,-1,10,12,-1,-1,-1,-1,-1,-1],"split_conditions":[9.212887E-1,1.1597334E0,1.6390909E2,9.162051E-1,-3.9659005E-2,NaN,1.7126666E2,-2.6009807E-3,5.640426E-2,-5.378364E-3,-8.5393555E-2,4.700324E-2,-2.2179637E-2],"split_indices":[19,10,6,10,0,2,6,0,0,0,0,0,0],"split_type":[0,0,0,0,0,1,0,0,0,0,0,0,0],"sum_hessian":[1.937167E2,6.111826E1,1.3259845E2,5.074672E1,1.0371542E1,6.835552E1,6.424293E1,1.6589336E1,3.4157383E1,4.6764694E1,2.1590826E1,2.7836756E1,3.640617E1],"tree_param":{"num_deleted":"0","num_feature":"21","num_nodes":"13","size_leaf_vector":"1"}},{"base_weights":[2.195961E-2,2.7525637E-1,-1.3217832E-1,-3.0046234E-1,4.0142092E-1,-6.103036E-1,3.113535E-3,-7.806455E-2,4.5774445E-2,5.290403E-2,-1.7899705E-2,1.3087905E-2,-8.3167605E-2,7.505484E-3,-5.5857226E-2],"categories":[],"categories_nodes":[],"categories_segments":[],"categories_sizes":[],"default_left":[0,1,0,0,0,0,0,0,0,0,0,0,0,0,0],"id":64,"left_children":[1,3,5,7,9,11,13,-1,-1,-1,-1,-1,-1,-1,-1],"loss_changes":[7.823282E0,5.624733E0,8.066266E0,6.1979103E0,5.867649E0,5.595704E0,4.45962E0,0E0,0E0,0E0,0E0,0E0,0E0,0E0,0E0],"parents":[2147483647,0,0,1,1,2,2,3,3,4,4,5,5,6,6],"right_children":[2,4,6,8,10,12,14,-1,-1,-1,-1,-1,-1,-1,-1],"split_conditions":[2.5E1,6.003131E-1,9.583965E-1,1.5946666E2,1.7293333E2,9.0724933E-1,1.5772227E0,-7.806455E-2,4.5774445E-2,5.290403E-2,-1.7899705E-2,1.3087905E-2,-8.3167605E-2,7.505484E-3,-5.5857226E-2],"split_indices":[7,16,18,6,6,18,16,0,0,0,0,0,0,0,0],"split_type":[0,0,0,0,0,0,0,0,0,0,0,0,0,0,0],"sum_hessian":[1.9844603E2,7.477749E1,1.2366855E2,1.3193035E1,6.158445E1,2.6501274E1,9.7167274E1,7.883722E0,5.309314E0,4.8747204E1,1.2837248E1,7.0781784E0,1.9423096E1,8.687842E1,1.0288856E1],"tree_param":{"num_deleted":"0","num_feature":"21","num_nodes":"15","size_leaf_vector":"1"}},{"base_weights":[2.3559889E-2,3.197586E-1,-6.074967E-2,-1.879452E-2,4.6639138E-1,4.3167865E-1,-1.1038101E-1,7.6707475E-2,2.0511704E-2,7.20116E-2,-1.10796895E-2,-1.8180164E-2,3.1487938E-2],"categories":[0,1,2,3,4,5,6,7,8,9,10,11,12,13,14,15,16,17,18,19,20,21,22,23,24,25,26,27,28,29,30,31,32,33,34,35,36,37,38,39,40,41,42,43,44,45,46,47,48,49,50,51,52,53,54,55,56,57,58,59,60,61,62,63,64,65,66,67,68,69,70,71,72,73,74,75,76,77,78,79,80,81,82,83,84,85,86,87,88,89,90,91,92,94,95,96,97,98,99,100,101,102,103,104,105,106,107,108,109,110,111,112,113,114,115],"categories_nodes":[2],"categories_segments":[0],"categories_sizes":[115],"default_left":[0,0,0,0,0,1,0,0,0,0,0,0,0],"id":65,"left_children":[1,3,5,-1,7,9,11,-1,-1,-1,-1,-1,-1],"loss_changes":[5.1025476E0,3.528854E0,3.9406633E0,0E0,2.8687572E0,2.7417824E0,5.28722E0,0E0,0E0,0E0,0E0,0E0,0E0],"parents":[2147483647,0,0,1,1,2,2,4,4,5,5,6,6],"right_children":[2,4,6,-1,8,10,12,-1,-1,-1,-1,-1,-1],"split_conditions":[8.167729E-1,6.6716087E-1,NaN,-1.879452E-2,3.333E1,1.003263E0,1.7142857E0,7.6707475E-2,2.0511704E-2,7.20116E-2,-1.10796895E-2,-1.8180164E-2,3.1487938E-2],"split_indices":[9,15,3,0,7,18,4,0,0,0,0,0,0],"split_type":[0,0,1,0,0,0,0,0,0,0,0,0,0],"sum_hessian":[2.0254979E2,4.4260365E1,1.5828943E2,9.690324E0,3.457004E1,1.3788277E1,1.4450116E2,1.3667213E1,2.0902828E1,8.396295E0,5.391982E0,1.22563545E2,2.1937609E1],"tree_param":{"num_deleted":"0","num_feature":"21","num_nodes":"13","size_leaf_vector":"1"}},{"base_weights":[-1.4615713E-2,4.6836928E-2,-4.0098658E-1,-1.2610272E-1,1.5733263E-1,5.3280266E-3,-7.035539E-2,2.288948E-2,-2.8947877E-2,2.5663763E-2,-4.5716416E-2],"categories":[39,56,73],"categories_nodes":[0],"categories_segments":[0],"categories_sizes":[3],"default_left":[1,1,0,0,1,0,0,0,0,0,0],"id":66,"left_children":[1,3,5,7,9,-1,-1,-1,-1,-1,-1],"loss_changes":[4.89623E0,3.4237173E0,4.4440274E0,4.6739397E0,8.017871E0,0E0,0E0,0E0,0E0,0E0,0E0],"parents":[2147483647,0,0,1,1,2,2,3,3,4,4],"right_children":[2,4,6,8,10,-1,-1,-1,-1,-1,-1],"split_conditions":[NaN,8.8098377E-1,9.787268E-1,9.212887E-1,1.3165975E0,5.3280266E-3,-7.035539E-2,2.288948E-2,-2.8947877E-2,2.5663763E-2,-4.5716416E-2],"split_indices":[1,14,12,19,9,0,0,0,0,0,0],"split_type":[1,0,0,0,0,0,0,0,0,0,0],"sum_hessian":[2.0442244E2,1.7712874E2,2.729371E1,6.89976E1,1.0813114E2,1.2005389E1,1.5288321E1,2.2488043E1,4.650955E1,9.236238E1,1.5768763E1],"tree_param":{"num_deleted":"0","num_feature":"21","num_nodes":"11","size_leaf_vector":"1"}},{"base_weights":[4.5789465E-2,4.6298197E-1,-4.2339954E-1,7.855382E-1,2.2867368E-1,1.7121586E-1,-5.438761E-1,8.6643904E-2,-1.7425038E-2,7.700037E-4,7.698887E-2,6.140765E-2,-2.8364306E-2,2.8001282E-2,-5.938596E-2],"categories":[],"categories_nodes":[],"categories_segments":[],"categories_sizes":[],"default_left":[1,0,0,0,0,0,1,0,0,0,0,0,0,0,0],"id":67,"left_children":[1,3,5,7,9,11,13,-1,-1,-1,-1,-1,-1,-1,-1],"loss_changes":[4.4821426E1,8.9769535E0,7.817459E0,6.4142723E0,9.192166E0,4.4273796E0,6.361355E0,0E0,0E0,0E0,0E0,0E0,0E0,0E0,0E0],"parents":[2147483647,0,0,1,1,2,2,3,3,4,4,5,5,6,6],"right_children":[2,4,6,8,10,12,14,-1,-1,-1,-1,-1,-1,-1,-1],"split_conditions":[1.0143495E0,8.033819E-1,9.7236156E-1,2.4634147E0,1.6557378E0,9.474497E-1,9.02574E-1,8.6643904E-2,-1.7425038E-2,7.700037E-4,7.698887E-2,6.140765E-2,-2.8364306E-2,2.8001282E-2,-5.938596E-2],"split_indices":[9,9,10,5,5,19,18,0,0,0,0,0,0,0,0],"split_type":[0,0,0,0,0,0,0,0,0,0,0,0,0,0,0],"sum_hessian":[2.2698055E2,1.2015479E2,1.0682575E2,4.9566875E1,7.058792E1,1.792673E1,8.8899025E1,4.385673E1,5.7101445E0,5.1938637E1,1.864928E1,8.721706E0,9.205023E0,7.6750875E0,8.122394E1],"tree_param":{"num_deleted":"0","num_feature":"21","num_nodes":"15","size_leaf_vector":"1"}},{"base_weights":[-2.7193474E-2,-5.391014E-2,6.854728E-2,-9.6244134E-2,4.1433934E-2,4.1314047E-2,-1.3097664E-2],"categories":[0,1,2,3,4,5,6,7,8,9,10,11,12,13,14,15,16,17,18,19,20,21,22,23,24,25,26,27,28,29,30,31,32,33,34,35,36,37,38,39,40,41,42,43,44,45,46,47,48,49,50,51,52,53,54,56,57,58,59,60,61,62,63,64,65,66,67,68,69,70,71,72,73,74,75,76,77,78,79,80,81,82,83,84,85,86,87,88,89,90,91,92,94,95,96,97,98,99,100,101,102,103,104,105,106,107,108,109,110,111,112,113,114,115,116,117,118,119,120,121,122],"categories_nodes":[3],"categories_segments":[0],"categories_sizes":[121],"default_left":[1,1,0,0,0,0,0],"id":68,"left_children":[1,3,-1,5,-1,-1,-1],"loss_changes":[4.1474905E0,4.1753407E0,0E0,4.1469893E0,0E0,0E0,0E0],"parents":[2147483647,0,0,1,1,3,3],"right_children":[2,4,-1,6,-1,-1,-1],"split_conditions":[1.37356E0,1.8624511E0,6.854728E-2,NaN,4.1433934E-2,4.1314047E-2,-1.3097664E-2],"split_indices":[19,16,0,3,0,0,0],"split_type":[0,0,0,1,0,0,0],"sum_hessian":[2.0417874E2,1.9804726E2,6.131479E0,1.830527E2,1.4994565E1,1.2649639E1,1.7040306E2],"tree_param":{"num_deleted":"0","num_feature":"21","num_nodes":"7","size_leaf_vector":"1"}},{"base_weights":[-2.0098811E-2,5.078309E-1,-2.961114E-1,6.1546415E-1,-3.4032896E-2,8.9345515E-2,-3.964667E-1,1.1395808E-1,3.754935E-2,-1.818743E-2,-6.9912605E-2],"categories":[],"categories_nodes":[],"categories_segments":[],"categories_sizes":[],"default_left":[0,0,0,0,0,0,1,0,0,0,0],"id":69,"left_children":[1,3,5,7,-1,-1,9,-1,-1,-1,-1],"loss_changes":[3.3230877E1,7.5238323E0,1.8967089E1,8.5341015E0,0E0,0E0,9.558029E0,0E0,0E0,0E0,0E0],"parents":[2147483647,0,0,1,1,2,2,3,3,6,6],"right_children":[2,4,6,8,-1,-1,10,-1,-1,-1,-1],"split_conditions":[8.9353615E-1,1.0861909E0,7.7098566E-1,6.497015E-1,-3.4032896E-2,8.9345515E-2,1.1994745E0,1.1395808E-1,3.754935E-2,-1.818743E-2,-6.9912605E-2],"split_indices":[9,18,11,9,0,0,9,0,0,0,0],"split_type":[0,0,0,0,0,0,0,0,0,0,0],"sum_hessian":[2.2602156E2,7.731024E1,1.4871132E2,6.902535E1,8.284886E0,1.0525801E1,1.3818552E2,1.7624222E1,5.1401134E1,8.723408E1,5.0951447E1],"tree_param":{"num_deleted":"0","num_feature":"21","num_nodes":"11","size_leaf_vector":"1"}},{"base_weights":[-8.081971E-2,2.3038821E-1,-1.2074174E-1,-1.8165223E-1,6.2968634E-2,-3.6243355E-1,-4.4778727E-2,-6.2208798E-2,2.81097E-2,-1.00745164E-1,-1.1402383E-2,5.059001E-2,-1.1921039E-2],"categories":[],"categories_nodes":[],"categories_segments":[],"categories_sizes":[],"default_left":[1,0,0,1,0,0,0,0,0,0,0,0,0],"id":70,"left_children":[1,3,5,7,-1,9,11,-1,-1,-1,-1,-1,-1],"loss_changes":[2.5190349E0,4.250634E0,3.2586539E0,3.0574446E0,0E0,7.0741973E0,6.460153E0,0E0,0E0,0E0,0E0,0E0,0E0],"parents":[2147483647,0,0,1,1,2,2,3,3,5,5,6,6],"right_children":[2,4,6,8,-1,10,12,-1,-1,-1,-1,-1,-1],"split_conditions":[7.374379E-1,8.638376E-1,8.860614E-1,8.826839E-1,6.2968634E-2,8.844337E-1,8.4643626E-1,-6.2208798E-2,2.81097E-2,-1.00745164E-1,-1.1402383E-2,5.059001E-2,-1.1921039E-2],"split_indices":[11,16,11,19,0,13,13,0,0,0,0,0,0],"split_type":[0,0,0,0,0,0,0,0,0,0,0,0,0],"sum_hessian":[1.9951572E2,2.2141678E1,1.7737404E2,1.1644745E1,1.0496934E1,4.1514862E1,1.3585918E2,5.660096E0,5.9846487E0,9.813667E0,3.1701193E1,1.598646E1,1.1987272E2],"tree_param":{"num_deleted":"0","num_feature":"21","num_nodes":"13","size_leaf_vector":"1"}},{"base_weights":[-9.645234E-3,1.7365673E-1,-1.2732704E-1,-1.165414E-2,4.091495E-1,-3.8044017E-2,-8.0120355E-1,1.5359635E-2,-6.972292E-2,5.9830938E-2,-1.0458966E-2,-1.0044464E-2,6.5810665E-2,-1.0462415E-1,-2.0924745E-2],"categories":[0,1,2,3,4,5,6,7,8,9,10,11,12,13,14,15,16,17,18,20,21,22,23,24,25,26,27,28,29,30,31,32,33,34,35,36,38,39,40,41,42,43,44,45,56,61,71,73,83],"categories_nodes":[0],"categories_segments":[0],"categories_sizes":[49],"default_left":[1,1,1,0,0,0,0,0,0,0,0,0,0,0,0],"id":71,"left_children":[1,3,5,7,9,11,13,-1,-1,-1,-1,-1,-1,-1,-1],"loss_changes":[4.382097E0,3.4719117E0,7.4101996E0,5.8187585E0,4.0941954E0,5.54141E0,2.279379E0,0E0,0E0,0E0,0E0,0E0,0E0,0E0,0E0],"parents":[2147483647,0,0,1,1,2,2,3,3,4,4,5,5,6,6],"right_children":[2,4,6,8,10,12,14,-1,-1,-1,-1,-1,-1,-1,-1],"split_conditions":[NaN,1.0594634E0,1.1793123E0,9.895715E-1,1.3889188E0,1.8666667E0,1.0477948E0,1.5359635E-2,-6.972292E-2,5.9830938E-2,-1.0458966E-2,-1.0044464E-2,6.5810665E-2,-1.0462415E-1,-2.0924745E-2],"split_indices":[1,11,10,11,11,4,18,0,0,0,0,0,0,0,0],"split_type":[1,0,0,0,0,0,0,0,0,0,0,0,0,0,0],"sum_hessian":[2.0111964E2,7.8449905E1,1.2266974E2,4.443456E1,3.401535E1,1.09251305E2,1.3418433E1,3.6461304E1,7.9732566E0,2.3701546E1,1.0313804E1,1.00767296E2,8.484012E0,8.243404E0,5.1750293E0],"tree_param":{"num_deleted":"0","num_feature":"21","num_nodes":"15","size_leaf_vector":"1"}},{"base_weights":[-2.5254278E-3,1.7612086E-1,-2.0356974E-1,-3.9317027E-1,3.0255616E-1,-9.2331424E-2,-6.089768E-1,1.2988551E-2,-1.048204E-1,6.8415046E-2,9.4177155E-3,7.215436E-2,-1.6850725E-2,-9.5582195E-2,-1.6067848E-2],"categories":[0,2,3,5],"categories_nodes":[4],"categories_segments":[0],"categories_sizes":[4],"default_left":[1,1,1,0,1,1,0,0,0,0,0,0,0,0,0],"id":72,"left_children":[1,3,5,7,9,11,13,-1,-1,-1,-1,-1,-1,-1,-1],"loss_changes":[7.1078997E0,7.6620855E0,4.142698E0,7.4960055E0,7.2706246E0,5.53028E0,3.308032E0,0E0,0E0,0E0,0E0,0E0,0E0,0E0,0E0],"parents":[2147483647,0,0,1,1,2,2,3,3,4,4,5,5,6,6],"right_children":[2,4,6,8,10,12,14,-1,-1,-1,-1,-1,-1,-1,-1],"split_conditions":[1.0210652E0,2.1861073E-1,1.2298958E0,4.8563387E-2,NaN,9.0094924E-1,1.0755193E0,1.2988551E-2,-1.048204E-1,6.8415046E-2,9.4177155E-3,7.215436E-2,-1.6850725E-2,-9.5582195E-2,-1.6067848E-2],"split_indices":[9,17,15,17,2,18,10,0,0,0,0,0,0,0,0],"split_type":[0,0,0,0,1,0,0,0,0,0,0,0,0,0,0],"sum_hessian":[1.9590617E2,1.03797E2,9.210917E1,1.8479778E1,8.531722E1,7.3240654E1,1.8868517E1,1.1052326E1,7.427452E0,2.7070105E1,5.8247116E1,5.9360557E0,6.7304596E1,9.223653E0,9.644864E0],"tree_param":{"num_deleted":"0","num_feature":"21","num_nodes":"15","size_leaf_vector":"1"}},{"base_weights":[-3.1402756E-2,6.798282E-2,-8.5354306E-2,-2.4545518E-1,1.00550726E-1,-5.252801E-2,-1.8628754E-3,2.68577E-2,-2.6598696E-2],"categories":[],"categories_nodes":[],"categories_segments":[],"categories_sizes":[],"default_left":[1,0,0,0,1,0,0,0,0],"id":73,"left_children":[1,-1,3,5,7,-1,-1,-1,-1],"loss_changes":[8.166297E0,0E0,5.628536E0,7.046698E0,6.182206E0,0E0,0E0,0E0,0E0],"parents":[2147483647,0,0,2,2,3,3,4,4],"right_children":[2,-1,4,6,8,-1,-1,-1,-1],"split_conditions":[1.364E2,6.798282E-2,1.6513333E2,9.5626956E-1,1.0468811E0,-5.252801E-2,-1.8628754E-3,2.68577E-2,-2.6598696E-2],"split_indices":[6,0,6,13,18,0,0,0,0],"split_type":[0,0,0,0,0,0,0,0,0],"sum_hessian":[1.9990549E2,1.2626399E1,1.872791E2,1.0045081E2,8.682828E1,4.1875862E1,5.857495E1,5.887678E1,2.7951498E1],"tree_param":{"num_deleted":"0","num_feature":"21","num_nodes":"9","size_leaf_vector":"1"}},{"base_weights":[-1.7188033E-2,8.0948256E-2,-2.1783446E-1,-3.776652E-1,2.1758863E-1,3.4608442E-1,-4.1991717E-1,1.1723274E-2,-5.4381914E-2,3.115629E-2,-2.5192214E-2,1.0892954E-1,-1.0802273E-2,-6.817197E-2,-1.2434373E-2],"categories":[0,5],"categories_nodes":[4],"categories_segments":[0],"categories_sizes":[2],"default_left":[1,1,0,1,1,0,0,0,0,0,0,0,0,0,0],"id":74,"left_children":[1,3,5,7,9,11,13,-1,-1,-1,-1,-1,-1,-1,-1],"loss_changes":[3.839154E0,8.295134E0,7.440523E0,3.0526247E0,5.5215077E0,6.5601697E0,4.008024E0,0E0,0E0,0E0,0E0,0E0,0E0,0E0,0E0],"parents":[2147483647,0,0,1,1,2,2,3,3,4,4,5,5,6,6],"right_children":[2,4,6,8,10,12,14,-1,-1,-1,-1,-1,-1,-1,-1],"split_conditions":[1.1042683E0,3.594561E-1,5.204663E-1,5.7569885E-1,NaN,1.475E2,1.0369245E0,1.1723274E-2,-5.4381914E-2,3.115629E-2,-2.5192214E-2,1.0892954E-1,-1.0802273E-2,-6.817197E-2,-1.2434373E-2],"split_indices":[9,17,17,9,2,8,16,0,0,0,0,0,0,0,0],"split_type":[0,0,0,0,1,0,0,0,0,0,0,0,0,0,0],"sum_hessian":[1.930775E2,1.300611E2,6.30164E1,2.9450584E1,1.0061051E2,1.643668E1,4.657972E1,8.363579E0,2.1087006E1,8.2110596E1,1.8499916E1,5.4463906E0,1.0990289E1,2.2180044E1,2.4399675E1],"tree_param":{"num_deleted":"0","num_feature":"21","num_nodes":"15","size_leaf_vector":"1"}},{"base_weights":[-6.114684E-3,4.524925E-1,-5.7986796E-1,8.462948E-1,2.0623308E-1,-5.7186704E-2,-8.016979E-1,5.4709423E-2,1.1510835E-1,-7.956752E-2,3.2504015E-2,7.138383E-2,-3.1246882E-2,-2.6841575E-2,-8.920629E-2],"categories":[],"categories_nodes":[],"categories_segments":[],"categories_sizes":[],"default_left":[1,1,1,1,0,0,0,0,0,0,0,0,0,0,0],"id":75,"left_children":[1,3,5,7,9,11,13,-1,-1,-1,-1,-1,-1,-1,-1],"loss_changes":[6.0263844E1,1.2170187E1,1.1750225E1,4.113632E0,1.1625053E1,7.1601357E0,4.8540688E0,0E0,0E0,0E0,0E0,0E0,0E0,0E0,0E0],"parents":[2147483647,0,0,1,1,2,2,3,3,4,4,5,5,6,6],"right_children":[2,4,6,8,10,12,14,-1,-1,-1,-1,-1,-1,-1,-1],"split_conditions":[1.026346E0,7.9483086E-1,1.5872728E2,1.0162668E0,2.1861073E-1,7.8079313E-1,9.6723706E-1,5.4709423E-2,1.1510835E-1,-7.956752E-2,3.2504015E-2,7.138383E-2,-3.1246882E-2,-2.6841575E-2,-8.920629E-2],"split_indices":[9,9,6,14,17,15,11,0,0,0,0,0,0,0,0],"split_type":[0,0,0,0,0,0,0,0,0,0,0,0,0,0,0],"sum_hessian":[2.2703198E2,1.2629465E2,1.0073733E2,4.765355E1,7.8641106E1,3.038983E1,7.0347496E1,2.893443E1,1.871912E1,8.480215E0,7.016089E1,7.2015224E0,2.3188309E1,1.5446059E1,5.490144E1],"tree_param":{"num_deleted":"0","num_feature":"21","num_nodes":"15","size_leaf_vector":"1"}},{"base_weights":[-3.2829435E-3,2.4469402E-2,-8.039811E-2,1.04398824E-1,-2.4064611E-1,1.5661065E-2,-4.9858917E-2,-4.979228E-2,2.5046393E-2],"categories":[0,1,2,3,4,5,6,7,8,9,10,11,12,13,14,32],"categories_nodes":[1],"categories_segments":[0],"categories_sizes":[16],"default_left":[1,1,0,0,0,0,0,0,0],"id":76,"left_children":[1,3,-1,5,7,-1,-1,-1,-1],"loss_changes":[4.5827312E0,4.0419617E0,0E0,5.674518E0,6.474983E0,0E0,0E0,0E0,0E0],"parents":[2147483647,0,0,1,1,3,3,4,4],"right_children":[2,4,-1,6,8,-1,-1,-1,-1],"split_conditions":[1.8753334E2,NaN,-8.039811E-2,2.142857E0,1.656E2,1.5661065E-2,-4.9858917E-2,-4.979228E-2,2.5046393E-2],"split_indices":[6,3,0,4,6,0,0,0,0],"split_type":[0,1,0,0,0,0,0,0,0],"sum_hessian":[1.9378804E2,1.8855818E2,5.229851E0,1.4534459E2,4.321359E1,1.3325436E2,1.2090233E1,2.7623663E1,1.5589926E1],"tree_param":{"num_deleted":"0","num_feature":"21","num_nodes":"9","size_leaf_vector":"1"}},{"base_weights":[5.553093E-3,-2.7906546E-2,7.619085E-2,8.575245E-2,-2.3417786E-1,2.0848367E-2,-2.87551E-2,5.416369E-2,-3.352036E-2],"categories":[],"categories_nodes":[],"categories_segments":[],"categories_sizes":[],"default_left":[0,0,0,0,0,0,0,0,0],"id":77,"left_children":[1,3,-1,5,7,-1,-1,-1,-1],"loss_changes":[5.2737007E0,4.471803E0,0E0,6.479114E0,6.6909666E0,0E0,0E0,0E0,0E0],"parents":[2147483647,0,0,1,1,3,3,4,4],"right_children":[2,4,-1,6,8,-1,-1,-1,-1],"split_conditions":[1.4563836E0,1.0608587E0,7.619085E-2,1.256529E0,8.23398E-1,2.0848367E-2,-2.87551E-2,5.416369E-2,-3.352036E-2],"split_indices":[13,19,0,12,13,0,0,0,0],"split_type":[0,0,0,0,0,0,0,0,0],"sum_hessian":[1.9584435E2,1.8888268E2,6.9616766E0,1.22156586E2,6.672608E1,9.1178474E1,3.0978113E1,8.107857E0,5.861823E1],"tree_param":{"num_deleted":"0","num_feature":"21","num_nodes":"9","size_leaf_vector":"1"}},{"base_weights":[5.8410805E-2,4.8567617E-1,-6.0679406E-2,6.404884E-1,-4.9260806E-2,8.1599355E-2,-2.5871164E-1,8.117748E-2,-4.0730584E-2,-3.415119E-3,4.5380406E-2,2.4750423E-2,-3.663966E-2],"categories":[],"categories_nodes":[],"categories_segments":[],"categories_sizes":[],"default_left":[1,0,0,1,0,0,1,0,0,0,0,0,0],"id":78,"left_children":[1,3,5,7,-1,9,11,-1,-1,-1,-1,-1,-1],"loss_changes":[1.1516827E1,8.004181E0,5.0206017E0,1.0294439E1,0E0,4.867805E0,5.0256314E0,0E0,0E0,0E0,0E0,0E0,0E0],"parents":[2147483647,0,0,1,1,