{"learner":{"attributes":{},"feature_names":["toss winner","toss decision","lighting","series_name","season","ground_id","team_count_50runs_last15","team_winp_last5","team1only_avg_runs_last15","team1_winp_team2_last15","ground_avg_runs_last15","ratio_batting_average","ratio_average_strike_rate","ratio_average_fours_per_ball","ratio_average_sixes_per_ball","ratio_average_economy","ratio_bowling_average","ratio_bowling_strike_rate","ratio_average_wides_per_ball","ratio_average_noballs_per_ball","ratio_team_strike_rate","ratio_team_wicket_rate"],"feature_types":["c","c","c","c","c","c","float","float","float","float","float","float","float","float","float","float","float","float","float","float","float","float"],"gradient_booster":{"gbtree":{"model":{"gbtree_model_param":{"num_parallel_tree":"1","num_trees":"500"},"iteration_indptr":[0,1,2,3,4,5,6,7,8,9,10,11,12,13,14,15,16,17,18,19,20,21,22,23,24,25,26,27,28,29,30,31,32,33,34,35,36,37,38,39,40,41,42,43,44,45,46,47,48,49,50,51,52,53,54,55,56,57,58,59,60,61,62,63,64,65,66,67,68,69,70,71,72,73,74,75,76,77,78,79,80,81,82,83,84,85,86,87,88,89,90,91,92,93,94,95,96,97,98,99,100,101,102,103,104,105,106,107,108,109,110,111,112,113,114,115,116,117,118,119,120,121,122,123,124,125,126,127,128,129,130,131,132,133,134,135,136,137,138,139,140,141,142,143,144,145,146,147,148,149,150,151,152,153,154,155,156,157,158,159,160,161,162,163,164,165,166,167,168,169,170,171,172,173,174,175,176,177,178,179,180,181,182,183,184,185,186,187,188,189,190,191,192,193,194,195,196,197,198,199,200,201,202,203,204,205,206,207,208,209,210,211,212,213,214,215,216,217,218,219,220,221,222,223,224,225,226,227,228,229,230,231,232,233,234,235,236,237,238,239,240,241,242,243,244,245,246,247,248,249,250,251,252,253,254,255,256,257,258,259,260,261,262,263,264,265,266,267,268,269,270,271,272,273,274,275,276,277,278,279,280,281,282,283,284,285,286,287,288,289,290,291,292,293,294,295,296,297,298,299,300,301,302,303,304,305,306,307,308,309,310,311,312,313,314,315,316,317,318,319,320,321,322,323,324,325,326,327,328,329,330,331,332,333,334,335,336,337,338,339,340,341,342,343,344,345,346,347,348,349,350,351,352,353,354,355,356,357,358,359,360,361,362,363,364,365,366,367,368,369,370,371,372,373,374,375,376,377,378,379,380,381,382,383,384,385,386,387,388,389,390,391,392,393,394,395,396,397,398,399,400,401,402,403,404,405,406,407,408,409,410,411,412,413,414,415,416,417,418,419,420,421,422,423,424,425,426,427,428,429,430,431,432,433,434,435,436,437,438,439,440,441,442,443,444,445,446,447,448,449,450,451,452,453,454,455,456,457,458,459,460,461,462,463,464,465,466,467,468,469,470,471,472,473,474,475,476,477,478,479,480,481,482,483,484,485,486,487,488,489,490,491,492,493,494,495,496,497,498,499,500],"tree_info":[0,0,0,0,0,0,0,0,0,0,0,0,0,0,0,0,0,0,0,0,0,0,0,0,0,0,0,0,0,0,0,0,0,0,0,0,0,0,0,0,0,0,0,0,0,0,0,0,0,0,0,0,0,0,0,0,0,0,0,0,0,0,0,0,0,0,0,0,0,0,0,0,0,0,0,0,0,0,0,0,0,0,0,0,0,0,0,0,0,0,0,0,0,0,0,0,0,0,0,0,0,0,0,0,0,0,0,0,0,0,0,0,0,0,0,0,0,0,0,0,0,0,0,0,0,0,0,0,0,0,0,0,0,0,0,0,0,0,0,0,0,0,0,0,0,0,0,0,0,0,0,0,0,0,0,0,0,0,0,0,0,0,0,0,0,0,0,0,0,0,0,0,0,0,0,0,0,0,0,0,0,0,0,0,0,0,0,0,0,0,0,0,0,0,0,0,0,0,0,0,0,0,0,0,0,0,0,0,0,0,0,0,0,0,0,0,0,0,0,0,0,0,0,0,0,0,0,0,0,0,0,0,0,0,0,0,0,0,0,0,0,0,0,0,0,0,0,0,0,0,0,0,0,0,0,0,0,0,0,0,0,0,0,0,0,0,0,0,0,0,0,0,0,0,0,0,0,0,0,0,0,0,0,0,0,0,0,0,0,0,0,0,0,0,0,0,0,0,0,0,0,0,0,0,0,0,0,0,0,0,0,0,0,0,0,0,0,0,0,0,0,0,0,0,0,0,0,0,0,0,0,0,0,0,0,0,0,0,0,0,0,0,0,0,0,0,0,0,0,0,0,0,0,0,0,0,0,0,0,0,0,0,0,0,0,0,0,0,0,0,0,0,0,0,0,0,0,0,0,0,0,0,0,0,0,0,0,0,0,0,0,0,0,0,0,0,0,0,0,0,0,0,0,0,0,0,0,0,0,0,0,0,0,0,0,0,0,0,0,0,0,0,0,0,0,0,0,0,0,0,0,0,0,0,0,0,0,0,0,0,0,0,0,0,0,0,0,0,0,0,0,0,0,0,0,0,0,0,0,0,0,0,0,0,0,0,0,0,0,0,0,0,0,0,0,0,0,0,0,0,0,0,0,0,0,0,0,0,0,0,0,0,0,0,0,0,0,0,0,0],"trees":[{"base_weights":[-3.4489486E-2,7.5043213E-1,-6.8299586E-1,8.657917E-1,-4.0769707E-2,1.594998E-1,-8.796487E-1,4.705552E-1,1.1323587E0,2.998905E-2,-3.7274204E-2,-3.7350813E-1,-1.0655955E0,5.5477522E-2,-1.18146865E-2,1.4879742E0,6.5470845E-1,-6.547777E-2,-4.4616632E-2,-5.8350617E-1,-1.3508946E0,-4.539654E-2,5.331734E-2,-5.926997E-4,1.06667E-1,6.619702E-2,-6.7239325E-4,3.948555E-2,-3.2367174E-2,-5.1322676E-2,3.10836E-2,-7.6653073E-3,-8.9454524E-2],"categories":[0,1,2,3,4,5,6,7,8,9,10,11,12,13,14,15,16,17,18],"categories_nodes":[5],"categories_segments":[0],"categories_sizes":[19],"default_left":[1,1,0,0,0,1,0,0,0,0,0,0,0,0,1,1,0,0,1,0,1,0,0,0,0,0,0,0,0,0,0,0,0],"id":0,"left_children":[1,3,5,7,-1,9,11,13,15,-1,-1,17,19,-1,21,23,25,-1,27,29,31,-1,-1,-1,-1,-1,-1,-1,-1,-1,-1,-1,-1],"loss_changes":[8.1826324E1,1.2567455E1,1.471949E1,6.6048164E0,0E0,4.9230747E0,6.330967E0,6.3195357E0,5.7774734E0,0E0,0E0,4.825087E0,6.3291435E0,0E0,1.0660291E1,9.372269E0,5.566862E0,0E0,5.6196346E0,6.6536775E0,5.0574646E0,0E0,0E0,0E0,0E0,0E0,0E0,0E0,0E0,0E0,0E0,0E0,0E0],"parents":[2147483647,0,0,1,1,2,2,3,3,5,5,6,6,7,7,8,8,11,11,12,12,14,14,15,15,16,16,18,18,19,19,20,20],"right_children":[2,4,6,8,-1,10,12,14,16,-1,-1,18,20,-1,22,24,26,-1,28,30,32,-1,-1,-1,-1,-1,-1,-1,-1,-1,-1,-1,-1],"split_conditions":[9.855561E-1,1.1143478E0,9.6011394E-1,9.626089E-1,-4.0769707E-2,NaN,5.533435E-1,1.0038573E0,8.51658E-1,2.998905E-2,-3.7274204E-2,1.1105598E0,1.1105598E0,5.5477522E-2,1.1239989E0,1.4176923E2,1.6066667E2,-6.547777E-2,1.5205556E2,1.085296E0,1.215E2,-4.539654E-2,5.331734E-2,-5.926997E-4,1.06667E-1,6.619702E-2,-6.7239325E-4,3.948555E-2,-3.2367174E-2,-5.1322676E-2,3.10836E-2,-7.6653073E-3,-8.9454524E-2],"split_indices":[12,13,13,15,0,3,19,21,13,0,0,13,13,0,21,8,10,0,10,13,10,0,0,0,0,0,0,0,0,0,0,0,0],"split_type":[0,0,0,0,0,1,0,0,0,0,0,0,0,0,0,0,0,0,0,0,0,0,0,0,0,0,0,0,0,0,0,0,0],"sum_hessian":[1.5874364E2,7.174712E1,8.699651E1,6.674733E1,4.9997997E0,1.649934E1,7.049718E1,2.7998878E1,3.8748447E1,1.1749529E1,4.7498097E0,1.9749208E1,5.0747967E1,1.3999439E1,1.3999439E1,2.0999159E1,1.7749289E1,5.4997797E0,1.424943E1,1.9999199E1,3.0748768E1,7.7496896E0,6.2497497E0,3.4998598E0,1.7499298E1,1.024959E1,7.4996996E0,5.7497697E0,8.49966E0,1.624935E1,3.7498498E0,3.2498698E0,2.7498898E1],"tree_param":{"num_deleted":"0","num_feature":"22","num_nodes":"33","size_leaf_vector":"1"}},{"base_weights":[-3.1754766E-2,7.239495E-1,-8.103442E-1,8.4608626E-1,-3.6767203E-1,6.224599E-1,-1.0297098E0,1.1528449E0,4.9079162E-1,-6.140842E-2,2.1607518E-2,6.668834E-2,-3.2143496E-2,-1.8601951E-1,-1.1761345E0,6.386245E-1,9.382593E-2,-5.984375E-2,7.920558E-1,4.6287358E-2,-4.8018094E-2,-2.0467518E-2,-7.883398E-2,8.259589E-2,1.3038138E-2,2.8452722E-2,-4.1048083E-2,-1.4465793E-2,5.9282944E-2],"categories":[12,52,0,1,2,3,4,5,6,7,8,9,10,11,12,13,14,15,16,17,18,19,20,21,22,23,24,25,26,27,28,29,30,31,32,33,34,35,36,37,38,39,40,41,42,43,44,45,46,47,48,49,50,51,0,1,2,3,4,5,6,7,8,9,10,11,12,13,14,15,16,17,18,19,20,21,22,23,24,25,26,27,28,29,30,31,32,33,34,35,36,37,38,39,40,41,42,43,44,45,46,47,48,49,50,51,52,53,54,55,56,57,58,59,60,61,62,63,64,65,66,67,68,69,70,71,72,73,74,75,76,77,78,79,80,81,82,83,84,85,86,87,88,89,90,91],"categories_nodes":[1,17,18],"categories_segments":[0,2,54],"categories_sizes":[2,52,92],"default_left":[1,1,0,1,0,0,0,0,1,0,0,0,0,0,0,1,0,1,0,0,0,0,0,0,0,0,0,0,0],"id":1,"left_children":[1,3,5,7,9,11,13,15,17,-1,-1,-1,-1,19,21,23,-1,25,27,-1,-1,-1,-1,-1,-1,-1,-1,-1,-1],"loss_changes":[9.550985E1,1.1296673E1,2.5764553E1,7.5438385E0,4.6269116E0,6.897602E0,8.391342E0,7.1809273E0,6.0554132E0,0E0,0E0,0E0,0E0,7.3269725E0,6.1582336E0,5.5771084E0,0E0,4.8723598E0,4.9078503E0,0E0,0E0,0E0,0E0,0E0,0E0,0E0,0E0,0E0,0E0],"parents":[2147483647,0,0,1,1,2,2,3,3,4,4,5,5,6,6,7,7,8,8,13,13,14,14,15,15,17,17,18,18],"right_children":[2,4,6,8,10,12,14,16,18,-1,-1,-1,-1,20,22,24,-1,26,28,-1,-1,-1,-1,-1,-1,-1,-1,-1,-1],"split_conditions":[1.0153847E0,NaN,9.6851075E-1,8.2298666E-1,9.56624E-1,1.8536586E0,3.0936193E-1,8.794659E-1,9.69853E-1,-6.140842E-2,2.1607518E-2,6.668834E-2,-3.2143496E-2,1.5095833E2,9.677383E-1,1.44E2,9.382593E-2,NaN,NaN,4.6287358E-2,-4.8018094E-2,-2.0467518E-2,-7.883398E-2,8.259589E-2,1.3038138E-2,2.8452722E-2,-4.1048083E-2,-1.4465793E-2,5.9282944E-2],"split_indices":[11,3,12,11,20,7,19,16,20,0,0,0,0,10,13,8,0,3,5,0,0,0,0,0,0,0,0,0,0],"split_type":[0,1,0,0,0,0,0,0,0,0,0,0,0,0,0,0,0,1,1,0,0,0,0,0,0,0,0,0,0],"sum_hessian":[1.6032883E2,8.1395744E1,7.893309E1,7.340743E1,7.9883122E0,1.0236301E1,6.8696785E1,3.8189857E1,3.5217575E1,3.9962535E0,3.9920588E0,7.239907E0,2.9963944E0,1.04950905E1,5.82017E1,1.7978174E1,2.0211683E1,1.2737668E1,2.2479906E1,3.9972095E0,6.497881E0,8.496285E0,4.970541E1,5.744632E0,1.2233542E1,6.9921637E0,5.745505E0,3.4974017E0,1.8982506E1],"tree_param":{"num_deleted":"0","num_feature":"22","num_nodes":"29","size_leaf_vector":"1"}},{"base_weights":[3.3457324E-2,6.9740826E-1,-9.065248E-1,5.294966E-1,9.212131E-2,-4.9221776E-3,-6.390089E-2,8.397815E-1,8.21489E-2,2.6221764E-1,1.1029001E0,6.438169E-1,-2.7036053E-1,4.1470017E-2,-6.633508E-2,8.090489E-2,2.570357E-2,-2.0945199E-2,6.388175E-2,-6.0786016E-2,1.4067935E-2],"categories":[0,2,3,0,1,2,3,4,5,6,7,8,9,10,11,12,13,14,15,16,17,18,19,20,21,22,23,24,25,26,27,28,29,30,31,32,33,34,35,36,37,38,39,40,41,42,43,44,45,46,47,48,49,50,51,52,53,54,55,56,57,58,59,60,61,62,63,64,65,66,67,68,69,70,71],"categories_nodes":[8,11],"categories_segments":[0,3],"categories_sizes":[3,72],"default_left":[0,0,0,0,0,0,0,1,1,0,0,0,1,0,0,0,0,0,0,0,0],"id":2,"left_children":[1,3,5,7,-1,-1,-1,9,11,13,15,17,19,-1,-1,-1,-1,-1,-1,-1,-1],"loss_changes":[1.0140333E2,1.2501808E1,8.510689E0,1.1139441E1,0E0,0E0,0E0,6.9399643E0,6.94126E0,1.0187976E1,4.699955E0,5.9465523E0,8.324479E0,0E0,0E0,0E0,0E0,0E0,0E0,0E0,0E0],"parents":[2147483647,0,0,1,1,2,2,3,3,7,7,8,8,9,9,10,10,11,11,12,12],"right_children":[2,4,6,8,-1,-1,-1,10,12,14,16,18,20,-1,-1,-1,-1,-1,-1,-1,-1],"split_conditions":[1.0680739E0,1.3634859E0,9.855561E-1,8.743749E-1,9.212131E-2,-4.9221776E-3,-6.390089E-2,9.314652E-1,NaN,8.7197614E-1,1.742E2,NaN,1.6086667E2,4.1470017E-2,-6.633508E-2,8.090489E-2,2.570357E-2,-2.0945199E-2,6.388175E-2,-6.0786016E-2,1.4067935E-2],"split_indices":[11,16,12,11,0,0,0,20,4,13,8,3,8,0,0,0,0,0,0,0,0],"split_type":[0,0,0,0,0,0,0,0,1,0,0,1,0,0,0,0,0,0,0,0,0],"sum_hessian":[1.6046577E2,9.419192E1,6.627385E1,7.974928E1,1.4442633E1,1.0723518E1,5.5550335E1,4.6570362E1,3.3178925E1,1.5200583E1,3.1369778E1,1.2475233E1,2.0703691E1,1.1956126E1,3.2444572E0,2.2395374E1,8.974403E0,3.7441664E0,8.731067E0,7.985991E0,1.27177E1],"tree_param":{"num_deleted":"0","num_feature":"22","num_nodes":"21","size_leaf_vector":"1"}},{"base_weights":[-4.344586E-2,8.255033E-1,-6.2608564E-1,3.9345813E-1,1.1371652E0,-1.9419456E-1,-1.1357139E0,-2.0452382E-2,7.0629165E-2,8.578694E-2,5.890296E-1,4.7947094E-1,-5.6420976E-1,1.0866093E-2,-1.2448766E0,3.415595E-1,-6.522359E-2,6.123166E-2,-5.678783E-3,-3.0185768E-2,4.483371E-2,-9.589122E-1,4.1744602E-1,-6.3490993E-3,-8.220333E-2,-2.4984168E-2,5.8586705E-2,-6.913278E-2,2.3449403E-3,7.628947E-2,-1.3187177E-2],"categories":[0,1,2,3,4,5,6,7,8,9,10,11,12,13,14,15,16,17,18,19,20,21,22,23,24,25,26,27,28,29,30,31,32,33,34,35,36,37,38,39,40,41,42,43,44,45,46,47,48,49,50,51,52,53,54,55,56,57,59,60,61,62,63,64,65,66,67,68,69,70,71,72,73,74,75,76,77,78,79,80,81,82,83,0],"categories_nodes":[6,7],"categories_segments":[0,83],"categories_sizes":[83,1],"default_left":[1,1,0,0,0,1,0,1,0,0,1,0,0,0,0,0,0,0,0,0,0,0,0,0,0,0,0,0,0,0,0],"id":3,"left_children":[1,3,5,7,9,11,13,15,-1,-1,17,19,21,-1,23,25,-1,-1,-1,-1,-1,27,29,-1,-1,-1,-1,-1,-1,-1,-1],"loss_changes":[8.139283E1,8.244301E0,2.095227E1,9.248346E0,4.9941177E0,1.3550137E1,6.5351715E0,7.932689E0,0E0,0E0,4.3188663E0,5.428753E0,1.390207E1,0E0,5.4475937E0,7.7730365E0,0E0,0E0,0E0,0E0,0E0,4.801113E0,6.0598536E0,0E0,0E0,0E0,0E0,0E0,0E0,0E0,0E0],"parents":[2147483647,0,0,1,1,2,2,3,3,4,4,5,5,6,6,7,7,10,10,11,11,12,12,14,14,15,15,21,21,22,22],"right_children":[2,4,6,8,10,12,14,16,-1,-1,18,20,22,-1,24,26,-1,-1,-1,-1,-1,28,30,-1,-1,-1,-1,-1,-1,-1,-1],"split_conditions":[9.283753E-1,1.588E2,1.2062305E0,1.569E2,1.742E2,9.3028736E-1,NaN,NaN,7.0629165E-2,8.578694E-2,1.0256996E0,8.0263156E-1,1.0454768E0,1.0866093E-2,7.117337E-1,9.4534767E-1,-6.522359E-2,6.123166E-2,-5.678783E-3,-3.0185768E-2,4.483371E-2,1.7566667E2,9.4611454E-1,-6.3490993E-3,-8.220333E-2,-2.4984168E-2,5.8586705E-2,-6.913278E-2,2.3449403E-3,7.628947E-2,-1.3187177E-2],"split_indices":[11,8,11,10,8,21,3,4,0,0,20,7,15,0,17,15,0,0,0,0,0,8,13,0,0,0,0,0,0,0,0],"split_type":[0,0,0,0,0,0,1,1,0,0,0,0,0,0,0,0,0,0,0,0,0,0,0,0,0,0,0,0,0,0,0],"sum_hessian":[1.587442E2,6.3549553E1,9.519465E1,2.7579535E1,3.5970016E1,5.227477E1,4.291988E1,1.865252E1,8.927015E0,2.2535276E1,1.3434741E1,1.8428053E1,3.3846718E1,3.2369769E0,3.9682903E1,1.4420263E1,4.232255E0,7.9597435E0,5.4749975E0,3.7333193E0,1.4694735E1,2.4156916E1,9.689801E0,3.9783986E0,3.5704506E1,6.717276E0,7.7029877E0,2.017523E1,3.9816854E0,3.7251754E0,5.9646263E0],"tree_param":{"num_deleted":"0","num_feature":"22","num_nodes":"31","size_leaf_vector":"1"}},{"base_weights":[-7.185034E-2,5.680178E-1,-9.507599E-1,1.0756761E0,2.045637E-1,1.5361303E-1,-1.1330053E0,2.3637455E-2,1.314069E0,-1.1199559E-1,4.9585745E-2,-3.7806634E-2,5.4677576E-2,5.6417575E-3,-7.22888E-2,8.721556E-2,7.6704044E-3,3.5139018E-1,-4.5902702E-1,-4.86075E-2,3.9941274E-2,1.3328309E-2,-4.7615442E-2],"categories":[0,1,2,3,4,5,6,7,8,9,10,11,12,13,14,15,16,17,18,19,20,21,22,23,24,25,26,27,28,29,30,31,32,33,34,35,36,37,38,39,40,41,42,43,44,45,46,47,48,49,50,51,52,53,54,55,56,57,58,59,60,61,62,63,64,65,66,67,68,69,70,71,72,73,74,75,76,77,78,79,80,81,82,83,84,85],"categories_nodes":[3],"categories_segments":[0],"categories_sizes":[86],"default_left":[0,0,0,0,0,0,1,0,0,0,0,0,0,0,0,0,0,0,0,0,0,0,0],"id":4,"left_children":[1,3,5,7,9,11,13,-1,15,17,-1,-1,-1,-1,-1,-1,-1,19,21,-1,-1,-1,-1],"loss_changes":[9.051131E1,1.6977512E1,1.3814869E1,5.7779694E0,1.0979928E1,6.7525396E0,4.961342E0,0E0,4.327072E0,6.213911E0,0E0,0E0,0E0,0E0,0E0,0E0,0E0,6.569414E0,5.133649E0,0E0,0E0,0E0,0E0],"parents":[2147483647,0,0,1,1,2,2,3,3,4,4,5,5,6,6,8,8,9,9,17,17,18,18],"right_children":[2,4,6,8,10,12,14,-1,16,18,-1,-1,-1,-1,-1,-1,-1,20,22,-1,-1,-1,-1],"split_conditions":[1.0680739E0,8.435677E-1,9.855561E-1,NaN,1.0619955E0,1.6846666E2,8.344896E-1,2.3637455E-2,1.059572E0,8.7882113E-1,4.9585745E-2,-3.7806634E-2,5.4677576E-2,5.6417575E-3,-7.22888E-2,8.721556E-2,7.6704044E-3,5.263158E-1,9.038745E-1,-4.86075E-2,3.9941274E-2,1.3328309E-2,-4.7615442E-2],"split_indices":[11,13,12,5,16,8,20,0,20,11,0,0,0,0,0,0,0,6,14,0,0,0,0],"split_type":[0,0,0,1,0,0,0,0,0,0,0,0,0,0,0,0,0,0,0,0,0,0,0],"sum_hessian":[1.5898126E2,9.220641E1,6.677484E1,3.7653667E1,5.4552746E1,9.480696E0,5.7294147E1,1.04267435E1,2.7226921E1,3.6638424E1,1.791432E1,4.739535E0,4.741161E0,2.9809594E0,5.431319E1,2.4253122E1,2.9737997E0,1.5683682E1,2.0954742E1,2.9908786E0,1.2692804E1,6.979743E0,1.3974999E1],"tree_param":{"num_deleted":"0","num_feature":"22","num_nodes":"23","size_leaf_vector":"1"}},{"base_weights":[-6.505491E-2,5.293814E-1,-7.182178E-1,7.076373E-1,-4.198817E-1,1.2915642E-3,-8.719459E-1,2.5342253E-1,9.2708594E-1,3.202474E-2,-6.1374795E-2,-3.6048017E-2,4.5622017E-2,-3.600892E-1,-1.0561473E0,1.45180095E-2,6.7236885E-2,8.872694E-2,6.0964555E-1,5.9512343E-2,-5.3291798E-2,3.2330335E-3,-1.1572995E0,1.9944254E-2,-6.0164437E-2,1.9544734E-2,7.158091E-2,-7.641082E-2,-1.592439E-3],"categories":[12,17,52,0,1,2,3,4,5,6,7,8,9,10,11,12,13,14,15,16,17,18,19,20,21,22,23,24,25,26,27,28,29,30,31,32,33,34,35,36,37,38,39,40,41,42,43,44,45,46,47,48,49,50,51,52,53,54,55,56,57,58,59,60,61,62,63,64,65,66,67,68,69,70,71,72,73,74,75,76,77,78,79,80,81,82,83,84,85,86,87,88,89,90,91,92,93,94,95,96,97,98,99,100,101,102,103,104,105,106,107,108,109,110,111,112,113,114,115,116,117,118,119,120,121,122,123,124,125,126,127,128,129,130,131,132,133,134,135,136],"categories_nodes":[1,14],"categories_segments":[0,3],"categories_sizes":[3,137],"default_left":[0,1,0,0,0,0,0,0,0,0,0,0,0,0,0,0,0,0,0,0,0,0,0,0,0,0,0,0,0],"id":5,"left_children":[1,3,5,7,9,11,13,15,17,-1,-1,-1,-1,19,21,23,-1,-1,25,-1,-1,-1,27,-1,-1,-1,-1,-1,-1],"loss_changes":[6.110609E1,1.4250093E1,8.290714E0,6.721966E0,8.341243E0,6.897062E0,5.4420547E0,4.9577885E0,7.204212E0,0E0,0E0,0E0,0E0,1.3524198E1,5.102085E0,6.722773E0,0E0,0E0,4.7724667E0,0E0,0E0,0E0,5.182316E0,0E0,0E0,0E0,0E0,0E0,0E0],"parents":[2147483647,0,0,1,1,2,2,3,3,4,4,5,5,6,6,7,7,8,8,13,13,14,14,15,15,18,18,22,22],"right_children":[2,4,6,8,10,12,14,16,18,-1,-1,-1,-1,20,22,24,-1,-1,26,-1,-1,-1,28,-1,-1,-1,-1,-1,-1],"split_conditions":[1.0213403E0,NaN,9.838225E-1,8.4313655E-1,6.7222786E-1,1.0072451E0,1.1535472E0,1.672E2,7.614929E-1,3.202474E-2,-6.1374795E-2,-3.6048017E-2,4.5622017E-2,8.83125E-1,NaN,9.283753E-1,6.7236885E-2,8.872694E-2,1.4901961E0,5.9512343E-2,-5.3291798E-2,3.2330335E-3,2.5975327E0,1.9944254E-2,-6.0164437E-2,1.9544734E-2,7.158091E-2,-7.641082E-2,-1.592439E-3],"split_indices":[11,3,12,16,11,15,11,10,11,0,0,0,0,21,0,11,0,0,7,0,0,0,14,0,0,0,0,0,0],"split_type":[0,1,0,0,0,0,0,0,0,0,0,0,0,0,1,0,0,0,0,0,0,0,0,0,0,0,0,0,0],"sum_hessian":[1.554037E2,8.1458626E1,7.394508E1,6.879466E1,1.266396E1,1.3192146E1,6.0752934E1,2.3112087E1,4.5682575E1,4.9380956E0,7.7258654E0,7.473033E0,5.7191133E0,1.6859322E1,4.3893612E1,1.8899727E1,4.212359E0,1.5441677E1,3.0240898E1,4.4776716E0,1.238165E1,3.705503E0,4.018811E1,1.4913534E1,3.9861937E0,2.1316614E1,8.924286E0,3.6455635E1,3.7324758E0],"tree_param":{"num_deleted":"0","num_feature":"22","num_nodes":"29","size_leaf_vector":"1"}},{"base_weights":[-5.6908783E-2,6.230973E-1,-6.495984E-1,8.9941806E-1,1.0242988E-1,1.1471662E-1,-8.9241105E-1,2.9362231E-1,1.1395861E0,-6.5678483E-1,3.7479397E-2,5.6580797E-2,-2.2725174E-2,-4.1060698E-1,-1.1893775E0,6.0723215E-2,-4.1216323E-1,8.1527025E-2,3.3334494E-1,-1.9840825E-2,-8.6436644E-2,-6.2772405E-1,4.0338326E-2,-8.052084E-2,1.293346E-2,-6.6023454E-2,3.2103222E-2,7.760136E-2,-3.8629424E-2,-5.16745E-2,4.4253837E-2,-4.997235E-2,3.2371502E-2],"categories":[0,3,0,1,2,3,4,5,6,7,8,9,10,11,12,13,14,15,16,17,18,19,20,21,22,23,24,25,26,27,28,29,30,31,32,33,34,35,36,37,38,39,40,41,42,43,44,45,46,47,48,49,50,51,52,53,54,55,56,57,58,59,60,61,62,63,64,65,66,67,68,69,70,71,72,73,74,75,76,77,78,79,80,81,82,83,84],"categories_nodes":[1,19],"categories_segments":[0,2],"categories_sizes":[2,85],"default_left":[1,1,0,0,1,0,0,0,0,0,0,0,0,0,0,0,0,0,1,0,0,0,0,0,0,0,0,0,0,0,0,0,0],"id":6,"left_children":[1,3,5,7,9,11,13,15,17,19,-1,-1,-1,21,23,-1,25,-1,27,29,-1,31,-1,-1,-1,-1,-1,-1,-1,-1,-1,-1,-1],"loss_changes":[6.578144E1,1.084955E1,1.6277992E1,6.8753853E0,1.1267328E1,9.2495365E0,8.992111E0,8.195918E0,5.6307945E0,5.760112E0,0E0,0E0,0E0,6.707411E0,8.707314E0,0E0,6.0656776E0,0E0,8.949011E0,5.336044E0,0E0,5.830699E0,0E0,0E0,0E0,0E0,0E0,0E0,0E0,0E0,0E0,0E0,0E0],"parents":[2147483647,0,0,1,1,2,2,3,3,4,4,5,5,6,6,7,7,8,8,9,9,13,13,14,14,16,16,18,18,19,19,21,21],"right_children":[2,4,6,8,10,12,14,16,18,20,-1,-1,-1,22,24,-1,26,-1,28,30,-1,32,-1,-1,-1,-1,-1,-1,-1,-1,-1,-1,-1],"split_conditions":[1.0031389E0,NaN,9.9303794E-1,8.8868845E-1,1.462E2,8.925016E-1,1.200672E0,7.6006943E-1,9.153686E-1,9.5548856E-1,3.7479397E-2,5.6580797E-2,-2.2725174E-2,1.2928501E0,2.0749958E0,6.0723215E-2,1.605E2,8.1527025E-2,1.0272428E0,NaN,-8.6436644E-2,1.7046666E2,4.0338326E-2,-8.052084E-2,1.293346E-2,-6.6023454E-2,3.2103222E-2,7.760136E-2,-3.8629424E-2,-5.16745E-2,4.4253837E-2,-4.997235E-2,3.2371502E-2],"split_indices":[11,4,13,15,10,17,11,15,11,12,0,0,0,18,13,0,8,0,21,5,0,10,0,0,0,0,0,0,0,0,0,0,0],"split_type":[0,1,0,0,0,0,0,0,0,0,0,0,0,0,0,0,0,0,0,1,0,0,0,0,0,0,0,0,0,0,0,0,0],"sum_hessian":[1.6121188E2,7.505188E1,8.616E1,4.85557E1,2.6496183E1,2.0899866E1,6.526014E1,1.4415887E1,3.4139812E1,1.0665747E1,1.5830438E1,7.4690037E0,1.3430861E1,2.579405E1,3.9466087E1,6.9476633E0,7.4682236E0,2.6423985E1,7.715827E0,6.432222E0,4.233525E0,2.1827806E1,3.9662428E0,3.574195E1,3.7241383E0,4.238901E0,3.2293224E0,3.733862E0,3.9819653E0,2.982508E0,3.449714E0,1.8843393E1,2.9844127E0],"tree_param":{"num_deleted":"0","num_feature":"22","num_nodes":"33","size_leaf_vector":"1"}},{"base_weights":[-6.5966055E-2,6.088282E-1,-8.381495E-1,8.418565E-1,1.3695422E-1,-3.1790063E-1,-1.2514782E0,9.1949266E-1,-1.6832378E-2,5.8465976E-2,-1.7498252E-1,-5.663473E-1,2.1276021E-2,1.5034553E-3,-8.2425915E-2,7.579627E-2,6.343434E-1,-5.901132E-1,3.6971055E-2,3.665202E-2,-8.1045896E-1,4.1121038E-4,5.7053473E-2,1.1980635E-3,-7.361815E-2,1.8971223E-2,-6.1719578E-2],"categories":[0,1,2,3,4,5,6,7,8,9,10,11,12,13,14,15,16,17,18,19,20,21,22,23,24,25,26,27,28,29,30,31,32,33,34,35,36,37,38,39,40,0,1,2,3,4,5,6,7,8,9,10,11,12,13,14,15,16,17,18,19,20,21,22,23,24,25,26,27,28,29,30,31,32,33,34,35,36,37,38,39,40,41,42,43,44,45,46,47,48,49,50,51,52,53,54,55,56,57,58,59,60,61,62,63,64,65,66,67,68,69,70,71,72,73,74,75,76,77,78,79,80,81,82,83,0,1,2,3,4,5,6,7,8,9,10,11,12,13,14,15,16,17,18,19,20,21,22,23,24,25,26,27,28,29,30,31,32,33,34,35,36],"categories_nodes":[5,11,17],"categories_segments":[0,41,125],"categories_sizes":[41,84,37],"default_left":[1,1,0,0,0,1,0,1,0,0,0,0,0,0,0,0,0,1,0,0,0,0,0,0,0,0,0],"id":7,"left_children":[1,3,5,7,9,11,13,15,-1,-1,17,19,-1,-1,-1,-1,21,23,-1,-1,25,-1,-1,-1,-1,-1,-1],"loss_changes":[8.414643E1,9.367193E0,1.5788639E1,5.2663193E0,7.899397E0,5.9822197E0,6.2864075E0,4.434246E0,0E0,0E0,7.7220187E0,7.8624754E0,0E0,0E0,0E0,0E0,6.166641E0,5.903772E0,0E0,0E0,5.568798E0,0E0,0E0,0E0,0E0,0E0,0E0],"parents":[2147483647,0,0,1,1,2,2,3,3,4,4,5,5,6,6,7,7,10,10,11,11,16,16,17,17,20,20],"right_children":[2,4,6,8,10,12,14,16,-1,-1,18,20,-1,-1,-1,-1,22,24,-1,-1,26,-1,-1,-1,-1,-1,-1],"split_conditions":[1.0173084E0,8.7882113E-1,1.200672E0,1.8888888E0,9.2464054E-1,NaN,9.144891E-1,7.7044034E-1,-1.6832378E-2,5.8465976E-2,1.2551025E0,NaN,2.1276021E-2,1.5034553E-3,-8.2425915E-2,7.579627E-2,9.56624E-1,NaN,3.6971055E-2,3.665202E-2,8.7397784E-1,4.1121038E-4,5.7053473E-2,1.1980635E-3,-7.361815E-2,1.8971223E-2,-6.1719578E-2],"split_indices":[11,11,11,6,21,0,13,14,0,0,19,5,0,0,0,0,20,3,0,0,13,0,0,0,0,0,0],"split_type":[0,0,0,0,0,1,0,0,0,0,0,1,0,0,0,0,0,1,0,0,0,0,0,0,0,0,0],"sum_hessian":[1.5951001E2,8.5235825E1,7.4274185E1,5.6533493E1,2.8702333E1,3.3667137E1,4.0607048E1,5.304165E1,3.4918458E0,7.236269E0,2.1466064E1,2.4687157E1,8.979979E0,3.4953516E0,3.7111694E1,2.2651134E1,3.0390514E1,1.4231509E1,7.2345557E0,3.9890869E0,2.069807E1,1.046259E1,1.9927923E1,7.7392435E0,6.4922657E0,3.2418046E0,1.7456266E1],"tree_param":{"num_deleted":"0","num_feature":"22","num_nodes":"27","size_leaf_vector":"1"}},{"base_weights":[4.2768465E-3,5.895634E-1,-5.9693533E-1,8.5231847E-1,2.590381E-1,2.7625334E-2,-7.712204E-1,1.3012396E-1,1.0162568E0,-3.7709787E-2,4.632198E-1,-2.7579206E-1,-9.835457E-1,4.173032E-2,-4.1694038E-2,1.164919E0,-3.874866E-3,4.3026637E-2,-8.206321E-3,2.7565908E-2,-3.2829516E-2,-1.4150696E-2,-6.7883305E-2,1.2186526E-2,7.988669E-2],"categories":[0,1,2,3,4,5,6,7,8,9,10,11,12,13,14,15,16,17,18,19,20,21,22,23,24,25,26,27,28,29,30,31,32,33,34,35,36,37,38,39,40,41,42,43],"categories_nodes":[7],"categories_segments":[0],"categories_sizes":[44],"default_left":[1,1,0,1,0,0,1,1,0,0,0,0,0,0,0,0,0,0,0,0,0,0,0,0,0],"id":8,"left_children":[1,3,5,7,9,-1,11,13,15,-1,17,19,21,-1,-1,23,-1,-1,-1,-1,-1,-1,-1,-1,-1],"loss_changes":[5.4498283E1,6.5944767E0,1.4413122E1,4.9922066E0,6.8333235E0,0E0,6.666233E0,4.7208014E0,5.718254E0,0E0,4.6187854E0,4.4373984E0,4.6716194E0,0E0,0E0,4.557472E0,0E0,0E0,0E0,0E0,0E0,0E0,0E0,0E0,0E0],"parents":[2147483647,0,0,1,1,2,2,3,3,4,4,6,6,7,7,8,8,10,10,11,11,12,12,15,15],"right_children":[2,4,6,8,10,-1,12,14,16,-1,18,20,22,-1,-1,24,-1,-1,-1,-1,-1,-1,-1,-1,-1],"split_conditions":[1.0213403E0,8.2298666E-1,9.6851075E-1,8.623785E-1,2.0314331E-1,2.7625334E-2,1.485E2,NaN,1.77E2,-3.7709787E-2,1.0467732E0,5.204663E-1,7.058824E-1,4.173032E-2,-4.1694038E-2,7.606163E-1,-3.874866E-3,4.3026637E-2,-8.206321E-3,2.7565908E-2,-3.2829516E-2,-1.4150696E-2,-6.7883305E-2,1.2186526E-2,7.988669E-2],"split_indices":[11,11,12,20,19,0,10,0,8,0,20,19,6,0,0,12,0,0,0,0,0,0,0,0,0],"split_type":[0,0,0,0,0,0,0,1,0,0,0,0,0,0,0,0,0,0,0,0,0,0,0,0,0],"sum_hessian":[1.528767E2,7.7474144E1,7.540255E1,4.2282497E1,3.5191647E1,1.0451831E1,6.495072E1,8.154289E0,3.412821E1,6.206946E0,2.89847E1,2.0174814E1,4.4775906E1,4.934515E0,3.2197742E0,2.9932379E1,4.195829E0,2.0283537E1,8.701162E0,5.232752E0,1.4942062E1,7.652786E0,3.712312E1,4.63872E0,2.529366E1],"tree_param":{"num_deleted":"0","num_feature":"22","num_nodes":"25","size_leaf_vector":"1"}},{"base_weights":[2.8873546E-2,6.649729E-1,-6.010319E-1,6.608336E-2,3.0873284E-1,1.678738E-1,-8.0032706E-1,-1.3846425E-2,4.7162972E-2,-2.8412643E-1,8.013029E-2,-3.2201805E-3,-9.934578E-1,3.139699E-1,-5.4058112E-2,3.3349827E-2,-6.0164735E-2,-6.4506784E-2,1.1697316E-2,-2.119784E-2,4.956555E-2],"categories":[0,1,2,3,4,5,6,7,8,9,10,11,12,13,14,15,16,17,18,19,20,21,22,23,24,25,26,27,28,29,30,31,32,33,34,35,36,37,38,39,40,41,42,43,44,45,46,47,48,0,1,2,3,4,5,6,7,8,9,10,11,12,13,14,15,16,17,18,19,20,21,22,23,24,25,26,27,28,29,30,31,32,33,34,35,36,37,38,39,40,41,42,43,44,45,46,47,48,49,50,51,52,53,54,55],"categories_nodes":[4,9],"categories_segments":[0,49],"categories_sizes":[49,56],"default_left":[1,1,0,0,1,0,1,1,0,1,0,0,0,0,0,0,0,0,0,0,0],"id":9,"left_children":[1,3,5,-1,7,9,11,13,-1,15,-1,-1,17,19,-1,-1,-1,-1,-1,-1,-1],"loss_changes":[6.3168724E1,1.1750629E1,1.2276436E1,0E0,6.8103523E0,9.388022E0,9.048138E0,8.229291E0,0E0,8.446048E0,0E0,0E0,4.852669E0,7.3284206E0,0E0,0E0,0E0,0E0,0E0,0E0,0E0],"parents":[2147483647,0,0,1,1,2,2,4,4,5,5,6,6,7,7,9,9,12,12,13,13],"right_children":[2,4,6,-1,8,10,12,14,-1,16,-1,-1,18,20,-1,-1,-1,-1,-1,-1,-1],"split_conditions":[1.0108693E0,8.435677E-1,9.677383E-1,6.608336E-2,NaN,1.6966667E2,1.4116667E2,1.1580595E0,4.7162972E-2,NaN,8.013029E-2,-3.2201805E-3,1.7856289E0,9.023263E-1,-5.4058112E-2,3.3349827E-2,-6.0164735E-2,-6.4506784E-2,1.1697316E-2,-2.119784E-2,4.956555E-2],"split_indices":[11,13,13,0,0,8,10,21,0,5,0,0,18,16,0,0,0,0,0,0,0],"split_type":[0,0,0,0,1,0,0,0,0,1,0,0,0,0,0,0,0,0,0,0,0],"sum_hessian":[1.5565536E2,7.7419205E1,7.823615E1,3.401575E1,4.3403458E1,1.6136642E1,6.209951E1,2.6420567E1,1.6982891E1,1.2165171E1,3.9714713E0,1.3021684E1,4.9077827E1,1.9744576E1,6.6759896E0,5.705493E0,6.4596777E0,4.6142292E1,2.9355361E0,8.689882E0,1.1054694E1],"tree_param":{"num_deleted":"0","num_feature":"22","num_nodes":"21","size_leaf_vector":"1"}},{"base_weights":[-6.531696E-2,5.266164E-1,-8.7632513E-1,8.475367E-1,1.13888765E-2,3.722604E-2,-9.8277164E-1,-1.7335571E-2,6.1016757E-2,-3.8332483E-1,4.922993E-2,-7.00462E-2,-2.1509041E-1,-5.991972E-2,4.071211E-2,-3.882985E-2,4.275416E-2,2.5548203E-2,-7.9989724E-2],"categories":[0,1,2,3,4,5,6,7,8,9,10,11,12,13,14,15,16,17,18,19,20,21,22,23,24,25,26,27,28,29,30,31,32,33,34,35,36,37,38,39,40,41,42,43,44,45,46,47,48,49,50,51,52,53,54,55,56,57,58,59,60,61,62,63,64,65,66,67,68,69,70,71,72,73,74,75,76,77,78,79,80,81,82,83,84,85],"categories_nodes":[7],"categories_segments":[0],"categories_sizes":[86],"default_left":[0,0,0,1,0,0,0,0,0,0,0,0,0,0,0,0,0,0,0],"id":10,"left_children":[1,3,5,7,9,-1,11,13,-1,15,-1,-1,17,-1,-1,-1,-1,-1,-1],"loss_changes":[7.905994E1,1.5743034E1,1.1658363E1,8.445366E0,1.2274589E1,0E0,8.8018875E0,7.752279E0,0E0,7.8727484E0,0E0,0E0,1.0291166E1,0E0,0E0,0E0,0E0,0E0,0E0],"parents":[2147483647,0,0,1,1,2,2,3,3,4,4,6,6,7,7,9,9,12,12],"right_children":[2,4,6,8,10,-1,12,14,-1,16,-1,-1,18,-1,-1,-1,-1,-1,-1],"split_conditions":[1.0616931E0,8.8711935E-1,9.175427E-1,8.623785E-1,1.0454768E0,3.722604E-2,1.110829E0,NaN,6.1016757E-2,1.1140753E0,4.922993E-2,-7.00462E-2,1.0574267E0,-5.991972E-2,4.071211E-2,-3.882985E-2,4.275416E-2,2.5548203E-2,-7.9989724E-2],"split_indices":[11,11,12,20,15,0,15,5,0,16,0,0,20,0,0,0,0,0,0],"split_type":[0,0,0,0,0,0,0,1,0,0,0,0,0,0,0,0,0,0,0],"sum_hessian":[1.6272534E2,9.427048E1,6.8454865E1,5.769128E1,3.65792E1,4.2312574E0,6.42236E1,9.435634E0,4.825565E1,2.4910498E1,1.1668701E1,5.1564613E1,1.2658991E1,3.734679E0,5.7009544E0,2.0431288E1,4.4792104E0,8.43458E0,4.224411E0],"tree_param":{"num_deleted":"0","num_feature":"22","num_nodes":"19","size_leaf_vector":"1"}},{"base_weights":[2.7382951E-3,6.767139E-1,-5.6218815E-1,9.301207E-1,2.3028827E-1,-1.5585494E-1,-9.137264E-1,2.7326706E-1,6.802332E-2,-1.5317388E-1,5.117219E-2,-5.6072545E-1,3.5691027E-2,-3.818185E-1,-6.697023E-2,7.5059325E-2,-3.9767462E-1,-3.513799E-2,2.675887E-2,-7.1943116E-1,3.3618305E-2,-7.039182E-1,3.3345204E-2,2.4772076E-2,-7.82577E-2,7.343304E-4,-6.3464195E-2,1.7581768E-2,-7.226797E-2],"categories":[0,3,0,1,2,3,4,5,6,7,8,9,10,11,12,13,14,15,16,17,18,19,20,21,22,23,24,25,26,27,28,29,30,31,32,33,34,35,36,37,38,39,40,41,42,43,44,45,46,47,48,49,50,51,52,53,54,55,56,57,58,59,60,61,62,63,64,65,66,67,68,69,70,71,72,73,74,75,76,77,78,79,80,0,1,2,3,4,5,6,7,8,9,10,11,12,13,14],"categories_nodes":[1,7,13],"categories_segments":[0,2,83],"categories_sizes":[2,81,15],"default_left":[1,1,0,0,1,0,0,0,0,1,0,0,0,1,0,0,0,0,0,0,0,0,0,0,0,0,0,0,0],"id":11,"left_children":[1,3,5,7,9,11,13,15,-1,17,-1,19,-1,21,-1,-1,23,-1,-1,25,-1,27,-1,-1,-1,-1,-1,-1,-1],"loss_changes":[6.0847298E1,8.029396E0,1.2276415E1,5.74963E0,6.716683E0,1.292277E1,4.4809837E0,8.390016E0,0E0,4.8829136E0,0E0,5.281045E0,0E0,4.6533403E0,0E0,0E0,6.312102E0,0E0,0E0,6.0129585E0,0E0,5.772623E0,0E0,0E0,0E0,0E0,0E0,0E0,0E0],"parents":[2147483647,0,0,1,1,2,2,3,3,4,4,5,5,6,6,7,7,9,9,11,11,13,13,16,16,19,19,21,21],"right_children":[2,4,6,8,10,12,14,16,-1,18,-1,20,-1,22,-1,-1,24,-1,-1,26,-1,28,-1,-1,-1,-1,-1,-1,-1],"split_conditions":[9.40932E-1,NaN,1.1574132E0,8.7660164E-1,1.5875E2,1.041487E0,9.3220407E-1,NaN,6.802332E-2,9.833485E-1,5.117219E-2,1.5384616E0,3.5691027E-2,NaN,-6.697023E-2,7.5059325E-2,7.6006943E-1,-3.513799E-2,2.675887E-2,9.2778766E-1,3.3618305E-2,1.0591387E0,3.3345204E-2,2.4772076E-2,-7.82577E-2,7.343304E-4,-6.3464195E-2,1.7581768E-2,-7.226797E-2],"split_indices":[11,4,11,15,10,15,14,5,0,20,0,6,0,5,0,0,15,0,0,15,0,13,0,0,0,0,0,0,0],"split_type":[0,1,0,0,0,0,0,1,0,0,0,0,0,1,0,0,0,0,0,0,0,0,0,0,0,0,0,0,0],"sum_hessian":[1.5781126E2,7.187006E1,8.59412E1,4.5155014E1,2.6715048E1,4.0533276E1,4.540793E1,1.1085292E1,3.406972E1,1.6968702E1,9.746346E0,2.647058E1,1.4062698E1,1.3145583E1,3.2262344E1,4.172492E0,6.9128E0,9.877315E0,7.091387E0,2.3495878E1,2.9746997E0,9.963598E0,3.1819851E0,3.9312224E0,2.9815776E0,7.678781E0,1.5817098E1,3.4517982E0,6.5118E0],"tree_param":{"num_deleted":"0","num_feature":"22","num_nodes":"29","size_leaf_vector":"1"}},{"base_weights":[9.50114E-2,7.0915246E-1,-3.273466E-1,9.877905E-1,2.3980258E-1,3.0099297E-1,-5.289344E-1,3.8915214E-1,7.2470754E-2,-6.0862448E-2,7.2847456E-2,5.762543E-1,-3.9106615E-2,3.460834E-2,-6.1085683E-1,4.9438525E-2,-4.2726524E-2,3.4345487E-1,-5.5842254E-2,1.1120907E-1,7.200083E-2,-7.424834E-1,2.7532527E-2,5.9301298E-2,-9.867841E-3,5.3013537E-2,-2.9444747E-2,-4.904444E-2,2.041862E-2,5.6966178E-2,-2.8027348E-2],"categories":[0,3,0,1,2,3,4,5,6,7,8,9,10,11,35],"categories_nodes":[1,5],"categories_segments":[0,2],"categories_sizes":[2,13],"default_left":[1,1,0,0,1,1,1,0,0,0,0,0,0,0,0,0,0,0,0,0,0,0,0,0,0,0,0,0,0,0,0],"id":12,"left_children":[1,3,5,7,9,11,13,15,-1,17,-1,19,-1,-1,21,-1,-1,23,-1,25,-1,27,29,-1,-1,-1,-1,-1,-1,-1,-1],"loss_changes":[4.057904E1,8.09359E0,1.1919857E1,4.6594353E0,7.381381E0,6.4423294E0,6.740637E0,6.2769523E0,0E0,7.353974E0,0E0,5.202763E0,0E0,0E0,5.5883045E0,0E0,0E0,4.8555994E0,0E0,5.82528E0,0E0,4.569786E0,6.0088253E0,0E0,0E0,0E0,0E0,0E0,0E0,0E0,0E0],"parents":[2147483647,0,0,1,1,2,2,3,3,4,4,5,5,6,6,7,7,9,9,11,11,14,14,17,17,19,19,21,21,22,22],"right_children":[2,4,6,8,10,12,14,16,-1,18,-1,20,-1,-1,22,-1,-1,24,-1,26,-1,28,30,-1,-1,-1,-1,-1,-1,-1,-1],"split_conditions":[9.153686E-1,NaN,9.818858E-1,6.315789E-1,1.6456667E2,NaN,1.18333336E2,7.9168934E-1,7.2470754E-2,9.498146E-1,7.2847456E-2,1.0217102E0,-3.9106615E-2,3.460834E-2,1.1389104E0,4.9438525E-2,-4.2726524E-2,7.5247526E-1,-5.5842254E-2,7.422609E-1,7.200083E-2,3.433E1,1.1518663E0,5.9301298E-2,-9.867841E-3,5.3013537E-2,-2.9444747E-2,-4.904444E-2,2.041862E-2,5.6966178E-2,-2.8027348E-2],"split_indices":[11,4,12,6,10,3,10,11,0,12,0,15,0,0,15,0,0,7,0,14,0,7,12,0,0,0,0,0,0,0,0],"split_type":[0,1,0,0,0,1,0,0,0,0,0,0,0,0,0,0,0,0,0,0,0,0,0,0,0,0,0,0,0,0,0],"sum_hessian":[1.545469E2,6.2698875E1,9.184803E1,3.8649376E1,2.4049498E1,2.2189941E1,6.965809E1,1.0992166E1,2.7657211E1,1.9075737E1,4.973762E0,1.751269E1,4.6772513E0,4.3968854E0,6.52612E1,8.071227E0,2.9209392E0,1.34195795E1,5.656157E0,1.0679092E1,6.833598E0,5.3970264E1,1.1290936E1,5.5100846E0,7.909495E0,4.4757586E0,6.2033334E0,5.082422E1,3.1460469E0,3.6224866E0,7.6684504E0],"tree_param":{"num_deleted":"0","num_feature":"22","num_nodes":"31","size_leaf_vector":"1"}},{"base_weights":[1.7651847E-2,4.464652E-1,-8.371753E-1,7.2144246E-1,5.14737E-2,1.4501942E-2,-9.3981117E-1,2.813392E-2,6.886007E-2,6.9133264E-1,-4.2451966E-1,-2.0965269E-1,-1.101452E0,-1.3498748E-2,5.6093678E-2,-1.3841687E-1,-9.020864E-2,4.0135495E-2,-6.278352E-2,-7.0107356E-3,-7.3445536E-2,2.2631682E-2,-3.674021E-2],"categories":[79],"categories_nodes":[10],"categories_segments":[0],"categories_sizes":[1],"default_left":[1,1,0,0,0,0,0,0,0,0,1,1,1,0,0,0,0,0,0,0,0,0,0],"id":13,"left_children":[1,3,5,7,9,-1,11,-1,-1,13,15,17,19,-1,-1,21,-1,-1,-1,-1,-1,-1,-1],"loss_changes":[5.5863552E1,1.0982988E1,5.8603706E0,5.877836E0,1.33046665E1,0E0,5.280239E0,0E0,0E0,4.304596E0,7.509927E0,7.777689E0,4.295723E0,0E0,0E0,5.310663E0,0E0,0E0,0E0,0E0,0E0,0E0,0E0],"parents":[2147483647,0,0,1,1,2,2,3,3,4,4,6,6,9,9,10,10,11,11,12,12,15,15],"right_children":[2,4,6,8,10,-1,12,-1,-1,14,16,18,20,-1,-1,22,-1,-1,-1,-1,-1,-1,-1],"split_conditions":[1.1125125E0,9.509141E-1,9.6851075E-1,1.0330107E0,9.283753E-1,1.4501942E-2,7.986918E-1,2.813392E-2,6.886007E-2,1.4333333E2,NaN,1.0523002E0,1.29E2,-1.3498748E-2,5.6093678E-2,1.0171368E0,-9.020864E-2,4.0135495E-2,-6.278352E-2,-7.0107356E-3,-7.3445536E-2,2.2631682E-2,-3.674021E-2],"split_indices":[11,13,12,15,11,0,17,0,0,10,3,20,10,0,0,21,0,0,0,0,0,0,0],"split_type":[0,0,0,0,0,0,0,0,0,0,1,0,0,0,0,0,0,0,0,0,0,0,0],"sum_hessian":[1.5037927E2,1.00461655E2,4.9917618E1,5.8741615E1,4.172004E1,4.222111E0,4.5695507E1,3.7993214E1,2.07484E1,1.7603695E1,2.4116346E1,8.698768E0,3.6996742E1,3.6756608E0,1.3928034E1,1.9934654E1,4.181691E0,4.337179E0,4.3615885E0,4.1881104E0,3.280863E1,9.635365E0,1.0299291E1],"tree_param":{"num_deleted":"0","num_feature":"22","num_nodes":"23","size_leaf_vector":"1"}},{"base_weights":[-4.1764747E-2,6.4645284E-1,-5.312202E-1,-2.438297E-1,4.7518294E-2,3.4052405E-1,-7.519218E-1,2.9930033E-2,-6.7131475E-2,-2.4954285E-1,6.923364E-2,-4.7217438E-1,-6.8325244E-2,-4.730084E-2,4.223841E-2,1.117712E-3,-8.257747E-1,-2.3316247E-2,-8.737966E-2],"categories":[],"categories_nodes":[],"categories_segments":[],"categories_sizes":[],"default_left":[0,1,0,0,0,0,1,0,0,0,0,0,0,0,0,0,0,0,0],"id":14,"left_children":[1,3,5,7,-1,9,11,-1,-1,13,-1,15,-1,-1,-1,-1,17,-1,-1],"loss_changes":[5.143052E1,8.268158E0,1.7413366E1,6.716291E0,0E0,9.221708E0,7.1229324E0,0E0,0E0,6.4879837E0,0E0,7.4802084E0,0E0,0E0,0E0,0E0,6.303467E0,0E0,0E0],"parents":[2147483647,0,0,1,1,2,2,3,3,5,5,6,6,9,9,11,11,16,16],"right_children":[2,4,6,8,-1,10,12,-1,-1,14,-1,16,-1,-1,-1,-1,18,-1,-1],"split_conditions":[9.198896E-1,8.5950387E-1,9.24085E-1,8.530674E-1,4.7518294E-2,1.0298319E0,1.002412E0,2.9930033E-2,-6.7131475E-2,1.622E2,6.923364E-2,1.200672E0,-6.8325244E-2,-4.730084E-2,4.223841E-2,1.117712E-3,1.2950324E0,-2.3316247E-2,-8.737966E-2],"split_indices":[11,20,13,20,0,15,21,0,0,10,0,11,0,0,0,0,19,0,0],"split_type":[0,0,0,0,0,0,0,0,0,0,0,0,0,0,0,0,0,0,0],"sum_hessian":[1.5066046E2,6.2483036E1,8.817743E1,8.543711E0,5.3939327E1,1.7704378E1,7.047305E1,4.8491473E0,3.6945636E0,1.0640395E1,7.063982E0,4.2018723E1,2.8454325E1,6.9158335E0,3.7245617E0,1.7993752E1,2.4024971E1,1.5078145E1,8.946827E0],"tree_param":{"num_deleted":"0","num_feature":"22","num_nodes":"19","size_leaf_vector":"1"}},{"base_weights":[-2.8102309E-2,4.509355E-1,-4.9570557E-1,-5.4126924E-1,5.568649E-1,2.8139466E-1,-6.512465E-1,-7.200262E-2,1.8435054E-2,6.013868E-2,3.4744042E-1,-3.019509E-2,4.0297378E-2,-8.664135E-1,6.3817695E-2,-1.934731E-2,6.111178E-1,-2.7940191E-2,-6.072709E-2,5.250381E-2,-4.8517546E-1,4.06434E-2,-3.272217E-2,5.282384E-2,-9.128139E-3,4.4034977E-2,-4.1444574E-2,2.3771761E-2,-7.128977E-2],"categories":[0,1,2,3,4,5,6,7,8,9,10,11,12,13,14,15,16,17,18,19,20,21,22,23,24,25,26,27,28,29,30,31,32,33,34,35,36,37,38,39,40,41,42,43,44,45,46,47,48,49,50,51,52,53,54,55,56,57,58,59,60,61,62,63,64,65,66,67,68,69,70,71,72,73,74,75,76,77,78,79,80,81,82,83,84,85,86,87,88,89,90,91,92,93,94,95,96,97,98,99,100,101,102,103,104,105,106],"categories_nodes":[1],"categories_segments":[0],"categories_sizes":[107],"default_left":[1,0,0,0,1,0,0,0,0,0,1,0,0,0,0,0,0,0,0,0,0,0,0,0,0,0,0,0,0],"id":15,"left_children":[1,3,5,7,9,11,13,-1,-1,-1,15,-1,-1,17,19,21,23,25,-1,-1,27,-1,-1,-1,-1,-1,-1,-1,-1],"loss_changes":[3.2988056E1,7.9503794E0,9.187529E0,4.543379E0,5.7868366E0,4.322155E0,9.651859E0,0E0,0E0,0E0,4.5077815E0,0E0,0E0,5.7023277E0,7.23884E0,7.797952E0,5.633807E0,4.514707E0,0E0,0E0,6.489813E0,0E0,0E0,0E0,0E0,0E0,0E0,0E0,0E0],"parents":[2147483647,0,0,1,1,2,2,3,3,4,4,5,5,6,6,10,10,13,13,14,14,15,15,16,16,17,17,20,20],"right_children":[2,4,6,8,10,12,14,-1,-1,-1,16,-1,-1,18,20,22,24,26,-1,-1,28,-1,-1,-1,-1,-1,-1,-1,-1],"split_conditions":[9.990774E-1,NaN,9.387977E-1,8.4313655E-1,6.869076E-1,5.4227906E-1,1.1061605E0,-7.200262E-2,1.8435054E-2,6.013868E-2,9.741519E-1,-3.019509E-2,4.0297378E-2,3.6176762E-1,1.147536E0,9.3145794E-1,1.0562061E0,1.145268E0,-6.072709E-2,5.250381E-2,7.744335E-1,4.06434E-2,-3.272217E-2,5.282384E-2,-9.128139E-3,4.4034977E-2,-4.1444574E-2,2.3771761E-2,-7.128977E-2],"split_indices":[12,5,11,16,11,19,15,0,0,0,20,0,0,19,12,17,20,11,0,0,19,0,0,0,0,0,0,0,0],"split_type":[0,1,0,0,0,0,0,0,0,0,0,0,0,0,0,0,0,0,0,0,0,0,0,0,0,0,0,0,0],"sum_hessian":[1.4527042E2,7.1775444E1,7.3494965E1,6.527245E0,6.52482E1,1.2122155E1,6.137281E1,3.4502587E0,3.076986E0,1.9760868E1,4.548733E1,3.9196332E0,8.202522E0,4.7014282E1,1.4358529E1,1.9411558E1,2.6075775E1,6.9966283E0,4.0017654E1,5.569435E0,8.789094E0,8.2258415E0,1.1185717E1,1.9215303E1,6.8604712E0,3.2046442E0,3.7919838E0,4.083407E0,4.705687E0],"tree_param":{"num_deleted":"0","num_feature":"22","num_nodes":"29","size_leaf_vector":"1"}},{"base_weights":[4.1691516E-2,3.7613982E-1,-8.085944E-1,8.079296E-1,1.1023591E-1,2.7180377E-2,-9.095261E-1,9.986079E-1,-2.4402569E-1,-2.5187258E-2,6.791057E-2,-3.6219892E-1,-6.98147E-2,6.769421E-2,-1.7476917E-3,-6.794672E-2,4.4304237E-2,-3.058498E-1,6.7137015E-1,-6.338032E-2,5.4564483E-2,4.2192604E-2,-2.936807E-2,-2.6201209E-2,5.6180842E-2],"categories":[0,0,1,2,3,4,5,6,7,8,9,10,11,12,13,14,15,16,17,18,19,20,21,22,23,24,25,26,27,28,29,30,31,32,33,34,35,36,37,38,39,40,41,42,43,44,45,46,47,48,49,50,51,52,53,54,55,56,57,58,59,60,61,62,63,64,65,66,67,68,69,70,71,72,73,74,75,76,77,78,79,80,81,82,83,84,85,86,87,88,89,90,91,92,93,94,95,96,97,98,99,100,101,102,103,104,105,106,107,108,109,110,111,112,113,114,115,116,117,118,119],"categories_nodes":[3,17],"categories_segments":[0,1],"categories_sizes":[1,120],"default_left":[1,1,1,1,0,0,0,1,0,0,0,0,0,0,0,0,0,0,0,0,0,0,0,0,0],"id":16,"left_children":[1,3,5,7,9,-1,11,13,15,17,-1,19,-1,-1,-1,-1,-1,21,23,-1,-1,-1,-1,-1,-1],"loss_changes":[4.4131565E1,1.2688986E1,5.9844227E0,8.719963E0,9.682055E0,0E0,5.1814156E0,4.685707E0,7.1488953E0,1.2480511E1,0E0,1.3471284E1,0E0,0E0,0E0,0E0,0E0,8.667777E0,5.722657E0,0E0,0E0,0E0,0E0,0E0,0E0],"parents":[2147483647,0,0,1,1,2,2,3,3,4,4,6,6,7,7,8,8,9,9,11,11,17,17,18,18],"right_children":[2,4,6,8,10,-1,12,14,16,18,-1,20,-1,-1,-1,-1,-1,22,24,-1,-1,-1,-1,-1,-1],"split_conditions":[1.200672E0,8.1771225E-1,9.0724933E-1,NaN,1.3528348E0,2.7180377E-2,8.642856E-1,1.7806667E2,1.566875E2,1.2222222E0,6.791057E-2,9.861738E-1,-6.98147E-2,6.769421E-2,-1.7476917E-3,-6.794672E-2,4.4304237E-2,NaN,9.458904E-1,-6.338032E-2,5.4564483E-2,4.2192604E-2,-2.936807E-2,-2.6201209E-2,5.6180842E-2],"split_indices":[11,11,20,4,17,0,16,8,10,6,0,15,0,0,0,0,0,0,20,0,0,0,0,0,0],"split_type":[0,0,0,1,0,0,0,0,0,0,0,0,0,0,0,0,0,1,0,0,0,0,0,0,0],"sum_hessian":[1.531175E2,1.10292915E2,4.2824577E1,4.1257782E1,6.903513E1,2.9182289E0,3.9906345E1,3.4969833E1,6.287949E0,6.1789387E1,7.2457433E0,1.328681E1,2.6619537E1,3.1069702E1,3.9001298E0,3.2249417E0,3.0630074E0,4.4442978E1,1.7346413E1,8.713288E0,4.573522E0,6.3676972E0,3.807528E1,3.1926644E0,1.4153748E1],"tree_param":{"num_deleted":"0","num_feature":"22","num_nodes":"25","size_leaf_vector":"1"}},{"base_weights":[4.2026475E-2,4.0736E-1,-5.12585E-1,8.5785353E-1,2.4874815E-1,2.8092582E-2,-6.62011E-1,2.490641E-1,7.604018E-2,-4.5111117E-1,3.9047128E-1,-2.4056788E-1,-5.795862E-2,4.628699E-2,-3.4442924E-2,-5.2646253E-2,4.0875074E-2,5.7070124E-1,-4.1374978E-1,-4.4302277E-2,2.0556176E-2,5.8570724E-2,1.623764E-2,3.2584775E-2,-5.7994694E-2],"categories":[],"categories_nodes":[],"categories_segments":[],"categories_sizes":[],"default_left":[1,1,0,0,0,0,1,0,0,0,0,0,0,0,0,0,0,0,0,0,0,0,0,0,0],"id":17,"left_children":[1,3,5,7,9,-1,11,13,-1,15,17,19,-1,-1,-1,-1,-1,21,23,-1,-1,-1,-1,-1,-1],"loss_changes":[3.0062523E1,6.1734657E0,8.935483E0,5.3273926E0,6.8729157E0,0E0,6.3041515E0,4.87293E0,0E0,6.256276E0,8.452062E0,6.8266234E0,0E0,0E0,0E0,0E0,0E0,5.394315E0,6.2728043E0,0E0,0E0,0E0,0E0,0E0,0E0],"parents":[2147483647,0,0,1,1,2,2,3,3,4,4,6,6,7,7,9,9,10,10,11,11,17,17,18,18],"right_children":[2,4,6,8,10,-1,12,14,-1,16,18,20,-1,-1,-1,-1,-1,22,24,-1,-1,-1,-1,-1,-1],"split_conditions":[1.0658385E0,6.793113E-1,9.855561E-1,7.921177E-1,5.625E-1,2.8092582E-2,1.5095833E2,1.2215313E0,7.604018E-2,1.0446769E0,1.7546666E2,9.679468E-1,-5.795862E-2,4.628699E-2,-3.4442924E-2,-5.2646253E-2,4.0875074E-2,9.9751896E-1,8.536562E-1,-4.4302277E-2,2.0556176E-2,5.8570724E-2,1.623764E-2,3.2584775E-2,-5.7994694E-2],"split_indices":[11,11,12,16,6,0,10,21,0,15,8,18,0,0,0,0,0,21,16,0,0,0,0,0,0],"split_type":[0,0,0,0,0,0,0,0,0,0,0,0,0,0,0,0,0,0,0,0,0,0,0,0,0],"sum_hessian":[1.463398E2,8.838461E1,5.795519E1,2.1867489E1,6.651712E1,7.39173E0,5.0563457E1,9.38466E0,1.2482829E1,1.0833907E1,5.5683216E1,2.1806465E1,2.8756994E1,5.785899E0,3.5987608E0,8.045627E0,2.7882805E0,4.5726128E1,9.9570875E0,1.1637633E1,1.0168831E1,1.8615229E1,2.7110899E1,3.642679E0,6.314409E0],"tree_param":{"num_deleted":"0","num_feature":"22","num_nodes":"25","size_leaf_vector":"1"}},{"base_weights":[3.8051534E-2,6.656939E-1,-4.2757255E-1,8.9863145E-1,2.3241518E-1,-8.195663E-2,-9.2024523E-1,6.0349412E-2,-2.355756E-2,7.160437E-2,7.3286577E-4,-1.9160709E-1,7.678326E-2,-7.03274E-2,-1.4094572E-2,-4.7550046E-1,3.572319E-1,-4.6607066E-2,1.8975835E-2,-3.26813E-2,4.4125102E-2],"categories":[],"categories_nodes":[],"categories_segments":[],"categories_sizes":[],"default_left":[1,1,0,0,1,1,0,0,0,0,0,0,0,0,0,0,0,0,0,0,0],"id":18,"left_children":[1,3,5,7,9,11,13,-1,-1,-1,-1,15,-1,-1,-1,17,19,-1,-1,-1,-1],"loss_changes":[4.624796E1,6.591133E0,1.54028015E1,6.215534E0,5.2351627E0,8.359492E0,6.0864697E0,0E0,0E0,0E0,0E0,8.165478E0,0E0,0E0,0E0,8.3335905E0,6.5078616E0,0E0,0E0,0E0,0E0],"parents":[2147483647,0,0,1,1,2,2,3,3,4,4,5,5,6,6,11,11,15,15,16,16],"right_children":[2,4,6,8,10,12,14,-1,-1,-1,-1,16,-1,-1,-1,18,20,-1,-1,-1,-1],"split_conditions":[9.403183E-1,8.435677E-1,1.200672E0,1.2320642E0,9.1808736E-1,1.125202E0,1.1061605E0,6.0349412E-2,-2.355756E-2,7.160437E-2,7.3286577E-4,1.1629534E0,7.678326E-2,-7.03274E-2,-1.4094572E-2,1.2E0,8.661144E-1,-4.6607066E-2,1.8975835E-2,-3.26813E-2,4.4125102E-2],"split_indices":[13,13,11,20,20,20,15,0,0,0,0,18,0,0,0,6,17,0,0,0,0],"split_type":[0,0,0,0,0,0,0,0,0,0,0,0,0,0,0,0,0,0,0,0,0],"sum_hessian":[1.5627647E2,6.637542E1,8.9901054E1,4.2469246E1,2.3906178E1,5.352145E1,3.63796E1,3.9511166E1,2.9580789E0,3.649067E0,2.025711E1,5.031587E1,3.2055807E0,2.6205452E1,1.0174149E1,3.325036E1,1.7065512E1,2.4148718E1,9.101641E0,4.894851E0,1.217066E1],"tree_param":{"num_deleted":"0","num_feature":"22","num_nodes":"21","size_leaf_vector":"1"}},{"base_weights":[5.371799E-2,6.8813235E-1,-3.6690643E-1,1.667244E-1,8.971663E-1,-6.192124E-1,1.5251891E-1,-1.8593648E-1,4.780352E-2,6.416392E-2,1.4849442E-2,-7.271779E-2,-7.830456E-1,5.8195367E-2,-3.22913E-1,2.0822262E-2,-5.5414904E-2,-4.0062118E-1,4.590227E-2,-3.1634536E-2,-9.201974E-1,-6.785195E-2,2.2409442E-1,4.1565314E-2,-4.898635E-2,-3.4052912E-2,4.7990456E-2,8.094942E-3,-6.118399E-2,4.9487665E-2,-4.3131813E-2],"categories":[],"categories_nodes":[],"categories_segments":[],"categories_sizes":[],"default_left":[1,0,0,0,0,0,0,0,0,0,0,0,0,0,0,0,0,0,0,0,1,0,0,0,0,0,0,0,0,0,0],"id":19,"left_children":[1,3,5,7,9,11,13,15,-1,-1,-1,17,19,-1,21,-1,-1,23,-1,25,27,-1,29,-1,-1,-1,-1,-1,-1,-1,-1],"loss_changes":[4.2814438E1,6.818987E0,1.27491665E1,4.467479E0,4.7198677E0,5.7797337E0,1.28428E1,5.5178576E0,0E0,0E0,0E0,4.725172E0,5.1290703E0,0E0,9.572761E0,0E0,0E0,6.0805497E0,0E0,4.3287444E0,4.4250755E0,0E0,8.150207E0,0E0,0E0,0E0,0E0,0E0,0E0,0E0,0E0],"parents":[2147483647,0,0,1,1,2,2,3,3,4,4,5,5,6,6,7,7,11,11,12,12,14,14,17,17,19,19,20,20,22,22],"right_children":[2,4,6,8,10,12,14,16,-1,-1,-1,18,20,-1,22,-1,-1,24,-1,26,28,-1,30,-1,-1,-1,-1,-1,-1,-1,-1],"split_conditions":[9.153686E-1,7.606591E-1,1.0382344E0,1.662E2,1.742E2,6.835072E-1,1.0277926E0,9.820332E-1,4.780352E-2,6.416392E-2,1.4849442E-2,8E1,7.172211E-1,5.8195367E-2,1.0640903E0,2.0822262E-2,-5.5414904E-2,7.5365746E-1,4.590227E-2,7.5E1,9.014467E-1,-6.785195E-2,1.0706862E0,4.1565314E-2,-4.898635E-2,-3.4052912E-2,4.7990456E-2,8.094942E-3,-6.118399E-2,4.9487665E-2,-4.3131813E-2],"split_indices":[11,18,15,8,8,18,13,20,0,0,0,9,16,0,18,0,0,7,0,9,20,0,20,0,0,0,0,0,0,0,0],"split_type":[0,0,0,0,0,0,0,0,0,0,0,0,0,0,0,0,0,0,0,0,0,0,0,0,0,0,0,0,0,0,0],"sum_hessian":[1.5849759E2,6.2936504E1,9.556109E1,1.8525259E1,4.4411243E1,6.418952E1,3.1371563E1,1.2309316E1,6.2159424E0,3.4759342E1,9.651904E0,1.5137977E1,4.9051548E1,1.118457E1,2.0186993E1,7.446972E0,4.862344E0,1.1243958E1,3.8940187E0,7.76118E0,4.1290367E1,7.742974E0,1.2444018E1,2.903637E0,8.340322E0,4.913071E0,2.8481088E0,3.4164233E0,3.7873943E1,7.684599E0,4.75942E0],"tree_param":{"num_deleted":"0","num_feature":"22","num_nodes":"31","size_leaf_vector":"1"}},{"base_weights":[3.4426093E-2,2.9991484E-1,-6.1078477E-1,6.124661E-1,6.568698E-2,1.5003608E-1,-7.668548E-1,7.7912435E-3,5.6049462E-2,1.8127747E-2,-4.3863943E-1,5.3518075E-2,-4.543008E-2,2.466326E-2,-5.3758066E-2,-4.0984116E-2,4.44559E-2],"categories":[0,3],"categories_nodes":[4],"categories_segments":[0],"categories_sizes":[2],"default_left":[1,1,0,0,1,0,0,0,0,0,0,0,0,0,0,0,0],"id":20,"left_children":[1,3,5,7,9,11,13,-1,-1,-1,15,-1,-1,-1,-1,-1,-1],"loss_changes":[2.5357237E1,7.6312666E0,5.241354E0,6.7691803E0,7.3775306E0,6.142827E0,5.706499E0,0E0,0E0,0E0,6.1545587E0,0E0,0E0,0E0,0E0,0E0,0E0],"parents":[2147483647,0,0,1,1,2,2,3,3,4,4,5,5,6,6,10,10],"right_children":[2,4,6,8,10,12,14,-1,-1,-1,16,-1,-1,-1,-1,-1,-1],"split_conditions":[1.1535472E0,8.7775314E-1,7.998096E-1,9.483493E-1,NaN,1.4285715E0,9.838225E-1,7.7912435E-3,5.6049462E-2,1.8127747E-2,1.0971369E0,5.3518075E-2,-4.543008E-2,2.466326E-2,-5.3758066E-2,-4.0984116E-2,4.44559E-2],"split_indices":[11,13,17,15,4,6,12,0,0,0,11,0,0,0,0,0,0],"split_type":[0,0,0,0,1,0,0,0,0,0,0,0,0,0,0,0,0],"sum_hessian":[1.4596211E2,1.0379014E2,4.2171974E1,4.37696E1,6.002054E1,7.1849504E0,3.4987022E1,1.795399E1,2.5815607E1,4.1193016E1,1.882752E1,3.9642253E0,3.2207253E0,3.1700678E0,3.1816956E1,1.5964809E1,2.8627121E0],"tree_param":{"num_deleted":"0","num_feature":"22","num_nodes":"17","size_leaf_vector":"1"}},{"base_weights":[-8.1946254E-2,4.4097036E-2,-3.8055405E-1,1.3470209E-1,-5.8362013E-1,-6.3379504E-2,3.0768067E-1,-6.9299036E-1,7.3452614E-2,-2.4297334E-2,3.311283E-2,-8.339036E-1,-4.3472373E-3,5.0405752E-2,-4.0380904E-1,-5.4430876E-2,1.8853612E-2,2.6073646E-2,-7.147113E-2],"categories":[0,1,2,3,4,5,6,7,8,9,10,11,12,13,14,15,16,17,18,19,20,21,22,23,24,25,26,27,28,29,30,31,32,33,34,35,36,37,38,39,40,41,42,43,44,45,46,47,48,49,50,51,52,53,54,55,56,57,58,59,60,61,62,63,64,65,66,67,68,69,70,71,72,73,74,75,76,77,78,79,80,81,82,83,84,85,86,87,88,89,90,91,92,93,94,95,96,97,98,99,100,101,0,1,2,3,4,5,6,7,8,9,10,11,12,13,14,15,16,17,18,19,20,21,22,23,24],"categories_nodes":[3,7],"categories_segments":[0,102],"categories_sizes":[102,25],"default_left":[1,0,0,0,0,0,0,1,0,0,0,0,0,0,0,0,0,0,0],"id":21,"left_children":[1,-1,3,5,7,-1,9,11,13,-1,-1,15,-1,-1,17,-1,-1,-1,-1],"loss_changes":[3.519242E1,0E0,1.113842E1,6.6289754E0,5.5132103E0,0E0,4.9740906E0,5.6482887E0,4.621841E0,0E0,0E0,4.5622063E0,0E0,0E0,5.698258E0,0E0,0E0,0E0,0E0],"parents":[2147483647,0,0,2,2,3,3,4,4,6,6,7,7,8,8,11,11,14,14],"right_children":[2,-1,4,6,8,-1,10,12,14,-1,-1,16,-1,-1,18,-1,-1,-1,-1],"split_conditions":[8.1771225E-1,4.4097036E-2,9.422103E-1,NaN,1.1299984E0,-6.3379504E-2,6.875E-1,NaN,5.204663E-1,-2.4297334E-2,3.311283E-2,1.8253334E2,-4.3472373E-3,5.0405752E-2,1.2513227E0,-5.4430876E-2,1.8853612E-2,2.6073646E-2,-7.147113E-2],"split_indices":[11,0,13,5,15,0,6,0,19,0,0,8,0,0,13,0,0,0,0],"split_type":[0,0,0,1,0,0,0,1,0,0,0,0,0,0,0,0,0,0,0],"sum_hessian":[1.425579E2,3.7855003E1,1.04702896E2,2.9694155E1,7.500874E1,3.1287224E0,2.6565432E1,6.425825E1,1.0750495E1,6.582368E0,1.9983065E1,5.2090622E1,1.2167628E1,3.8439307E0,6.9065647E0,4.928357E1,2.8070512E0,3.5554378E0,3.351127E0],"tree_param":{"num_deleted":"0","num_feature":"22","num_nodes":"19","size_leaf_vector":"1"}},{"base_weights":[6.0134433E-2,5.5727017E-1,-2.7048826E-1,9.400041E-2,7.3631144E-1,2.5983363E-2,-4.2851694E-2,4.3347538E-2,-3.030908E-2,4.9786095E-2,-1.9928634E-2,-2.4243176E-1,4.1118428E-1,-4.4684336E-1,5.395569E-2,4.3959763E-2,-2.331768E-2,3.924808E-3,-5.1282227E-2],"categories":[],"categories_nodes":[],"categories_segments":[],"categories_sizes":[],"default_left":[0,0,0,0,1,0,0,0,0,0,0,0,0,0,0,0,0,0,0],"id":22,"left_children":[1,3,5,7,9,11,-1,-1,-1,-1,-1,13,15,17,-1,-1,-1,-1,-1],"loss_changes":[2.4307953E1,4.8270626E0,1.1656025E1,6.9462137E0,4.381378E0,5.7002897E0,0E0,0E0,0E0,0E0,0E0,7.9774976E0,6.04446E0,5.9173937E0,0E0,0E0,0E0,0E0,0E0],"parents":[2147483647,0,0,1,1,2,2,3,3,4,4,5,5,11,11,12,12,13,13],"right_children":[2,4,6,8,10,12,-1,-1,-1,-1,-1,14,16,18,-1,-1,-1,-1,-1],"split_conditions":[9.403183E-1,9.0826285E-1,1.200672E0,8.4210527E-1,2.0287814E0,1.0466741E0,-4.2851694E-2,4.3347538E-2,-3.030908E-2,4.9786095E-2,-1.9928634E-2,1.4666667E0,1.6195454E2,9.7561926E-1,5.395569E-2,4.3959763E-2,-2.331768E-2,3.924808E-3,-5.1282227E-2],"split_indices":[13,15,11,6,18,18,0,0,0,0,0,6,10,11,0,0,0,0,0],"split_type":[0,0,0,0,0,0,0,0,0,0,0,0,0,0,0,0,0,0,0],"sum_hessian":[1.4597357E2,5.803085E1,8.794272E1,1.6600924E1,4.1429928E1,5.316774E1,3.477498E1,8.006351E0,8.594572E0,3.8392616E1,3.0373092E0,3.1552212E1,2.161553E1,2.7265337E1,4.2868752E0,1.5505801E1,6.109728E0,1.241233E1,1.4853006E1],"tree_param":{"num_deleted":"0","num_feature":"22","num_nodes":"19","size_leaf_vector":"1"}},{"base_weights":[-6.12076E-2,4.3180004E-1,-5.85222E-1,5.8271E-1,-3.695149E-1,2.6612905E-1,-7.170278E-1,1.5727606E-1,8.0754864E-1,1.504098E-2,-6.438422E-2,5.810497E-2,-3.102955E-2,-2.4660943E-1,-5.7845924E-2,7.127776E-2,-1.6006121E-1,5.4461118E-2,-2.2445874E-2,4.0219682E-1,-5.589395E-1,2.6512314E-2,-4.2590704E-2,6.925578E-2,-3.99715E-2,3.0237302E-2,-5.88302E-2],"categories":[12,36,52,0,1,2,3,4,5,6,7,8,9,10,11,13,14,15,16,17,18,19,20,21,22,23,24,25,26,27,28,29,30,31,32,33,34,35,36,37,38,39,40,41,42,43,44,45,46,47,48,49,50,51,52,53,54,55,56,57,59,60,61,62,63,64,65,66,67,68,69,70,71,72,73,74,75,76,77,78,79,80,81,82,83,0,1,2,3,4,5,6,7,8,9,10,11,12,13,14,15,16,17,18,19,20,21,22,23,24,25,26,27,28,29,30,31,32,33,34,35,36,37,38,39,40,41,42,43,44,45,46,47,48,49,50,51,52,53,54,55,56,57,58,59,60,61,62,63,64,65,66,67,68,69,70,71,72,73,74,75,76,77,78,79,80,81,82,83,84,85,86,87,88,89,90,91,92,93,94,95,96,1,3,4],"categories_nodes":[1,2,6,13],"categories_segments":[0,3,85,182],"categories_sizes":[3,82,97,3],"default_left":[1,1,0,0,0,0,0,1,0,0,0,0,0,1,0,0,0,0,0,0,0,0,0,0,0,0,0],"id":23,"left_children":[1,3,5,7,9,11,13,15,17,-1,-1,-1,-1,19,-1,-1,21,-1,-1,23,25,-1,-1,-1,-1,-1,-1],"loss_changes":[3.8297993E1,9.460581E0,8.249165E0,6.064213E0,5.785621E0,6.1561837E0,6.927994E0,7.8858666E0,5.164194E0,0E0,0E0,0E0,0E0,4.818428E0,0E0,0E0,6.5324802E0,0E0,0E0,7.1042967E0,7.4695334E0,0E0,0E0,0E0,0E0,0E0,0E0],"parents":[2147483647,0,0,1,1,2,2,3,3,4,4,5,5,6,6,7,7,8,8,13,13,16,16,19,19,20,20],"right_children":[2,4,6,8,10,12,14,16,18,-1,-1,-1,-1,20,-1,-1,22,-1,-1,24,26,-1,-1,-1,-1,-1,-1],"split_conditions":[1.0119743E0,NaN,NaN,8.450851E-1,9.412899E-1,1.0657895E0,NaN,1.3593333E2,1.1090851E0,1.504098E-2,-6.438422E-2,5.810497E-2,-3.102955E-2,NaN,-5.7845924E-2,7.127776E-2,8.095969E-1,5.4461118E-2,-2.2445874E-2,1.3884346E0,1.4518182E2,2.6512314E-2,-4.2590704E-2,6.925578E-2,-3.99715E-2,3.0237302E-2,-5.88302E-2],"split_indices":[11,3,3,16,12,7,0,10,12,0,0,0,0,4,0,0,13,0,0,11,10,0,0,0,0,0,0],"split_type":[0,1,1,0,0,0,1,0,0,0,0,0,0,1,0,0,0,0,0,0,0,0,0,0,0,0,0],"sum_hessian":[1.4626653E2,7.5453606E1,7.081292E1,6.372518E1,1.1728425E1,9.356827E0,6.1456093E1,2.2621277E1,4.1103905E1,6.5637546E0,5.1646705E0,4.815072E0,4.541755E0,2.1668697E1,3.97874E1,4.6960807E0,1.7925196E1,3.81949E1,2.9090033E0,6.947942E0,1.4720755E1,8.641705E0,9.283491E0,4.0362897E0,2.911652E0,4.1052394E0,1.0615516E1],"tree_param":{"num_deleted":"0","num_feature":"22","num_nodes":"27","size_leaf_vector":"1"}},{"base_weights":[-2.3908833E-2,5.249656E-1,-3.741058E-1,7.163203E-1,-2.0455578E-2,2.2038215E-1,-5.9055096E-1,2.8959557E-1,5.860307E-2,5.556038E-2,-1.6212237E-1,2.0726316E-2,-4.4784106E-2,-2.0015523E-2,5.7772245E-2,-3.0634286E-2,3.367346E-2,2.6566532E-2,-4.185916E-2],"categories":[12,17,52,0,1,2,3,4,5,6,7,8,9,10,11,12,13,14,15,16,17,18,19,20,21,22,23,24,25,26,27,28,29,30,31,32,33,34,35,36,37,38,39,40,41,42,43,44,45,46],"categories_nodes":[1,11],"categories_segments":[0,3],"categories_sizes":[3,47],"default_left":[1,1,0,0,0,1,1,0,0,0,0,1,0,0,0,0,0,0,0],"id":24,"left_children":[1,3,5,7,-1,9,11,13,-1,-1,15,17,-1,-1,-1,-1,-1,-1,-1],"loss_changes":[2.8877249E1,9.929691E0,1.1926597E1,5.0129166E0,0E0,6.9209304E0,6.3417625E0,8.475464E0,0E0,0E0,4.5790424E0,4.675996E0,0E0,0E0,0E0,0E0,0E0,0E0,0E0],"parents":[2147483647,0,0,1,1,2,2,3,3,5,5,6,6,7,7,10,10,11,11],"right_children":[2,4,6,8,-1,10,12,14,-1,-1,16,18,-1,-1,-1,-1,-1,-1,-1],"split_conditions":[9.153686E-1,NaN,9.677383E-1,8.6898726E-1,-2.0455578E-2,9.2464054E-1,1.4242857E2,1.5333333E2,5.860307E-2,5.556038E-2,1.0372604E0,NaN,-4.4784106E-2,-2.0015523E-2,5.7772245E-2,-3.0634286E-2,3.367346E-2,2.6566532E-2,-4.185916E-2],"split_indices":[11,3,13,18,0,21,10,10,0,0,15,0,0,0,0,0,0,0,0],"split_type":[0,1,0,0,0,0,0,0,0,0,0,1,0,0,0,0,0,0,0],"sum_hessian":[1.4821303E2,5.7536015E1,9.067701E1,4.725176E1,1.0284258E1,2.4197634E1,6.647938E1,1.8567163E1,2.8684593E1,8.032127E0,1.6165506E1,1.3507721E1,5.2971653E1,9.889682E0,8.677482E0,1.1117152E1,5.048353E0,8.751334E0,4.7563868E0],"tree_param":{"num_deleted":"0","num_feature":"22","num_nodes":"19","size_leaf_vector":"1"}},{"base_weights":[-5.801597E-2,4.2923144E-1,-3.981793E-1,4.7589973E-2,-1.6357349E-1,4.8533222E-1,-5.4314995E-1,-5.0433703E-2,1.4627197E-1,5.361216E-2,-2.6812233E-2,-4.7162045E-2,-1.3322887E-1,3.0896252E-2,-3.1447917E-2,2.5311252E-2,-5.7622343E-1,3.30252E-2,-6.105686E-2],"categories":[0,3],"categories_nodes":[1],"categories_segments":[0],"categories_sizes":[2],"default_left":[1,1,0,0,0,1,0,0,0,0,0,0,0,0,0,0,0,0,0],"id":25,"left_children":[1,3,5,-1,7,9,11,-1,13,-1,-1,-1,15,-1,-1,-1,17,-1,-1],"loss_changes":[2.3372608E1,1.2558561E1,1.0888582E1,0E0,4.8862114E0,5.005886E0,6.9607887E0,0E0,4.310568E0,0E0,0E0,0E0,7.0396714E0,0E0,0E0,0E0,8.3492365E0,0E0,0E0],"parents":[2147483647,0,0,1,1,2,2,4,4,5,5,6,6,8,8,12,12,16,16],"right_children":[2,4,6,-1,8,10,12,-1,14,-1,-1,-1,16,-1,-1,-1,18,-1,-1],"split_conditions":[9.153686E-1,NaN,8.7397784E-1,4.7589973E-2,1.4407143E2,1.0696502E0,1.0251265E0,-5.0433703E-2,9.7507864E-1,5.361216E-2,-2.6812233E-2,-4.7162045E-2,1.0509827E0,3.0896252E-2,-3.1447917E-2,2.5311252E-2,1.0573043E0,3.30252E-2,-6.105686E-2],"split_indices":[11,4,13,0,10,21,15,0,12,0,0,0,19,0,0,0,11,0,0],"split_type":[0,1,0,0,0,0,0,0,0,0,0,0,0,0,0,0,0,0,0],"sum_hessian":[1.389854E2,5.7031734E1,8.195367E1,3.5227757E1,2.1803976E1,1.122092E1,7.073275E1,6.3289423E0,1.5475034E1,7.847327E0,3.373592E0,4.4019707E1,2.6713041E1,1.01417885E1,5.3332458E0,1.1895814E1,1.4817227E1,4.0820403E0,1.0735187E1],"tree_param":{"num_deleted":"0","num_feature":"22","num_nodes":"19","size_leaf_vector":"1"}},{"base_weights":[-5.827001E-2,1.748682E-1,-7.1308255E-1,5.2739505E-2,4.053469E-2,-5.786716E-2,-1.2995277E-2,-3.0136076E-1,3.0525437E-1,-6.8059504E-1,6.301643E-3,3.535522E-2,-1.7699832E-1,2.7757106E-2,-5.4193303E-2,2.9317148E-2,-3.127003E-2],"categories":[0,1,2,3,4,5,6,7,8,9,10,13,14,15,16,17,18,19,20,21,22,23,24,25,26,27,28,29,30,31,32,33,34,35,36,37,38,39,40,41,42,43,44,45,46,47,48,49,50,51,52],"categories_nodes":[8],"categories_segments":[0],"categories_sizes":[51],"default_left":[1,1,0,0,0,0,0,0,1,1,0,0,0,0,0,0,0],"id":26,"left_children":[1,3,5,-1,7,-1,-1,9,11,13,-1,-1,15,-1,-1,-1,-1],"loss_changes":[2.14874E1,9.76049E0,4.350321E0,0E0,8.086004E0,0E0,0E0,6.083909E0,6.942531E0,5.5110016E0,0E0,0E0,4.6463585E0,0E0,0E0,0E0,0E0],"parents":[2147483647,0,0,1,1,2,2,4,4,7,7,8,8,9,9,12,12],"right_children":[2,4,6,-1,8,-1,-1,10,12,14,-1,-1,16,-1,-1,-1,-1],"split_conditions":[1.200672E0,7.254828E-1,1.0561085E0,5.2739505E-2,9.3454826E-1,-5.786716E-2,-1.2995277E-2,1.0253367E0,NaN,1.3593333E2,6.301643E-3,3.535522E-2,8.598011E-1,2.7757106E-2,-5.4193303E-2,2.9317148E-2,-3.127003E-2],"split_indices":[11,13,15,0,16,0,0,14,3,10,0,0,14,0,0,0,0],"split_type":[0,0,0,0,0,0,0,0,1,0,0,0,0,0,0,0,0],"sum_hessian":[1.3893481E2,1.02996925E2,3.593788E1,1.5671603E1,8.7325325E1,2.335022E1,1.2587664E1,3.8047337E1,4.927799E1,1.9323402E1,1.8723936E1,3.095587E1,1.8322119E1,2.9401727E0,1.6383228E1,6.0904503E0,1.22316675E1],"tree_param":{"num_deleted":"0","num_feature":"22","num_nodes":"17","size_leaf_vector":"1"}},{"base_weights":[4.422404E-2,5.525769E-1,-4.4750473E-1,6.3890713E-1,-1.8562373E-2,4.1552506E-2,-5.2212954E-1,6.3710645E-2,3.8842094E-1,5.9777062E-2,-6.509944E-1,1.8904842E-2,5.30802E-2,-2.009747E-2,4.607692E-2,-3.3584473E-1,-1.0522484E0,-3.2766037E-2,2.2358181E-2,-4.0528815E-2,1.0804062E-2,7.361906E-3,-7.813182E-2],"categories":[17,52,0,1,3,0,1,2,3,4,5,6,7,8,9,10,11,12,13,14,15,16,17,18,19,20,21,22,23,24,25,26,27,28,29,30,31,32,33,34,35,36,37,38,39,40,41,42,43,44,45,46,47,48,49,50,51,52,53,54,55,56,57,58,59,60,61,62,63,64,65,66,67,68,69,70,71,72,73,74,75,76,77,78,79,80,81,82,83,84,85,86,87,88,89,90,91,92,93,94,95,96,97,98,99,100,101,102,103,104,105,106,107,108,109,110,111,112,113,114,115,116,117,118,119,120,121,122,123,124],"categories_nodes":[1,3,16],"categories_segments":[0,2,5],"categories_sizes":[2,3,125],"default_left":[0,1,0,1,0,0,0,0,0,0,0,0,0,0,0,0,0,0,0,0,0,0,0],"id":27,"left_children":[1,3,5,7,-1,-1,9,-1,11,13,15,17,-1,-1,-1,19,21,-1,-1,-1,-1,-1,-1],"loss_changes":[3.9902824E1,6.0276203E0,7.253851E0,7.1135654E0,0E0,0E0,5.7951584E0,0E0,8.445563E0,4.37542E0,7.6043816E0,5.674104E0,0E0,0E0,0E0,6.5042553E0,8.009851E0,0E0,0E0,0E0,0E0,0E0,0E0],"parents":[2147483647,0,0,1,1,2,2,3,3,6,6,8,8,9,9,10,10,11,11,15,15,16,16],"right_children":[2,4,6,8,-1,-1,10,-1,12,14,16,18,-1,-1,-1,20,22,-1,-1,-1,-1,-1,-1],"split_conditions":[9.990774E-1,NaN,8.435677E-1,NaN,-1.8562373E-2,4.1552506E-2,7.986918E-1,6.3710645E-2,1.007645E0,7.2619784E-1,1.1279138E0,1.588E2,5.30802E-2,-2.009747E-2,4.607692E-2,1.1409547E0,NaN,-3.2766037E-2,2.2358181E-2,-4.0528815E-2,1.0804062E-2,7.361906E-3,-7.813182E-2],"split_indices":[12,3,13,4,0,0,17,0,15,17,12,8,0,0,0,14,0,0,0,0,0,0,0],"split_type":[0,1,0,1,0,0,0,0,0,0,0,0,0,0,0,0,1,0,0,0,0,0,0],"sum_hessian":[1.5764012E2,7.744901E1,8.01911E1,7.062487E1,6.8241377E0,4.428209E0,7.576289E1,2.5202034E1,4.542284E1,1.3833228E1,6.1929665E1,2.6563587E1,1.8859255E1,9.217969E0,4.615259E0,3.571537E1,2.6214298E1,1.001622E1,1.6547365E1,2.139861E1,1.4316759E1,4.620706E0,2.1593592E1],"tree_param":{"num_deleted":"0","num_feature":"22","num_nodes":"23","size_leaf_vector":"1"}},{"base_weights":[3.743116E-2,3.4808257E-1,-5.797181E-1,5.197757E-1,-1.075212E-3,3.227651E-2,-4.3545093E-2,-2.2350347E-2,6.992651E-1,-4.1237812E-2,2.626298E-1,6.6131E-2,-4.0212553E-2,3.543637E-2,-3.554373E-2,-2.055875E-2,4.6907768E-2,4.245077E-2,-2.2787092E-2],"categories":[0,1,2,3,4,5,6,7,8,9,10,11,12,13,14,15,16,17,18,19,20,21,22,23,24,25,26,27,28,29,30,31,32,33,34,35,36,37,38,39,40,41,42,43,44,45,46,47,48,49,50,51,52,53,54,55,56,57,58,59,60,61,62,63,64,65,66,67,68,69,70,71,72,73,74,75,76,77,78,79,80,81,82,83,84,85,86,87,88,89,90,91,92,93,94,95,96,97,98,99,100,101,102,103,104,105,106,107,108,109,110,111,112,113,114,115,116,117,0,1,2,3,4,5,6,7,8,9,10,11,12,13,14,15,16,17,18,19,20,21,22,23,24,25,26,27,28,29,30,31,32,33,34,35,36,37,38,39,40,41,42,43,44,45,46,47,48,49,50,51,52,53,54,55,56,57,58,59,60,61,62,63,64,65,66,67,68,69,70,71,72,73,74,75,76,77,78,79,80,81,82,83,84,85,86,87,88,89,90,91,92,93,94,95,96,97,98,99,100,101,102,103,104,105,106],"categories_nodes":[2,8],"categories_segments":[0,118],"categories_sizes":[118,107],"default_left":[1,1,0,0,0,0,0,1,0,0,0,0,0,0,0,0,0,0,0],"id":28,"left_children":[1,3,5,7,9,11,-1,13,15,-1,17,-1,-1,-1,-1,-1,-1,-1,-1],"loss_changes":[2.8740164E1,5.97377E0,4.437128E0,6.5153427E0,6.2837944E0,8.575066E0,0E0,6.45066E0,4.443472E0,0E0,7.402288E0,0E0,0E0,0E0,0E0,0E0,0E0,0E0,0E0],"parents":[2147483647,0,0,1,1,2,2,3,3,4,4,5,5,7,7,8,8,10,10],"right_children":[2,4,6,8,10,12,-1,14,16,-1,18,-1,-1,-1,-1,-1,-1,-1,-1],"split_conditions":[1.1125125E0,9.9303794E-1,NaN,8.89739E-1,1.468E2,1.45625E2,-4.3545093E-2,1.5526666E2,NaN,-4.1237812E-2,1.1874374E0,6.6131E-2,-4.0212553E-2,3.543637E-2,-3.554373E-2,-2.055875E-2,4.6907768E-2,4.245077E-2,-2.2787092E-2],"split_indices":[11,13,0,15,10,10,0,8,5,0,19,0,0,0,0,0,0,0,0],"split_type":[0,0,1,0,0,0,0,0,1,0,0,0,0,0,0,0,0,0,0],"sum_hessian":[1.4785577E2,9.8639885E1,4.9215897E1,6.579669E1,3.2843193E1,9.501967E0,3.971393E1,1.6583555E1,4.9213135E1,8.6948395E0,2.4148354E1,3.5412178E0,5.960749E0,7.9725194E0,8.611036E0,3.2766953E0,4.593644E1,1.4228094E1,9.9202585E0],"tree_param":{"num_deleted":"0","num_feature":"22","num_nodes":"19","size_leaf_vector":"1"}},{"base_weights":[-3.987028E-2,4.9206147E-1,-4.3982247E-1,1.7696437E-1,5.6508657E-2,1.4193106E-1,-6.758747E-1,-2.4019521E-1,4.807502E-1,5.272207E-2,-2.4901354E-1,2.9932544E-2,-8.3973986E-1,3.840412E-2,-6.8570244E-1,4.499159E-2,-2.3968268E-2,-6.640338E-2,1.0830418E-1,-3.4361947E-2,4.3365955E-2,-9.464652E-1,1.7399123E-2,-7.67321E-2,6.972788E-3,-4.499945E-2,3.1519916E-2,-3.140163E-2,-7.4791126E-2],"categories":[0,2,3,0,1,2,3,4,5,6,7,8,9,10,0,1,2,3,4,5,6,7,8,9,10,11,12,13,14,15,16,17,18,19,20,21,22,23,24,25,26,27,28,29,30,31,32,33,34,35,36,37,38,39,40,41,42,43,44,45,46],"categories_nodes":[5,12,14],"categories_segments":[0,3,14],"categories_sizes":[3,11,47],"default_left":[0,0,0,0,0,1,0,0,1,0,1,0,1,0,1,0,0,0,0,0,0,0,0,0,0,0,0,0,0],"id":29,"left_children":[1,3,5,7,-1,9,11,13,15,-1,17,19,21,-1,23,-1,-1,-1,25,-1,-1,27,-1,-1,-1,-1,-1,-1,-1],"loss_changes":[3.0972626E1,8.631996E0,1.1500532E1,4.917015E0,0E0,7.3324223E0,6.877943E0,6.9441905E0,5.512962E0,0E0,5.294202E0,5.4421525E0,6.070595E0,0E0,5.583626E0,0E0,0E0,0E0,4.9639535E0,0E0,0E0,4.9084053E0,0E0,0E0,0E0,0E0,0E0,0E0,0E0],"parents":[2147483647,0,0,1,1,2,2,3,3,5,5,6,6,7,7,8,8,10,10,11,11,12,12,14,14,18,18,21,21],"right_children":[2,4,6,8,-1,10,12,14,16,-1,18,20,22,-1,24,-1,-1,-1,26,-1,-1,28,-1,-1,-1,-1,-1,-1,-1],"split_conditions":[9.798534E-1,1.007645E0,1.0119743E0,1.5833333E2,5.6508657E-2,NaN,7.986918E-1,6.497015E-1,1.7806667E2,5.272207E-2,1.4366667E2,7.0706177E-1,NaN,3.840412E-2,NaN,4.499159E-2,-2.3968268E-2,-6.640338E-2,1.0055076E0,-3.4361947E-2,4.3365955E-2,1.200672E0,1.7399123E-2,-7.67321E-2,6.972788E-3,-4.499945E-2,3.1519916E-2,-3.140163E-2,-7.4791126E-2],"split_indices":[12,15,11,8,0,4,17,11,8,0,10,17,0,0,0,0,0,0,12,0,0,11,0,0,0,0,0,0,0],"split_type":[0,0,0,0,0,1,0,0,0,0,0,0,1,0,1,0,0,0,0,0,0,0,0,0,0,0,0,0,0],"sum_hessian":[1.4356686E2,6.151815E1,8.204872E1,3.6888805E1,2.4629343E1,2.3797712E1,5.8251007E1,1.5632095E1,2.125671E1,7.840314E0,1.5957398E1,1.1129757E1,4.712125E1,5.1160083E0,1.0516088E1,1.6424023E1,4.8326883E0,4.0914116E0,1.1865987E1,6.0441546E0,5.0856023E0,4.319832E1,3.9229336E0,5.7218046E0,4.7942824E0,3.6154284E0,8.250559E0,1.8869707E1,2.4328611E1],"tree_param":{"num_deleted":"0","num_feature":"22","num_nodes":"29","size_leaf_vector":"1"}},{"base_weights":[-1.727684E-2,6.9178194E-1,-3.1020176E-1,-1.51296705E-2,8.801184E-1,-7.8932524E-2,-5.8960646E-1,6.122682E-2,-2.8376305E-3,-7.486533E-2,2.8229814E-2,3.067546E-2,-7.103783E-1,6.623838E-1,-1.8366118E-1,-8.145692E-1,2.4957232E-2,-1.94298E-2,5.804094E-2,-5.085693E-2,1.7840203E-3,-9.875413E-3,-6.0030006E-2],"categories":[0,1,2,3,4,5,6,7,8,9,10,11,12,13,14,15,16,17,18,19,20,21,22,23,24,25,26,27,28,29,30,31,32,33,34,35,36,37,38,39,40,41,42,43,44,45,46,47,48,49,50,51,52,53,54,55,56,57,58,59,60,61,62,63,64,65,66,67,68,69,70,71,72,73,74,75,76,77,78,79,80,81,82,83,84,85,86,87,88,89,90,91,92,93,94,95,96,97,98,99,100,101,102,103,104,105,106],"categories_nodes":[5],"categories_segments":[0],"categories_sizes":[107],"default_left":[1,1,0,0,0,0,0,0,0,0,0,0,0,0,0,1,0,0,0,0,0,0,0],"id":30,"left_children":[1,3,5,-1,7,9,11,-1,-1,-1,13,-1,15,17,19,21,-1,-1,-1,-1,-1,-1,-1],"loss_changes":[3.0234947E1,7.781475E0,6.607296E0,0E0,4.581156E0,7.2108774E0,6.531933E0,0E0,0E0,0E0,7.32763E0,0E0,5.2950706E0,4.368266E0,5.8038616E0,4.47484E0,0E0,0E0,0E0,0E0,0E0,0E0,0E0],"parents":[2147483647,0,0,1,1,2,2,4,4,5,5,6,6,10,10,12,12,13,13,14,14,15,15],"right_children":[2,4,6,-1,8,10,12,-1,-1,-1,14,-1,16,18,20,22,-1,-1,-1,-1,-1,-1,-1],"split_conditions":[8.270677E-1,8.623785E-1,1.1574132E0,-1.51296705E-2,1.77E2,NaN,9.737113E-1,6.122682E-2,-2.8376305E-3,-7.486533E-2,8.989569E-1,3.067546E-2,1.6211697E0,8.0999005E-1,1.468E2,1.5586667E2,2.4957232E-2,-1.94298E-2,5.804094E-2,-5.085693E-2,1.7840203E-3,-9.875413E-3,-6.0030006E-2],"split_indices":[11,20,11,0,8,5,12,0,0,0,21,0,12,17,10,8,0,0,0,0,0,0,0],"split_type":[0,0,0,0,0,1,0,0,0,0,0,0,0,0,0,0,0,0,0,0,0,0,0],"sum_hessian":[1.435364E2,4.1564083E1,1.0197233E2,6.862965E0,3.470112E1,5.6493748E1,4.547858E1,3.0151459E1,4.5496593E0,3.8664885E0,5.2627262E1,4.1836123E0,4.1294968E1,1.2647968E1,3.9979294E1,3.8047028E1,3.247941E0,2.9493911E0,9.698578E0,9.029749E0,3.0949543E1,8.755272E0,2.9291754E1],"tree_param":{"num_deleted":"0","num_feature":"22","num_nodes":"23","size_leaf_vector":"1"}},{"base_weights":[4.207867E-2,6.4025205E-1,-3.4028435E-1,7.258136E-1,-4.70377E-2,3.771449E-1,-5.125172E-1,4.8749223E-2,-1.1916841E-2,7.22033E-2,-3.816815E-2,-7.721161E-1,-2.0052023E-1,-4.3696094E-1,5.9775654E-2,3.294312E-2,-5.683249E-2,1.2446647E-1,-4.553222E-2,-5.4384828E-2,2.3180498E-2,6.0230844E-2,-4.1371822E-2,4.745435E-2,-1.7326089E-2],"categories":[],"categories_nodes":[],"categories_segments":[],"categories_sizes":[],"default_left":[0,0,0,0,0,0,0,0,0,0,0,0,0,0,0,0,0,1,0,0,0,0,0,0,0],"id":31,"left_children":[1,3,5,7,-1,9,11,-1,-1,-1,13,15,17,19,-1,21,-1,23,-1,-1,-1,-1,-1,-1,-1],"loss_changes":[3.5137825E1,7.851057E0,1.1782755E1,4.582121E0,0E0,6.4431405E0,6.0054874E0,0E0,0E0,0E0,5.950583E0,5.72937E0,6.577936E0,4.323504E0,0E0,6.4092035E0,0E0,6.660722E0,0E0,0E0,0E0,0E0,0E0,0E0,0E0],"parents":[2147483647,0,0,1,1,2,2,3,3,5,5,6,6,10,10,11,11,12,12,13,13,15,15,17,17],"right_children":[2,4,6,8,-1,10,12,-1,-1,-1,14,16,18,20,-1,22,-1,24,-1,-1,-1,-1,-1,-1,-1],"split_conditions":[9.153686E-1,1.2320642E0,9.2467606E-1,1.1295693E0,-4.70377E-2,9.217437E-1,1.0376632E0,4.8749223E-2,-1.1916841E-2,7.22033E-2,1.0513679E0,8.4454304E-1,1.3057461E0,1.622E2,5.9775654E-2,1.1814065E0,-5.683249E-2,1.5095833E2,-4.553222E-2,-5.4384828E-2,2.3180498E-2,6.0230844E-2,-4.1371822E-2,4.745435E-2,-1.7326089E-2],"split_indices":[11,20,13,13,0,21,18,0,0,0,15,15,11,10,0,11,0,10,0,0,0,0,0,0,0],"split_type":[0,0,0,0,0,0,0,0,0,0,0,0,0,0,0,0,0,0,0,0,0,0,0,0,0],"sum_hessian":[1.51676E2,5.8883484E1,9.27925E1,5.6002342E1,2.8811405E0,1.773371E1,7.505879E1,5.144883E1,4.5535154E0,5.3176985E0,1.241601E1,4.0164738E1,3.489406E1,9.36879E0,3.0472202E0,7.2109547E0,3.2953785E1,2.250924E1,1.2384817E1,5.9139876E0,3.4548023E0,2.910899E0,4.3000555E0,8.274423E0,1.4234817E1],"tree_param":{"num_deleted":"0","num_feature":"22","num_nodes":"25","size_leaf_vector":"1"}},{"base_weights":[1.389546E-1,5.2020085E-1,-1.7793505E-1,-2.4915767E-1,6.3842505E-1,3.1640655E-1,-3.6059386E-1,2.6495013E-2,-7.05641E-2,4.073002E-1,6.350449E-2,4.77793E-2,-2.0453304E-2,3.6288682E-2,-4.5651263E-1,5.845992E-2,1.6998346E-1,-7.567141E-1,-1.7533648E-1,-2.4921423E-2,2.6667833E-2,-2.4496976E-2,-7.846431E-2,-5.4888025E-2,1.0252544E-2],"categories":[0,1,2,3,4,5,6,7,8,9,10,11,12,13,14,15,16,17,18,19,20,21,22,23,24,25,26,27,28,29,30,31,32,33,34,35,36,37,38,39,40,41,42,43,44,45,46,47,48,49,50,51,0,3],"categories_nodes":[3,5],"categories_segments":[0,52],"categories_sizes":[52,2],"default_left":[0,0,0,1,0,1,0,0,0,0,0,0,0,0,0,0,0,1,0,0,0,0,0,0,0],"id":32,"left_children":[1,3,5,7,9,11,13,-1,-1,15,-1,-1,-1,-1,17,-1,19,21,23,-1,-1,-1,-1,-1,-1],"loss_changes":[1.7459492E1,6.1171417E0,7.2696886E0,6.5244026E0,5.06271E0,7.1322947E0,5.6655517E0,0E0,0E0,4.9626474E0,0E0,0E0,0E0,0E0,4.39332E0,0E0,4.6765037E0,4.3707924E0,7.5340996E0,0E0,0E0,0E0,0E0,0E0,0E0],"parents":[2147483647,0,0,1,1,2,2,3,3,4,4,5,5,6,6,9,9,14,14,16,16,17,17,18,18],"right_children":[2,4,6,8,10,12,14,-1,-1,16,-1,-1,-1,-1,18,-1,20,22,24,-1,-1,-1,-1,-1,-1],"split_conditions":[9.677383E-1,1.414E2,9.7561926E-1,NaN,1.041487E0,NaN,8.23398E-1,2.6495013E-2,-7.05641E-2,6.296296E-1,6.350449E-2,4.77793E-2,-2.0453304E-2,3.6288682E-2,1.0345951E0,5.845992E-2,7.7806413E-1,1.0337887E0,9.8708975E-1,-2.4921423E-2,2.6667833E-2,-2.4496976E-2,-7.846431E-2,-5.4888025E-2,1.0252544E-2],"split_indices":[13,8,11,3,15,4,15,0,0,7,0,0,0,0,18,0,18,21,15,0,0,0,0,0,0],"split_type":[0,0,0,1,0,1,0,0,0,0,0,0,0,0,0,0,0,0,0,0,0,0,0,0,0],"sum_hessian":[1.4275053E2,6.4504425E1,7.824611E1,8.4443445E0,5.606008E1,2.0913715E1,5.733239E1,5.1337595E0,3.3105848E0,3.7324337E1,1.8735746E1,1.1985969E1,8.927746E0,4.7128286E0,5.2619564E1,1.01407995E1,2.7183537E1,2.4630856E1,2.7988707E1,8.495378E0,1.868816E1,1.6084019E1,8.546838E0,8.417231E0,1.9571476E1],"tree_param":{"num_deleted":"0","num_feature":"22","num_nodes":"25","size_leaf_vector":"1"}},{"base_weights":[3.7884547E-3,2.660427E-1,-7.195524E-1,7.0107406E-1,3.4098E-2,3.2418087E-2,-4.992897E-2,-4.794868E-3,5.483924E-2,-4.3475214E-2,7.130912E-2,3.02225E-2,-1.9767186E-1,-1.731329E-2,6.074447E-2],"categories":[],"categories_nodes":[],"categories_segments":[],"categories_sizes":[],"default_left":[1,1,0,0,0,0,0,0,0,1,0,0,0,0,0],"id":33,"left_children":[1,3,5,7,9,-1,-1,-1,-1,11,-1,-1,13,-1,-1],"loss_changes":[2.9515795E1,1.149731E1,6.167465E0,6.570402E0,6.7915874E0,0E0,0E0,0E0,0E0,6.1319113E0,0E0,0E0,6.435434E0,0E0,0E0],"parents":[2147483647,0,0,1,1,2,2,3,3,4,4,9,9,12,12],"right_children":[2,4,6,8,10,-1,-1,-1,-1,12,-1,-1,14,-1,-1],"split_conditions":[1.200672E0,8.033819E-1,9.7647715E-1,6.6716087E-1,1.5862299E0,3.2418087E-2,-4.992897E-2,-4.794868E-3,5.483924E-2,8.9394647E-1,7.130912E-2,3.02225E-2,1.818E2,-1.731329E-2,6.074447E-2],"split_indices":[11,11,12,17,17,0,0,0,0,21,0,0,8,0,0],"split_type":[0,0,0,0,0,0,0,0,0,0,0,0,0,0,0],"sum_hessian":[1.5358347E2,1.13180855E2,4.0402615E1,3.865592E1,7.452493E1,2.9306765E0,3.747194E1,8.32143E0,3.0334486E1,7.071864E1,3.806294E0,1.5087377E1,5.5631264E1,5.2481987E1,3.1492794E0],"tree_param":{"num_deleted":"0","num_feature":"22","num_nodes":"15","size_leaf_vector":"1"}},{"base_weights":[1.8966561E-2,3.2516547E-2,-1.5107808E-1,-3.2816865E-2,-5.4109234E-1,-2.8196463E-1,2.5611863E-1,1.1688875E-1,-6.2729955E-2,-4.209622E-1,5.5237602E-2,5.4798317E-1,-1.8549372E-1,-4.382555E-2,4.414546E-2,-5.3219315E-2,-5.981926E-3,-1.0210461E-2,4.97855E-2,-3.0095376E-2,5.1190518E-2],"categories":[0,1,2,3,4,5,6,7,8,9,10,11,12,13,14,15,16,17,18,19,20,21,22,23,24,25,26,27,28,29,30,31,32,33,34,35,36,37,38,39,40,41,42,43,44],"categories_nodes":[6],"categories_segments":[0],"categories_sizes":[45],"default_left":[1,0,0,0,0,0,1,0,0,1,0,0,0,0,0,0,0,0,0,0,0],"id":34,"left_children":[1,-1,3,5,7,9,11,13,-1,15,-1,17,19,-1,-1,-1,-1,-1,-1,-1,-1],"loss_changes":[1.2525334E1,0E0,4.901369E0,6.04006E0,8.279548E0,7.887784E0,5.1167316E0,6.573791E0,0E0,6.0187645E0,0E0,4.881424E0,5.711147E0,0E0,0E0,0E0,0E0,0E0,0E0,0E0,0E0],"parents":[2147483647,0,0,2,2,3,3,4,4,5,5,6,6,7,7,9,9,11,11,12,12],"right_children":[2,-1,4,6,8,10,12,14,-1,16,-1,18,20,-1,-1,-1,-1,-1,-1,-1,-1],"split_conditions":[8.435677E-1,3.2516547E-2,1.1566983E0,1.0466741E0,1.507E2,1.78E2,NaN,1.0383673E0,-6.2729955E-2,1.62E2,5.5237602E-2,9.4359636E-1,1.4166666E0,-4.382555E-2,4.414546E-2,-5.3219315E-2,-5.981926E-3,-1.0210461E-2,4.97855E-2,-3.0095376E-2,5.1190518E-2],"split_indices":[13,0,12,18,10,10,5,20,0,8,0,13,6,0,0,0,0,0,0,0,0],"split_type":[0,0,0,0,0,0,1,0,0,0,0,0,0,0,0,0,0,0,0,0,0],"sum_hessian":[1.3941185E2,3.3760796E1,1.05651054E2,8.1900955E1,2.3750093E1,4.3991455E1,3.7909504E1,1.059721E1,1.3152884E1,4.000489E1,3.9865632E0,2.2679562E1,1.5229941E1,4.3938622E0,6.2033477E0,1.5679007E1,2.4325886E1,6.459319E0,1.6220242E1,1.2080312E1,3.1496294E0],"tree_param":{"num_deleted":"0","num_feature":"22","num_nodes":"21","size_leaf_vector":"1"}},{"base_weights":[1.253692E-3,6.620924E-1,-3.3687723E-1,-1.2906709E-2,4.799607E-2,-6.2631893E-1,8.354246E-2,1.5766412E-2,-7.4144006E-1,5.7132727E-1,-4.744259E-1,-4.9284346E-2,2.6606906E-2,-1.0965514E-2,8.882978E-1,2.9838564E-2,-4.5610484E-2,8.202614E-2,1.5659122E-2],"categories":[],"categories_nodes":[],"categories_segments":[],"categories_sizes":[],"default_left":[1,0,0,0,0,0,0,0,0,0,0,0,0,0,1,0,0,0,0],"id":35,"left_children":[1,3,5,-1,-1,7,9,-1,11,13,15,-1,-1,-1,17,-1,-1,-1,-1],"loss_changes":[3.387238E1,6.25041E0,1.2255231E1,0E0,0E0,6.27923E0,1.1639896E1,0E0,5.2009735E0,5.5930576E0,5.878864E0,0E0,0E0,0E0,4.465166E0,0E0,0E0,0E0,0E0],"parents":[2147483647,0,0,1,1,2,2,5,5,6,6,8,8,9,9,10,10,14,14],"right_children":[2,4,6,-1,-1,8,10,-1,12,14,16,-1,-1,-1,18,-1,-1,-1,-1],"split_conditions":[8.7882113E-1,1.4011111E2,1.0251265E0,-1.2906709E-2,4.799607E-2,8.23398E-1,1.1693829E0,1.5766412E-2,2.1E1,9.7388834E-1,8.876429E-1,-4.9284346E-2,2.6606906E-2,-1.0965514E-2,9.9396974E-1,2.9838564E-2,-4.5610484E-2,8.202614E-2,1.5659122E-2],"split_indices":[11,8,15,0,0,15,11,0,7,11,16,0,0,0,21,0,0,0,0],"split_type":[0,0,0,0,0,0,0,0,0,0,0,0,0,0,0,0,0,0,0],"sum_hessian":[1.4959E2,5.030888E1,9.928112E1,6.6442027E0,4.3664677E1,5.8509785E1,4.077134E1,6.566995E0,5.1942787E1,2.1741035E1,1.9030302E1,4.9049717E1,2.8930712E0,6.56368E0,1.5177356E1,4.1309867E0,1.4899316E1,7.982026E0,7.1953297E0],"tree_param":{"num_deleted":"0","num_feature":"22","num_nodes":"19","size_leaf_vector":"1"}},{"base_weights":[9.809778E-2,2.4434182E-1,-4.020924E-1,4.1191277E-1,-1.0095899E-1,3.5736687E-2,-4.6642087E-2,6.010007E-1,2.0461455E-2,-3.8717587E-2,3.9516714E-1,4.5363113E-2,-1.5062931E-2,-2.8417556E-2,6.049512E-1,7.2027344E-1,-2.8082492E-2,-3.9900173E-3,8.279502E-2,-1.2721162E-2,6.220183E-2],"categories":[0],"categories_nodes":[7],"categories_segments":[0],"categories_sizes":[1],"default_left":[0,0,0,0,0,0,0,1,0,0,1,0,0,0,0,0,0,0,0,0,0],"id":36,"left_children":[1,3,5,7,9,-1,-1,11,13,-1,15,-1,-1,-1,17,19,-1,-1,-1,-1,-1],"loss_changes":[1.0066118E1,6.1785088E0,1.204041E1,5.287759E0,9.791745E0,0E0,0E0,6.4530888E0,7.2973537E0,0E0,5.696024E0,0E0,0E0,0E0,6.0776634E0,4.3835435E0,0E0,0E0,0E0,0E0,0E0],"parents":[2147483647,0,0,1,1,2,2,3,3,4,4,7,7,8,8,10,10,14,14,15,15],"right_children":[2,4,6,8,10,-1,-1,12,14,-1,16,-1,-1,-1,18,20,-1,-1,-1,-1,-1],"split_conditions":[1.112092E0,1.0301806E0,4.273326E-1,1.0119743E0,1.556E2,3.5736687E-2,-4.6642087E-2,NaN,1.0376632E0,-3.8717587E-2,1.766E2,4.5363113E-2,-1.5062931E-2,-2.8417556E-2,1.0298319E0,6.3416857E-1,-2.8082492E-2,-3.9900173E-3,8.279502E-2,-1.2721162E-2,6.220183E-2],"split_indices":[12,20,19,11,10,0,0,4,18,0,8,0,0,0,15,18,0,0,0,0,0],"split_type":[0,0,0,0,0,0,0,1,0,0,0,0,0,0,0,0,0,0,0,0,0],"sum_hessian":[1.3526648E2,1.0506067E2,3.0205809E1,7.060425E1,3.4456425E1,8.065193E0,2.2140615E1,4.724672E1,2.3357527E1,1.6322296E1,1.8134129E1,4.0164E1,7.082715E0,1.2780525E1,1.0577001E1,1.3285516E1,4.8486123E0,6.140644E0,4.4363565E0,3.4226813E0,9.862835E0],"tree_param":{"num_deleted":"0","num_feature":"22","num_nodes":"21","size_leaf_vector":"1"}},{"base_weights":[8.008449E-2,5.048909E-1,-1.896006E-1,1.8041715E-2,6.1130133E-2,-9.501306E-5,-3.2294728E-2],"categories":[],"categories_nodes":[],"categories_segments":[],"categories_sizes":[],"default_left":[1,0,0,0,0,0,0],"id":37,"left_children":[1,3,5,-1,-1,-1,-1],"loss_changes":[1.5812626E1,5.305395E0,5.5192757E0,0E0,0E0,0E0,0E0],"parents":[2147483647,0,0,1,1,2,2],"right_children":[2,4,6,-1,-1,-1,-1],"split_conditions":[9.6851075E-1,1.041487E0,1.229658E0,1.8041715E-2,6.1130133E-2,-9.501306E-5,-3.2294728E-2],"split_indices":[12,15,11,0,0,0,0],"split_type":[0,0,0,0,0,0,0],"sum_hessian":[1.3618886E2,5.254621E1,8.364264E1,3.8614136E1,1.39320755E1,5.489175E1,2.875089E1],"tree_param":{"num_deleted":"0","num_feature":"22","num_nodes":"7","size_leaf_vector":"1"}},{"base_weights":[-5.6299113E-2,2.2415248E-1,-5.285961E-1,-1.360773E-1,5.392805E-1,1.4595807E-1,-7.216677E-1,1.2923217E-1,-7.019281E-1,-7.143201E-2,4.263976E-2,5.0033756E-2,-2.5574502E-2,2.5463164E-2,-4.9714483E-2,-4.2953664E-1,4.5230848E-1,-7.760279E-2,1.19146705E-2,2.562341E-2,-5.6012873E-2,3.445417E-2,-7.016381E-2,4.5562405E-2,-4.282387E-2],"categories":[0,1,2],"categories_nodes":[5],"categories_segments":[0],"categories_sizes":[3],"default_left":[1,0,0,0,1,1,0,0,1,0,0,0,0,0,0,0,0,0,0,0,0,0,0,0,0],"id":38,"left_children":[1,3,5,7,9,11,13,15,17,19,-1,-1,-1,-1,-1,21,23,-1,-1,-1,-1,-1,-1,-1,-1],"loss_changes":[1.7694944E1,9.604369E0,6.5828648E0,6.0919647E0,4.6940823E0,5.006786E0,4.979414E0,5.259682E0,7.0790854E0,4.9476066E0,0E0,0E0,0E0,0E0,0E0,8.625117E0,7.0117683E0,0E0,0E0,0E0,0E0,0E0,0E0,0E0,0E0],"parents":[2147483647,0,0,1,1,2,2,3,3,4,4,5,5,6,6,7,7,8,8,9,9,15,15,16,16],"right_children":[2,4,6,8,10,12,14,16,18,20,-1,-1,-1,-1,-1,22,24,-1,-1,-1,-1,-1,-1,-1,-1],"split_conditions":[1.0680739E0,9.258038E-1,8.665654E-1,1.0379769E0,1.5146666E2,NaN,8.7397784E-1,5.9090906E-1,1.0820755E0,1.47E2,4.263976E-2,5.0033756E-2,-2.5574502E-2,2.5463164E-2,-4.9714483E-2,6.369187E-1,1.0173084E0,-7.760279E-2,1.19146705E-2,2.562341E-2,-5.6012873E-2,3.445417E-2,-7.016381E-2,4.5562405E-2,-4.282387E-2],"split_indices":[11,16,14,20,8,4,13,6,20,8,0,0,0,0,0,11,11,0,0,0,0,0,0,0,0],"split_type":[0,0,0,0,0,1,0,0,0,0,0,0,0,0,0,0,0,0,0,0,0,0,0,0,0],"sum_hessian":[1.3169615E2,8.2959755E1,4.8736393E1,3.8974888E1,4.3984867E1,1.0899546E1,3.7836845E1,2.7059269E1,1.1915617E1,9.659663E0,3.4325207E1,4.7461567E0,6.153389E0,2.900427E0,3.493642E1,9.792818E0,1.726645E1,6.948877E0,4.9667406E0,6.438512E0,3.221151E0,4.2414246E0,5.5513935E0,1.3962059E1,3.3043923E0],"tree_param":{"num_deleted":"0","num_feature":"22","num_nodes":"25","size_leaf_vector":"1"}},{"base_weights":[-5.42523E-2,1.5911327E-1,-6.469369E-1,-2.4915392E-2,3.8764417E-2,-4.562193E-2,2.2651883E-2,2.542097E-1,-3.4491947E-1,5.618654E-1,-1.8434645E-1,3.3111456E-1,-6.210425E-1,-1.2296172E-3,5.54329E-2,3.1445883E-2,-4.8994478E-2,5.208126E-2,-3.1114208E-2,-5.603383E-2,5.7948814E-3],"categories":[0,1,2,3,4,5,6,7,8,9,10,13,14,15,16,17,19,20,21,22,23,24,25,26,27,28,29,30,31,32,33,34,36,37,38,39,40,41,42,43,44,45,46,47,48,49,50,51,52,69,79,0,2],"categories_nodes":[3,11],"categories_segments":[0,51],"categories_sizes":[51,2],"default_left":[1,0,0,1,0,0,0,0,0,0,1,1,0,0,0,0,0,0,0,0,0],"id":39,"left_children":[1,3,5,7,-1,-1,-1,9,11,13,15,17,19,-1,-1,-1,-1,-1,-1,-1,-1],"loss_changes":[1.8200512E1,9.476117E0,4.606312E0,7.038658E0,0E0,0E0,0E0,5.789366E0,7.0525365E0,5.2469134E0,8.489519E0,5.5592394E0,5.9531507E0,0E0,0E0,0E0,0E0,0E0,0E0,0E0,0E0],"parents":[2147483647,0,0,1,1,2,2,3,3,7,7,8,8,9,9,10,10,11,11,12,12],"right_children":[2,4,6,8,-1,-1,-1,10,12,14,16,18,20,-1,-1,-1,-1,-1,-1,-1,-1],"split_conditions":[1.200672E0,1.0513679E0,1.9351792E0,NaN,3.8764417E-2,-4.562193E-2,2.2651883E-2,1.0627878E0,7.882063E-1,1.5027272E2,8.586427E-1,NaN,1.4901961E0,-1.2296172E-3,5.54329E-2,3.1445883E-2,-4.8994478E-2,5.208126E-2,-3.1114208E-2,-5.603383E-2,5.7948814E-3],"split_indices":[11,15,13,3,0,0,0,21,14,10,11,4,7,0,0,0,0,0,0,0,0],"split_type":[0,0,0,1,0,0,0,0,0,0,0,1,0,0,0,0,0,0,0,0,0],"sum_hessian":[1.421108E2,1.0503124E2,3.7079556E1,7.682003E1,2.8211212E1,3.3687626E1,3.3919287E0,4.1140575E1,3.567946E1,2.401348E1,1.7127094E1,1.0289193E1,2.5390266E1,9.517346E0,1.4496134E1,8.14906E0,8.978034E0,6.3008432E0,3.9883497E0,1.7524885E1,7.8653812E0],"tree_param":{"num_deleted":"0","num_feature":"22","num_nodes":"21","size_leaf_vector":"1"}},{"base_weights":[1.0646918E-2,3.259281E-2,-3.2685444E-1,-7.334E-2,-7.4682486E-1,-1.0550889E-2,5.3077906E-2,-5.2471686E-2,2.1632742E-2],"categories":[],"categories_nodes":[],"categories_segments":[],"categories_sizes":[],"default_left":[0,0,0,1,0,0,0,0,0],"id":40,"left_children":[1,-1,3,5,7,-1,-1,-1,-1],"loss_changes":[2.4511726E1,0E0,8.853029E0,5.340958E0,4.6458282E0,0E0,0E0,0E0,0E0],"parents":[2147483647,0,0,2,2,3,3,4,4],"right_children":[2,-1,4,6,8,-1,-1,-1,-1],"split_conditions":[9.5917135E-1,3.259281E-2,1.200672E0,1.1199464E0,2.875E0,-1.0550889E-2,5.3077906E-2,-5.2471686E-2,2.1632742E-2],"split_indices":[12,0,11,20,6,0,0,0,0],"split_type":[0,0,0,0,0,0,0,0,0],"sum_hessian":[1.3484756E2,5.2181557E1,8.266601E1,5.228119E1,3.038482E1,4.7977383E1,4.303805E0,2.7494898E1,2.8899233E0],"tree_param":{"num_deleted":"0","num_feature":"22","num_nodes":"9","size_leaf_vector":"1"}},{"base_weights":[1.428562E-2,2.787415E-1,-7.533187E-1,6.5911984E-1,1.21026985E-1,1.38968015E-2,-5.409737E-2,2.3388897E-1,7.199085E-2,-4.8476513E-3,3.847072E-2,4.8982024E-2,-2.5109434E-1,-6.270992E-2,1.0323153E-1,2.0857932E-2,-5.298502E-2,-1.3835147E-3,5.318818E-2],"categories":[0,1,2,3,4,5,6,7,8,9,10,11,12,13,14,15,16,17,18,19,20,21,22,23,24,25,26,27,28,29,30,31,32,33,34,35,36,37,38,39,40,41,42,43,44,45,46,47,48,49,50,51,52,53,54,55,56,57,58,59,60,61,62,63,64,65,66,67,68,69,70,71,72,73,74,75,76,77,78,79,80,81,82,83,84,85,86,87,88,89,90,91,92,93,94,95,96,97,98,99,100,101],"categories_nodes":[9],"categories_segments":[0],"categories_sizes":[102],"default_left":[1,1,0,0,0,0,0,0,0,0,0,0,0,0,0,0,0,0,0],"id":41,"left_children":[1,3,5,7,9,-1,-1,11,-1,13,-1,-1,15,-1,17,-1,-1,-1,-1],"loss_changes":[3.0079597E1,6.5293818E0,5.63801E0,7.038886E0,5.1610885E0,0E0,0E0,5.5844383E0,0E0,7.350281E0,0E0,0E0,4.508708E0,0E0,5.874225E0,0E0,0E0,0E0,0E0],"parents":[2147483647,0,0,1,1,2,2,3,3,4,4,7,7,9,9,12,12,14,14],"right_children":[2,4,6,8,10,-1,-1,12,-1,14,-1,-1,16,-1,18,-1,-1,-1,-1],"split_conditions":[1.200672E0,7.516798E-1,4.8563387E-2,9.4321334E-1,1.0823137E0,1.38968015E-2,-5.409737E-2,1.0660875E0,7.199085E-2,NaN,3.847072E-2,4.8982024E-2,9.69853E-1,-6.270992E-2,1.625E0,2.0857932E-2,-5.298502E-2,-1.3835147E-3,5.318818E-2],"split_indices":[11,11,19,16,15,0,0,21,0,5,0,0,20,0,6,0,0,0,0],"split_type":[0,0,0,0,0,0,0,0,0,1,0,0,0,0,0,0,0,0,0],"sum_hessian":[1.4614278E2,1.09168724E2,3.697406E1,3.1065435E1,7.810329E1,4.6810536E0,3.2293007E1,1.8134346E1,1.293109E1,6.363193E1,1.4471353E1,7.95134E0,1.0183005E1,5.191323E0,5.844061E1,5.4525566E0,4.7304487E0,5.11393E1,7.3013067E0],"tree_param":{"num_deleted":"0","num_feature":"22","num_nodes":"19","size_leaf_vector":"1"}},{"base_weights":[-4.826257E-2,3.348657E-1,-2.725477E-1,2.4056914E-3,3.9316464E-2,-3.5082364E-1,3.2072123E-2,-5.710869E-1,-9.101454E-2,-5.305063E-2,-1.7654514E-1,-5.470443E-2,7.5452745E-2,5.2325796E-2,-3.057907E-2,2.2197189E-2,-3.2968707E-2],"categories":[3],"categories_nodes":[12],"categories_segments":[0],"categories_sizes":[1],"default_left":[0,0,0,0,0,0,0,1,1,0,0,0,1,0,0,0,0],"id":42,"left_children":[1,3,5,-1,-1,7,-1,9,11,-1,13,-1,15,-1,-1,-1,-1],"loss_changes":[1.1318107E1,4.5434546E0,5.4163833E0,0E0,0E0,4.3094482E0,0E0,4.8683987E0,4.99029E0,0E0,7.1374288E0,0E0,5.860408E0,0E0,0E0,0E0,0E0],"parents":[2147483647,0,0,1,1,2,2,5,5,7,7,8,8,10,10,12,12],"right_children":[2,4,6,-1,-1,8,-1,10,12,-1,14,-1,16,-1,-1,-1,-1],"split_conditions":[9.5917135E-1,9.7140944E-1,1.8178572E2,2.4056914E-3,3.9316464E-2,1.0376632E0,3.2072123E-2,1.662E2,8.034789E-1,-5.305063E-2,9.5603764E-1,-5.470443E-2,NaN,5.2325796E-2,-3.057907E-2,2.2197189E-2,-3.2968707E-2],"split_indices":[12,15,10,0,0,18,0,8,21,0,13,0,4,0,0,0,0],"split_type":[0,0,0,0,0,0,0,0,0,0,0,0,1,0,0,0,0],"sum_hessian":[1.2965103E2,4.769111E1,8.195993E1,2.5336996E1,2.2354115E1,7.5213524E1,6.7464027E0,4.0056217E1,3.515731E1,2.1735872E1,1.8320345E1,5.1925254E0,2.9964785E1,4.0182858E0,1.4302059E1,2.0652645E1,9.312139E0],"tree_param":{"num_deleted":"0","num_feature":"22","num_nodes":"17","size_leaf_vector":"1"}},{"base_weights":[6.87236E-3,5.1757944E-1,-2.6797158E-1,-4.429812E-1,7.126059E-1,-6.192375E-2,-7.219047E-1,-6.197826E-2,2.2800473E-2,5.1042926E-2,-1.0211439E-2,-7.887199E-2,4.7051113E-2,2.6085395E-3,-5.9112463E-2,-1.8342604E-1,5.338327E-1,-1.9508284E-2,5.0989736E-2,7.8605205E-2,1.1142778E-2],"categories":[0,1,2,3,4,5,6,7,8,9,10,11,12,13,14,15,16,17,18,19,20,21,22,23,24,25,26,27,28,29,30,31,32,33,34,35,36,37,38,39,40,41,42,43,44,45,46,47,48,49,50,51,52,53,54,55,56,57,58,59,60,61,62,63,64,65,66,67,68,69,70,71,72,73,74,75,76,77,78,79,80,81,82,83,84,85,86,87,88,89,90,91,92,93,94,95,96,97,98,99,100,101,102,103],"categories_nodes":[5],"categories_segments":[0],"categories_sizes":[104],"default_left":[1,0,0,0,0,0,0,0,0,0,0,0,0,0,0,0,1,0,0,0,0],"id":43,"left_children":[1,3,5,7,9,11,13,-1,-1,-1,-1,-1,15,-1,-1,17,19,-1,-1,-1,-1],"loss_changes":[1.9802893E1,9.561807E0,8.535667E0,4.7020254E0,5.086128E0,8.79329E0,5.7229137E0,0E0,0E0,0E0,0E0,0E0,6.8296432E0,0E0,0E0,6.2833295E0,5.0172586E0,0E0,0E0,0E0,0E0],"parents":[2147483647,0,0,1,1,2,2,3,3,4,4,5,5,6,6,12,12,15,15,16,16],"right_children":[2,4,6,8,10,12,14,-1,-1,-1,-1,-1,16,-1,-1,18,20,-1,-1,-1,-1],"split_conditions":[8.7882113E-1,5.725872E-1,1.1218089E0,1.6513333E2,1.774E2,NaN,4.273326E-1,-6.197826E-2,2.2800473E-2,5.1042926E-2,-1.0211439E-2,-7.887199E-2,1.041487E0,2.6085395E-3,-5.9112463E-2,1.7284616E2,9.231938E-1,-1.9508284E-2,5.0989736E-2,7.8605205E-2,1.1142778E-2],"split_indices":[11,16,12,8,8,5,19,0,0,0,0,0,15,0,0,10,17,0,0,0,0],"split_type":[0,0,0,0,0,1,0,0,0,0,0,0,0,0,0,0,0,0,0,0,0],"sum_hessian":[1.3909355E2,4.8356228E1,9.073733E1,7.9464283E0,4.04098E1,6.3190514E1,2.7546812E1,4.4891343E0,3.4572937E0,3.5070885E1,5.3389177E0,4.188708E0,5.900181E1,7.197834E0,2.0348978E1,4.046566E1,1.8536146E1,3.620937E1,4.2562904E0,4.914375E0,1.3621771E1],"tree_param":{"num_deleted":"0","num_feature":"22","num_nodes":"21","size_leaf_vector":"1"}},{"base_weights":[-1.2650955E-2,1.4209852E-1,-5.511413E-1,3.3121037E-1,-1.6282725E-1,2.7986156E-2,-4.23189E-2,3.529771E-2,-9.062815E-2,-6.848659E-2,-4.648797E-2,-5.608909E-1,2.6394146E-2,1.7230848E-2,-2.8162023E-2,1.9188004E-2,-6.2319126E-2],"categories":[0,3,0,1,2,3,4,5,6,7,8,9,10,13,14,15,16,17,18,19,20,21,22,23,24,25,26,27,28,29,30,31,32,33,34,36,37,38,39,40,41,42,43,44,45,46,47,48,49,50,51,52,79],"categories_nodes":[1,3],"categories_segments":[0,2],"categories_sizes":[2,51],"default_left":[1,1,1,1,0,0,0,0,0,0,0,0,0,0,0,0,0],"id":44,"left_children":[1,3,5,7,9,-1,-1,-1,11,-1,13,15,-1,-1,-1,-1,-1],"loss_changes":[1.1705464E1,6.34968E0,5.163233E0,7.3409314E0,4.7627907E0,0E0,0E0,0E0,6.810833E0,0E0,5.5977664E0,6.3412905E0,0E0,0E0,0E0,0E0,0E0],"parents":[2147483647,0,0,1,1,2,2,3,3,4,4,8,8,10,10,11,11],"right_children":[2,4,6,8,10,-1,-1,-1,12,-1,14,16,-1,-1,-1,-1,-1],"split_conditions":[1.2350245E0,NaN,1.43E2,NaN,1.414E2,2.7986156E-2,-4.23189E-2,3.529771E-2,1.0200285E0,-6.848659E-2,9.9008536E-1,8.125E-1,2.6394146E-2,1.7230848E-2,-2.8162023E-2,1.9188004E-2,-6.2319126E-2],"split_indices":[11,4,8,3,8,0,0,0,18,0,12,6,0,0,0,0,0],"split_type":[0,1,0,1,0,0,0,0,0,0,0,0,0,0,0,0,0],"sum_hessian":[1.3852953E2,1.08177864E2,3.035166E1,6.671543E1,4.1462433E1,3.6778872E0,2.6673773E1,4.132928E1,2.5386152E1,3.48472E0,3.7977715E1,1.3408166E1,1.1977986E1,2.1399359E1,1.6578354E1,4.8120384E0,8.5961275E0],"tree_param":{"num_deleted":"0","num_feature":"22","num_nodes":"17","size_leaf_vector":"1"}},{"base_weights":[-9.8990705E-3,2.9947412E-1,-1.9429056E-1,5.096095E-1,-3.3555474E-2,4.0884517E-2,-1.8642893E-2,2.2475664E-1,6.1139166E-2,3.458543E-2,-4.242153E-1,-5.8176037E-2,4.00937E-2],"categories":[12,17,52,0,1,2,3,4,5,6,7,8,9,10,11,13,14,15,16,17,18,19,20,21,22,23,24,25,26,27,28,29,30,31,32,33,34,35,36,37,38,39,40,41,42,43,44,45,46,47,48,49,50,51,52,53,54,55,56,57,58,59,60,61,62,63,64,65,66,68,69,70,71,72,73,74,75,76,77,78,79,80,2],"categories_nodes":[1,2,3],"categories_segments":[0,3,82],"categories_sizes":[3,79,1],"default_left":[0,1,0,1,0,0,0,0,0,0,1,0,0],"id":45,"left_children":[1,3,5,7,-1,-1,-1,9,-1,-1,11,-1,-1],"loss_changes":[7.5015306E0,9.128585E0,8.511193E0,5.5325603E0,0E0,0E0,0E0,6.33963E0,0E0,0E0,6.5428495E0,0E0,0E0],"parents":[2147483647,0,0,1,1,2,2,3,3,7,7,10,10],"right_children":[2,4,6,8,-1,-1,-1,10,-1,-1,12,-1,-1],"split_conditions":[9.153686E-1,NaN,NaN,NaN,-3.3555474E-2,4.0884517E-2,-1.8642893E-2,1.0311338E0,6.1139166E-2,3.458543E-2,1.07285E0,-5.8176037E-2,4.00937E-2],"split_indices":[11,3,3,2,0,0,0,20,0,0,20,0,0],"split_type":[0,1,1,1,0,0,0,0,0,0,0,0,0],"sum_hessian":[1.294802E2,4.8120014E1,8.1360176E1,3.896878E1,9.151234E0,8.924271E0,7.2435905E1,2.585669E1,1.3112091E1,1.687626E1,8.980429E0,6.0736303E0,2.9067981E0],"tree_param":{"num_deleted":"0","num_feature":"22","num_nodes":"13","size_leaf_vector":"1"}},{"base_weights":[1.4601259E-2,3.819912E-1,-5.218793E-1,4.8505807E-1,-5.4147565E-1,4.7926924E-1,-6.576099E-1,7.222758E-1,1.20373264E-1,1.847566E-2,-6.653772E-2,-3.7762705E-2,7.77405E-2,-1.636462E-1,-5.383443E-2,-6.8369056E-3,5.4314416E-2,6.484128E-2,-2.2345857E-1,-4.3506853E-2,1.9453995E-2,-3.5549656E-2,4.2124033E-2],"categories":[17,52],"categories_nodes":[1],"categories_segments":[0],"categories_sizes":[2],"default_left":[1,1,0,1,0,1,0,1,0,0,0,0,0,0,0,0,0,0,0,0,0,0,0],"id":46,"left_children":[1,3,5,7,9,11,13,15,17,-1,-1,-1,-1,19,-1,-1,-1,-1,21,-1,-1,-1,-1],"loss_changes":[2.8351274E1,8.386514E0,8.261636E0,6.601244E0,4.6643014E0,7.603866E0,5.9227524E0,7.118183E0,1.0658421E1,0E0,0E0,0E0,0E0,5.143346E0,0E0,0E0,0E0,0E0,8.588577E0,0E0,0E0,0E0,0E0],"parents":[2147483647,0,0,1,1,2,2,3,3,4,4,5,5,6,6,7,7,8,8,13,13,18,18],"right_children":[2,4,6,8,10,12,14,16,18,-1,-1,-1,-1,20,-1,-1,-1,-1,22,-1,-1,-1,-1],"split_conditions":[1.0573043E0,NaN,9.211427E-1,8.8886195E-1,8.435677E-1,1.5493333E2,6.261895E-1,8.623785E-1,9.2464054E-1,1.847566E-2,-6.653772E-2,-3.7762705E-2,7.77405E-2,9.51303E-1,-5.383443E-2,-6.8369056E-3,5.4314416E-2,6.484128E-2,1.0202473E0,-4.3506853E-2,1.9453995E-2,-3.5549656E-2,4.2124033E-2],"split_indices":[11,3,13,11,13,10,19,20,21,0,0,0,0,15,0,0,0,0,15,0,0,0,0],"split_type":[0,1,0,0,0,0,0,0,0,0,0,0,0,0,0,0,0,0,0,0,0,0,0],"sum_hessian":[1.418324E2,8.435369E1,5.7478703E1,7.6311424E1,8.042272E0,6.5601315E0,5.091857E1,4.5641987E1,3.0669437E1,3.3927255E0,4.649546E0,2.873E0,3.6871316E0,1.7040703E1,3.387787E1,8.151175E0,3.749081E1,7.544359E0,2.3125078E1,7.706136E0,9.334567E0,1.6804035E1,6.3210425E0],"tree_param":{"num_deleted":"0","num_feature":"22","num_nodes":"23","size_leaf_vector":"1"}},{"base_weights":[-7.98228E-2,4.154864E-1,-6.0318065E-1,-1.9781563E-2,5.085402E-1,3.251873E-2,-4.670204E-2,8.258865E-1,2.6046836E-1,3.6697283E-2,-3.0207386E-2,6.1993364E-2,-2.1701287E-2,-4.208166E-3,6.581942E-2],"categories":[0,1,2,3,4,5,6,7,8,9,10,11,12,13,14,15,16,17,18,19,20,21,22,23,24,25,26,27,28,29,30,31,32,33,34,35,36,37,38,39,40,41,42,43,44,45,46,47,48,49,50,51,52,53],"categories_nodes":[5],"categories_segments":[0],"categories_sizes":[54],"default_left":[0,0,0,0,0,1,0,0,0,0,0,0,0,0,0],"id":47,"left_children":[1,3,5,-1,7,9,-1,11,13,-1,-1,-1,-1,-1,-1],"loss_changes":[3.5703823E1,5.073328E0,7.3665543E0,0E0,4.774021E0,5.0070167E0,0E0,6.9859695E0,1.0265623E1,0E0,0E0,0E0,0E0,0E0,0E0],"parents":[2147483647,0,0,1,1,2,2,4,4,5,5,7,7,8,8],"right_children":[2,4,6,-1,8,10,-1,12,14,-1,-1,-1,-1,-1,-1],"split_conditions":[1.0153847E0,6.4398205E-1,9.990774E-1,-1.9781563E-2,7.9168934E-1,NaN,-4.670204E-2,1.7786667E2,1.6557378E0,3.6697283E-2,-3.0207386E-2,6.1993364E-2,-2.1701287E-2,-4.208166E-3,6.581942E-2],"split_indices":[11,17,12,0,11,5,0,8,7,0,0,0,0,0,0],"split_type":[0,0,0,0,0,1,0,0,0,0,0,0,0,0,0],"sum_hessian":[1.3576672E2,6.98584E1,6.5908325E1,7.4838896E0,6.237451E1,1.424707E1,5.1661255E1,2.6344297E1,3.6030212E1,6.7816634E0,7.4654074E0,2.2593163E1,3.7511353E0,2.6453262E1,9.576952E0],"tree_param":{"num_deleted":"0","num_feature":"22","num_nodes":"15","size_leaf_vector":"1"}},{"base_weights":[4.062065E-2,1.9442791E-1,-4.702549E-2,3.1221876E-1,-3.2487143E-2,7.253007E-1,1.0741792E-1,5.2346807E-2,-3.6741965E-2,1.9942953E-1,-4.2984005E-2,-1.2443027E-2,2.335604E-2],"categories":[0,1,13,45,66,74,0],"categories_nodes":[1,6],"categories_segments":[0,6],"categories_sizes":[6,1],"default_left":[1,1,0,1,0,0,1,0,0,0,0,0,0],"id":48,"left_children":[1,3,-1,5,-1,7,9,-1,-1,11,-1,-1,-1],"loss_changes":[1.8222616E1,1.0651087E1,0E0,8.813621E0,0E0,7.2088737E0,5.5418696E0,0E0,0E0,5.059278E0,0E0,0E0,0E0],"parents":[2147483647,0,0,1,1,3,3,5,5,6,6,9,9],"right_children":[2,4,-1,6,-1,8,10,-1,-1,12,-1,-1,-1],"split_conditions":[1.2689285E0,NaN,-4.702549E-2,8.435677E-1,-3.2487143E-2,1.2490611E0,NaN,5.2346807E-2,-3.6741965E-2,9.69853E-1,-4.2984005E-2,-1.2443027E-2,2.335604E-2],"split_indices":[13,5,0,13,0,20,4,0,0,20,0,0,0],"split_type":[0,1,0,0,0,0,1,0,0,0,0,0,0],"sum_hessian":[1.4197041E2,1.2023084E2,2.1739563E1,1.04101395E2,1.612945E1,3.366262E1,7.0438774E1,3.0696386E1,2.9662328E0,6.402443E1,6.41434E0,2.026894E1,4.3755493E1],"tree_param":{"num_deleted":"0","num_feature":"22","num_nodes":"13","size_leaf_vector":"1"}},{"base_weights":[7.5000346E-2,4.251107E-1,-4.14813E-1,5.519094E-1,-3.1155327E-1,-1.6184297E-1,-5.974077E-2,7.6391995E-2,4.6130877E-2,-5.1949877E-2,2.517522E-2,1.0830355E-1,-4.390704E-2,4.2240735E-2,-2.2790946E-2,5.5545826E-2,-1.04705445E-1,-5.6739964E-2,6.9647194E-3],"categories":[12,17,52],"categories_nodes":[1],"categories_segments":[0],"categories_sizes":[3],"default_left":[1,1,1,0,0,0,0,1,0,0,0,0,0,0,0,0,0,0,0],"id":49,"left_children":[1,3,5,7,9,11,-1,13,-1,-1,-1,15,-1,-1,-1,-1,17,-1,-1],"loss_changes":[2.4446726E1,7.9274006E0,8.532625E0,7.199423E0,5.5241494E0,6.6057E0,0E0,6.8756547E0,0E0,0E0,0E0,5.2509522E0,0E0,0E0,0E0,0E0,4.6239557E0,0E0,0E0],"parents":[2147483647,0,0,1,1,2,2,3,3,4,4,5,5,7,7,11,11,16,16],"right_children":[2,4,6,8,10,12,-1,14,-1,-1,-1,16,-1,-1,-1,-1,18,-1,-1],"split_conditions":[1.0573043E0,NaN,1.0377197E0,8.374669E-1,9.833485E-1,1.2689285E0,-5.974077E-2,1.56125E2,4.6130877E-2,-5.1949877E-2,2.517522E-2,1.5666667E2,-4.390704E-2,4.2240735E-2,-2.2790946E-2,5.5545826E-2,9.56624E-1,-5.6739964E-2,6.9647194E-3],"split_indices":[11,3,21,16,20,13,0,8,0,0,0,8,0,0,0,0,20,0,0],"split_type":[0,1,0,0,0,0,0,0,0,0,0,0,0,0,0,0,0,0,0],"sum_hessian":[1.4052759E2,8.202768E1,5.8499905E1,7.019596E1,1.1831718E1,4.1571747E1,1.6928162E1,2.2234596E1,4.796136E1,6.6354127E0,5.1963058E0,2.8712946E1,1.28588E1,9.136299E0,1.3098296E1,5.2622833E0,2.3450663E1,4.2017493E0,1.9248913E1],"tree_param":{"num_deleted":"0","num_feature":"22","num_nodes":"19","size_leaf_vector":"1"}},{"base_weights":[5.457617E-2,4.2735708E-1,-1.8047202E-1,-8.2433954E-2,6.098479E-1,6.540406E-2,-2.596574E-1,3.1314693E-2,-3.8021233E-2,-3.9293993E-2,7.440546E-1,-7.213397E-2,-1.6232353E-1,6.069672E-2,1.2767869E-1,5.339133E-1,-2.956845E-1,-4.7504306E-2,4.2137492E-2,6.572188E-2,-6.284326E-3,1.5592164E-2,-2.9313458E-2],"categories":[0,1,2,3,4,5,6,7,8,9,10,11,12,13,14,15,16,17,18,19,20,21,22,23,24,25,26,27,28,29,30,31,32,33,34,35,36,37,38,39,40,41,42,43,44,45,46,47,48,49,50,51,52,53,54,55,56,57,58,59,60,61,62,63,64,65,66,67,68,69,70,71,72,73,74,75,76,77,78,79,80,81,82,83,84,85,86,87,88,89,90,91,92,93,94,95,96,97,98,99,100,101,102,103,104,1,2,3,0,1,2,3,4,5,6,7,8,9,10,11,12,13,14,15,16,17,18,19,20,21,22,23,24,25,26,27,28,29,30,31,32,33,34,36,37,38,39,40,41,42,43,44,45,46,47,48,49,50,51,52,53,54,55,56,57,69,79],"categories_nodes":[6,12,16],"categories_segments":[0,105,108],"categories_sizes":[105,3,59],"default_left":[1,0,0,0,0,0,0,0,0,0,0,0,1,0,0,1,1,0,0,0,0,0,0],"id":50,"left_children":[1,3,5,7,9,-1,11,-1,-1,-1,13,-1,15,-1,17,19,21,-1,-1,-1,-1,-1,-1],"loss_changes":[1.1600697E1,4.809244E0,8.444384E0,5.0824165E0,6.8887634E0,0E0,6.874817E0,0E0,0E0,0E0,5.509756E0,0E0,6.7751803E0,0E0,6.6034756E0,4.3200474E0,6.539479E0,0E0,0E0,0E0,0E0,0E0,0E0],"parents":[2147483647,0,0,1,1,2,2,3,3,4,4,6,6,10,10,12,12,14,14,15,15,16,16],"right_children":[2,4,6,8,10,-1,12,-1,-1,-1,14,-1,16,-1,18,20,22,-1,-1,-1,-1,-1,-1],"split_conditions":[9.153686E-1,5.714286E-1,7.835187E-1,6.369187E-1,4.4874653E-1,6.540406E-2,NaN,3.1314693E-2,-3.8021233E-2,-3.9293993E-2,1.0256996E0,-7.213397E-2,NaN,6.069672E-2,7.5365746E-1,1.64E2,NaN,-4.7504306E-2,4.2137492E-2,6.572188E-2,-6.284326E-3,1.5592164E-2,-2.9313458E-2],"split_indices":[11,6,13,11,13,0,5,0,0,0,20,0,4,0,7,8,3,0,0,0,0,0,0],"split_type":[0,0,0,0,0,0,1,0,0,0,0,0,1,0,0,0,1,0,0,0,0,0,0],"sum_hessian":[1.3051537E2,5.015405E1,8.036131E1,1.3365524E1,3.6788525E1,3.9790254E0,7.6382286E1,6.3977075E0,6.9678164E0,3.1635294E0,3.3624996E1,6.114089E0,7.0268196E1,2.3091526E1,1.0533471E1,1.0813049E1,5.9455147E1,3.9026217E0,6.630849E0,5.3912754E0,5.4217744E0,1.515274E1,4.4302406E1],"tree_param":{"num_deleted":"0","num_feature":"22","num_nodes":"23","size_leaf_vector":"1"}},{"base_weights":[1.466436E-2,1.5522958E-1,-4.7975588E-1,3.9413776E-2,4.493546E-2,2.0767927E-2,-4.3491513E-2,5.8663808E-2,-2.1423498E-2,1.5470414E-1,-3.4582165E-1,-1.0857867E-2,3.275638E-2,2.4051797E-2,-4.111743E-2],"categories":[],"categories_nodes":[],"categories_segments":[],"categories_sizes":[],"default_left":[1,1,1,0,0,0,0,0,0,0,0,0,0,0,0],"id":51,"left_children":[1,3,5,-1,7,-1,-1,-1,9,11,13,-1,-1,-1,-1],"loss_changes":[9.171545E0,5.627002E0,6.098026E0,0E0,5.2749634E0,0E0,0E0,0E0,4.651807E0,6.9943624E0,7.468152E0,0E0,0E0,0E0,0E0],"parents":[2147483647,0,0,1,1,2,2,4,4,8,8,9,9,10,10],"right_children":[2,4,6,-1,8,-1,-1,-1,10,12,14,-1,-1,-1,-1],"split_conditions":[1.229658E0,7.254828E-1,1.4242857E2,3.9413776E-2,6.369187E-1,2.0767927E-2,-4.3491513E-2,5.8663808E-2,1.6025E2,1.0466741E0,8.4162927E-1,-1.0857867E-2,3.275638E-2,2.4051797E-2,-4.111743E-2],"split_indices":[11,13,10,0,11,0,0,0,10,18,17,0,0,0,0],"split_type":[0,0,0,0,0,0,0,0,0,0,0,0,0,0,0],"sum_hessian":[1.2989635E2,1.01675674E2,2.8220676E1,1.7497847E1,8.417783E1,6.320507E0,2.190017E1,4.6970634E0,7.948077E1,5.185169E1,2.7629076E1,2.8159477E1,2.3692213E1,8.548343E0,1.9080734E1],"tree_param":{"num_deleted":"0","num_feature":"22","num_nodes":"15","size_leaf_vector":"1"}},{"base_weights":[5.526381E-3,2.0351511E-1,-3.2519747E-2,2.7240586E-2,-1.2907371E-1,-4.3002138E-1,2.9220393E-2,3.443849E-2,-3.6063783E-2],"categories":[0,1,2,3,4,5,6,7,8,9,10,13,14,15,16,17,19,20,21,22,23,24,25,26,27,28,29,30,31,32,33,34,37,38,39,40,41,42,43,44,45,46,47,48,49,50,52,69,79,0,1,2,3,4,5,6,7,8,9,10,11,12,13,14,15,16,17,18,19,20,21,22,23,24,25,26,27,28,29,30,31,32,33,34,35,36,37,38,39,40,41,42,43,44,45,46],"categories_nodes":[1,4],"categories_segments":[0,49],"categories_sizes":[49,47],"default_left":[1,1,0,0,1,0,0,0,0],"id":52,"left_children":[1,3,-1,-1,5,7,-1,-1,-1],"loss_changes":[1.4989046E1,8.486443E0,0E0,0E0,8.410086E0,5.475512E0,0E0,0E0,0E0],"parents":[2147483647,0,0,1,1,4,4,5,5],"right_children":[2,4,-1,-1,6,8,-1,-1,-1],"split_conditions":[1.200672E0,NaN,-3.2519747E-2,2.7240586E-2,NaN,7.504015E-1,2.9220393E-2,3.443849E-2,-3.6063783E-2],"split_indices":[11,3,0,0,0,13,0,0,0],"split_type":[0,1,0,0,1,0,0,0,0],"sum_hessian":[1.3670996E2,1.00775505E2,3.5934456E1,5.7424896E1,4.3350605E1,2.9300264E1,1.4050341E1,3.8851528E0,2.5415112E1],"tree_param":{"num_deleted":"0","num_feature":"22","num_nodes":"9","size_leaf_vector":"1"}},{"base_weights":[-5.45322E-2,2.7388123E-1,-3.0560175E-1,4.9484256E-1,-1.6568151E-1,-3.2616466E-2,-3.9719153E-2,-2.8470833E-2,6.180777E-1,-6.175631E-2,4.5274035E-3,-2.7869853E-1,6.592233E-2,2.8530294E-1,6.085656E-2,-6.066302E-2,-7.924916E-2,6.0660746E-2,-1.7067078E-3,1.115716E-2,-4.001659E-2],"categories":[0,1,2,3,4,5,6,7,8,9,10,11,12,13,14,15,16,17,18,19,20,21,22,23,24,25,26,27,28,29,30,31,32,33,34,35,36,37,38,39,40,41,42,43,44,45,46,47,48,49,50,51,52,53,54,55,56,57,58,59,60,61,62,63,64,65,66,67,68,